90 300
<unk> 0.0695252121263 0.0245349012404 0.0873057446739 -0.194878021348 -0.190493088171 0.229960720563 0.212601194596 -0.197881021825 -0.0444582843481 -0.208216450126 0.029482549395 0.243746102195 -0.18871428459 0.196605647499 -0.187198116281 -0.1510788619 0.129175688864 -0.0456370849524 0.0643367715282 0.271158406873 -0.167671719167 -0.129602375627 -0.0483972834115 -0.0249171331308 -0.1024228812 -0.163660163509 -0.136580182521 0.09348939014 0.1826855742 0.311017482803 0.0569389509237 -0.111668939054 -0.0748555912113 0.0400802073286 -0.0355987836544 0.0434326577971 0.106809226006 0.196905510144 0.155912145182 0.116751917609 -0.128009782265 0.149080023481 0.00423774137957 0.171269401106 -0.111598134951 0.0471710354709 -0.185466916812 -0.176873231296 -0.251383064784 0.175982335521 0.206189310883 0.193591463655 -0.0232293097734 0.198956074417 -0.0393911508717 -0.171036388251 0.247116100122 0.00609855773413 -0.0124441395484 -0.0901917174089 -0.259669560102 -0.125058338071 0.0033312816315 -0.129151909274 -0.16479604185 0.125736635863 0.18737089877 0.169147784667 0.0144810064386 -0.196899891191 0.0111637161947 -0.265746386182 0.0272531681471 0.0376836727418 -0.1248086244 -0.0568088326448 0.284704582926 0.233463835432 -0.0122217304112 0.104690300103 0.0360350830441 0.031880825397 -0.141316386758 -0.00475673674407 0.0401180300657 -0.124105311003 0.0652697525701 0.0765508968027 0.179276526293 -0.0840272571101 0.0480101867745 -0.205499475123 -0.0490161472177 -0.13798421184 -0.0832529580966 0.0882683850718 -0.0424109471513 0.276911132773 0.00166431819062 -0.216111954869 -0.0648715556586 0.131268178158 -0.106263483605 0.146329083427 -0.204906468045 0.13623100821 0.130913786139 0.0404827448259 0.125077562063 -0.0124122582436 0.189586220291 0.114971134264 0.112664674907 -0.0596928172851 -0.0125339299179 0.0584668488091 0.253499377977 -0.283829276527 0.0281109473605 0.130914630231 0.156191173522 0.168614353624 0.139653654568 -0.226409655234 0.14908001001 0.246392936974 -0.181359071086 0.12810116292 0.0760041603203 0.100276341037 0.0989968373681 0.00262632898149 0.00710254175187 -0.0462448328559 -0.178131655639 0.194003207062 -0.0537095496481 -0.260052437919 -0.148522085799 0.170557215861 0.199018862969 -0.1566746429 0.0260901416522 0.0378424774115 0.219234783819 -0.0284419926467 0.0506867973391 0.0227988794524 -0.0987871112892 -0.199385578503 -0.0619405785856 0.173280684493 0.276559665449 -0.0807483282882 -0.175718839921 0.173144647096 0.268541793337 0.242585807212 0.0572740824942 0.0257560374636 -0.0967972016616 0.189484224949 -0.253454097849 -0.165816156431 0.0997880153105 -0.0128348693525 -0.245148584979 0.173858472068 -0.255113917426 0.210860535348 -0.178188506732 -0.186730934537 -0.00163409376023 -0.0816099257917 0.152073366133 0.0205809985269 -0.236583829537 -0.145022036867 0.0804276822431 0.11098286823 -0.156756405581 -0.167810744467 0.133007199291 0.0487643064699 -0.216255355637 0.0419125653993 0.096153016623 0.00852314299899 -0.150118501576 -0.205771794683 -0.109243783041 0.303120365629 -0.313690018534 -0.0391798045254 0.277000580364 0.123670830493 0.0661096644726 -0.130802609427 -0.00890100878391 0.0574062581431 0.0264623675865 -0.0443465652183 0.1329829008 -0.171262064646 0.00226749857769 0.0580043135854 -0.241743872699 -0.0529796672961 0.29868793495 0.274729710406 0.114522447902 0.0908609879421 0.216347404605 0.323256774577 0.0560473872475 -0.117000187405 0.0578944093847 0.0692353610902 0.0389406600848 -0.0485927098601 -0.0341506361634 -0.254302280855 -0.240845834684 -0.130408803181 -0.00649391118575 -0.115436321252 0.227200663964 -0.215393259211 -0.194804363144 -0.112363968916 0.0697757840677 -0.223534108002 0.186114709741 0.0212223634325 0.0918350074557 0.158910080257 -0.186311008879 -0.0488021104708 0.169623426196 -0.0727293273569 0.146961537638 -0.227082622827 -0.17130861595 0.182546352032 -0.188945254108 0.0589617271876 -0.255165332275 0.242602103476 -0.108420830406 0.11839165556 -0.228687616637 0.209998412104 -0.0651292808466 0.270217512942 0.154385987897 -0.251617134953 -0.00652385523732 -0.0954745045594 0.00238137789225 -0.142584393085 0.0797680950071 -0.0190319363781 -0.0154657786013 0.291414664647 -0.0988649905282 -0.0464757539821 -0.0820199319592 0.0370557091813 0.0415678311062 0.17921192844 -0.0495813790008 0.223873188046 0.172583982353 -0.294404729899 0.169102836498 -0.0854347190753 -0.121221762294 0.181390063842 0.126420937717 0.147403679369 0.112136550469 -0.136432951961 -0.00284650636404 0.155339237037 -0.261939471676 -0.197191824454 0.296333468926 -0.205980106216 -0.202142364908 -0.240965639125 -0.29053338938 -0.109188643496 0.113002799747 -0.148522914718 -0.106841115008 -0.24209120219 0.229472339921 0.158954198381 0.147485975324 -0.144980421915
the 0.0173364570529 0.00603068256389 0.0240388847432 -0.0550974540083 -0.0556376347384 0.0654056186881 0.0591741584027 -0.0564162939144 -0.0139004902817 -0.059842511699 0.00868378272501 0.0681731454697 -0.0543218787634 0.0535482955183 -0.0529722233148 -0.0427157907666 0.036192697013 -0.0139632707584 0.0179808037453 0.0747438073681 -0.0480773393764 -0.0368281036526 -0.0126827194103 -0.00648953931419 -0.0294971453365 -0.0465826828398 -0.0377086062033 0.0259732986921 0.0524952870429 0.0883760566501 0.0158862256162 -0.0301536338424 -0.0196099822967 0.0114418539794 -0.010003164834 0.0097317350757 0.0280060744275 0.0553282039123 0.0420280082902 0.0344585699677 -0.0350156506478 0.0416260508559 0.000637320940823 0.0495323084659 -0.0310054648751 0.0149251583713 -0.0529977172936 -0.0498646010852 -0.0712413965087 0.0500343164872 0.0578391867624 0.0552836951864 -0.00730395890659 0.0549533948145 -0.00939277506207 -0.0500586886595 0.0685829364571 0.0038975039078 -0.00388987702917 -0.0249686784402 -0.072048721372 -0.0357809333962 0.0012071211164 -0.0362055299147 -0.0465508753855 0.0342091407276 0.0540107840023 0.0467470306817 0.00462043789059 -0.0537509887347 0.00216053798566 -0.0751989445647 0.00781581598574 0.00984308141602 -0.0333292322732 -0.0148299050219 0.0821147071031 0.0641738181384 -0.00589643188184 0.0280267087705 0.00848435706678 0.00946637306492 -0.0380086955165 -0.000760416477025 0.0131620882655 -0.0343142869667 0.0193792879154 0.0199646673061 0.0490347943131 -0.0231618791346 0.0133340658402 -0.0589184356257 -0.0147655023492 -0.0367072672293 -0.0219396108497 0.0243018929123 -0.0109765618996 0.0794799397119 0.00147990867117 -0.061640228306 -0.0180686210003 0.0359941568986 -0.0307238730953 0.0418151855664 -0.0572628511811 0.0390738466999 0.0385599159244 0.0113222486881 0.0351965997604 -0.00247954965688 0.0525953665738 0.0318580760703 0.0333159038938 -0.0179840103912 -0.00472189427146 0.0162105510507 0.0705337145541 -0.0808676745532 0.00832310820379 0.0382934028429 0.0433046522773 0.0468775362977 0.0411572265227 -0.0648809324362 0.043227994409 0.0713324743012 -0.0507157032903 0.0368157999889 0.0204713392796 0.0292555074769 0.0294527352002 -0.00118520179874 0.00146922129496 -0.0114223981172 -0.0505306538818 0.0531073277563 -0.0166499241776 -0.0749581089818 -0.0436430617291 0.0479229292862 0.057952681451 -0.0455254163778 0.00670000968844 0.0120975734582 0.061549783872 -0.00749432231288 0.0134359719342 0.00792769538502 -0.0273078145414 -0.0546994077349 -0.0184716593089 0.0488617436674 0.0789618595565 -0.020658150007 -0.0487059071505 0.0488386576018 0.0758022168908 0.0705677525183 0.0156629540573 0.00874900036182 -0.028541102691 0.0534235556051 -0.0706570438786 -0.0478521296966 0.027765128938 -0.00508393134658 -0.0691774430597 0.0469329837221 -0.0745652274514 0.0606354438146 -0.0515542200256 -0.0536525696445 -0.00193824702989 -0.0245262187385 0.0432424294557 0.00585984111708 -0.0667680078456 -0.0392712170106 0.021351296727 0.03081785668 -0.0443362508373 -0.0449769631226 0.0382041428157 0.0147811285554 -0.0627357302919 0.0118594093447 0.0273147525718 0.00232159511449 -0.0419076605505 -0.0594989411691 -0.0295310980181 0.0857449784246 -0.0892004780343 -0.0113775151954 0.0777487308257 0.0336652117328 0.0189270824826 -0.0370095993957 -0.00283081972656 0.0163405688118 0.00749839193971 -0.0133065093631 0.0370588050968 -0.0500943287863 0.001515468294 0.0178312544428 -0.0687857332112 -0.0159536216882 0.082649684505 0.0783498989823 0.0303359683562 0.0269954860372 0.0606324008683 0.0903383342055 0.0145859649454 -0.0349495793615 0.0174618343134 0.0204109496295 0.0115155735715 -0.0125880122228 -0.0111080320004 -0.0694858716452 -0.0667779554984 -0.0376881712431 -0.00148316123076 -0.0331365475109 0.0621000737225 -0.059481116183 -0.0558420607283 -0.0310144484371 0.0184914599086 -0.0638872379739 0.0512061481651 0.00536770669019 0.0260380865694 0.0450094735083 -0.0527740214225 -0.0142333740024 0.0469144461654 -0.0212305495723 0.0419254463462 -0.0650215322083 -0.0474424737973 0.0518476759913 -0.0547986690956 0.0177478790864 -0.0703342076638 0.0696754606648 -0.0298512193773 0.0352561955135 -0.0650608897764 0.0597093448287 -0.0173529894355 0.0747868310764 0.043851406143 -0.0692498570152 -0.00350588482693 -0.0252188721896 0.000133244265522 -0.0414407266267 0.0226198088024 -0.00588880633134 -0.00434551454234 0.0813079654753 -0.0264368314314 -0.0139349616763 -0.0210423617941 0.0102049492496 0.011440083296 0.0499299583792 -0.014810667258 0.0626774012041 0.0478259284487 -0.0828456353838 0.0475723588334 -0.0223053641632 -0.0331651766744 0.050171882085 0.0359848153952 0.0427807457339 0.0307798652282 -0.0372941469515 -0.00240637555175 0.0441037849631 -0.0736854194032 -0.0549318684576 0.0826229873998 -0.0576326102284 -0.05845691604 -0.0700534192567 -0.0823692692882 -0.0313378867186 0.0320811464024 -0.042309621935 -0.0314054732382 -0.0671253853496 0.0636754110705 0.0452190738698 0.0408062497034 -0.0390094973907
of 0.0236809060298 0.00712266433984 0.0328290510878 -0.0719547673877 -0.0724908816883 0.0861642790096 0.0791156171127 -0.0743814666123 -0.0194062998465 -0.0750239179131 0.00976856937546 0.0901909229759 -0.0710492907101 0.0717954379956 -0.0700111473379 -0.0550236118323 0.0474709312151 -0.0170386631376 0.0255574170901 0.0996871096143 -0.0615207809282 -0.0495313151685 -0.017067865955 -0.00800563976417 -0.0369443835751 -0.0600717036654 -0.0509065439753 0.0364367096718 0.0679073431608 0.115861026098 0.0210150560297 -0.0394630625931 -0.0258938220364 0.0144615417139 -0.0144737066666 0.0145911283987 0.0402280419492 0.0710918531682 0.0573141659549 0.0452416400368 -0.0476131456221 0.055998987303 0.0025465303025 0.0622063136282 -0.0396405706559 0.0173891323986 -0.0672026151297 -0.0662101458674 -0.0929606529529 0.0640022449425 0.076075334909 0.0710780356227 -0.00884898206835 0.0719761525549 -0.0130194828151 -0.0655824301274 0.0928213760696 0.00366879634105 -0.00365381184003 -0.0319678906251 -0.0959909137824 -0.0469778804677 0.000579863224507 -0.047311403843 -0.062668298836 0.0449921427651 0.0674872226885 0.0634286166076 0.00597366039648 -0.0715119806008 0.00551171546495 -0.100274485731 0.0110206734653 0.0123731929021 -0.0466927275954 -0.021757751403 0.10648761133 0.0867503472747 -0.00536673635374 0.0368214509127 0.0124199511217 0.0119256513725 -0.0529277740104 -0.000375201133655 0.0169606854691 -0.0449305956466 0.0252057735265 0.0259228799654 0.0649979612451 -0.028937010062 0.0186636979767 -0.0777946268787 -0.0171123077395 -0.0501473950587 -0.0301221608523 0.0320972613808 -0.0141697525278 0.103233102603 0.000792223093539 -0.0805531117573 -0.026050069382 0.047733715409 -0.0400012962428 0.053774673238 -0.0780388270679 0.0515363660253 0.0496541806276 0.0161443753363 0.0459127675623 -0.00494002165641 0.0706799048256 0.0427491024318 0.0421923605754 -0.0237652595114 -0.00311856404878 0.0220081730123 0.0954914143642 -0.107400591398 0.0104555678287 0.0492171679599 0.0583720456584 0.0627939619128 0.0515333436575 -0.083783016957 0.0560631692009 0.0926637075165 -0.0670130632451 0.0455512857641 0.0281973225543 0.0383482192518 0.0365014084557 0.00112761016939 0.00132435971506 -0.0163442027734 -0.0633168201198 0.0692081162946 -0.020024206882 -0.095982419327 -0.0560680888642 0.0659101503984 0.0759941471594 -0.0564229857499 0.0118692888827 0.01415700067 0.0829177530237 -0.0117361995771 0.0193812759619 0.00901490075099 -0.037634191098 -0.0729902248616 -0.0233714236641 0.0659750967086 0.101924585431 -0.0297983495383 -0.0642244199146 0.0628777855585 0.102026875469 0.0900918832604 0.0205771298521 0.0115408848453 -0.0362870978536 0.0715748206944 -0.0951982643038 -0.0596663558294 0.0352336655978 -0.00399537421328 -0.0912497739231 0.0630746767011 -0.0974230357284 0.08009725361 -0.0662690931071 -0.0711667952572 -0.00125564616004 -0.0292061318022 0.0552658968589 0.00614235980316 -0.086894485306 -0.0528417273862 0.0307083351484 0.0424320654033 -0.0579105111728 -0.0609183306895 0.0489162840128 0.0164969234925 -0.0810541411875 0.0150204420877 0.0376941568867 0.00320286744227 -0.0549385118888 -0.0769423798815 -0.0389950807706 0.112211214004 -0.11776941744 -0.0127094223883 0.103826330833 0.0467167115762 0.0234993526415 -0.0484659628611 -0.00449943301528 0.0204870356129 0.00935458507912 -0.0170501476288 0.0499864417911 -0.0650619664464 0.0008608111058 0.0228988859385 -0.0885804402583 -0.0223995421734 0.112654634777 0.102779249564 0.0427440310961 0.0352242103085 0.0791100084619 0.120413771134 0.0192477991876 -0.0465231227885 0.0234082639963 0.0257578435883 0.0158825906684 -0.0170411240837 -0.0115845680382 -0.0933527038558 -0.0888758829573 -0.0489054364994 -0.00212219220401 -0.0438902868676 0.082333708466 -0.0785718271484 -0.0721829021503 -0.041473577723 0.0261530137663 -0.0839291301711 0.0678122261568 0.00548956763737 0.0338301809704 0.0591118207825 -0.0684785289581 -0.0195214302449 0.061585362208 -0.0299274704447 0.0557004864335 -0.0834045985553 -0.0655200606202 0.0663470818469 -0.0713944665415 0.0206845043666 -0.0931815671777 0.0921876416116 -0.0418686456589 0.0454830617552 -0.0858603470195 0.0789970338539 -0.0227463549481 0.100722343038 0.0556413878827 -0.0923847666175 -0.00266848818234 -0.0346783862919 0.00304771993557 -0.0523683005701 0.0312148591705 -0.00854607354418 -0.00304693665506 0.108570043131 -0.0369547186788 -0.0171830123535 -0.0303166460935 0.0142795466056 0.0134865109511 0.0650692447445 -0.0166872534198 0.0830795422148 0.0622001010213 -0.109344413075 0.06424753314 -0.0289538193934 -0.0450516122424 0.0674686564994 0.0452242391415 0.0544447553646 0.0400356234021 -0.0514625400104 -0.00268705352896 0.057655423212 -0.0991068627905 -0.0732954349719 0.107861635636 -0.0767247672887 -0.0751803870716 -0.0907366609458 -0.109893906071 -0.0396607756584 0.0434147376041 -0.053306915643 -0.0425976105989 -0.0878708661425 0.0840069041795 0.0579511828037 0.0545377916514 -0.0535270260204
and 0.0147278623262 0.00545159533939 0.0231602337895 -0.0489052921835 -0.0476174389196 0.0561607845811 0.0530183670113 -0.04773563369 -0.0125336547181 -0.0495814111469 0.00894486977891 0.0603357020692 -0.0457931905311 0.047013972401 -0.0464391120305 -0.0352114105437 0.032110568705 -0.0129415169802 0.0152041549271 0.0661931536061 -0.0425716159277 -0.0309411957422 -0.0101205743186 -0.00568452841495 -0.0255348069724 -0.0400054304508 -0.03233166004 0.0228558021126 0.0463870427125 0.0754119021037 0.0144786540942 -0.0266346061191 -0.0171897392052 0.00858695394066 -0.00922169259511 0.00859624061926 0.026342543313 0.0472587044849 0.0384428774551 0.0288040731732 -0.0308921524257 0.0371797144093 0.00122908838249 0.0421297031239 -0.0271464795712 0.0135739606441 -0.044815079256 -0.0447220412597 -0.0634121337491 0.0437712204591 0.0488770487482 0.0482172383317 -0.00549599731814 0.049687497648 -0.00837639161279 -0.0423638270746 0.0599412225029 0.0013186305291 -0.00128184675169 -0.0225262101766 -0.0623085004289 -0.0296637033121 0.000982852800596 -0.0320602480963 -0.0391555031507 0.0310873940933 0.0455110561778 0.0408177101311 0.00452924790563 -0.0487135578209 0.00400892558133 -0.0651651574492 0.00551897226642 0.00958505207999 -0.029431428304 -0.0129572023346 0.0696427615944 0.0568238737691 -0.00481917626892 0.0231525023886 0.00978460468724 0.00843083286721 -0.0346748212086 0.000216023138814 0.0109233676038 -0.028895697139 0.015646042677 0.0173244160233 0.0416277026078 -0.0189979228984 0.0121921096085 -0.05208956241 -0.0131274828808 -0.0332041992604 -0.0213515841424 0.0233693334856 -0.0110325123654 0.0688972180192 -0.00102876116457 -0.053563276337 -0.0155326836274 0.0321345088793 -0.0271797464415 0.0366997946044 -0.0514232795607 0.0346277599923 0.0324242454448 0.00882257648576 0.0286555223155 -0.00243216088836 0.0458844533867 0.0269803924254 0.0283910717717 -0.0148729109745 -0.00153960948024 0.0134289648659 0.0616867295662 -0.0715183787182 0.00869755021779 0.0317501401973 0.0380485167904 0.0409661005559 0.0355622868694 -0.0561075852282 0.0373656804637 0.0622019150359 -0.044875067872 0.0311157553172 0.0185642269082 0.0253667425998 0.0243804773062 0.000596426341019 0.00329327110276 -0.00982791878472 -0.0429322630051 0.045271174376 -0.0137428765854 -0.0648884736867 -0.0372184071708 0.0427599081725 0.0496489688777 -0.0364693710124 0.00837201437134 0.009868667754 0.0550302111596 -0.00655705595951 0.0102873649597 0.00586984417895 -0.0260270029445 -0.048504662094 -0.0157699050718 0.0442224259719 0.0692697286792 -0.019376924798 -0.0437655642088 0.0413990099633 0.0675769250233 0.060100789654 0.0126195392369 0.00774342885543 -0.0241224582926 0.0470080668196 -0.0621472494243 -0.041678930092 0.0247982462173 -0.00236418042881 -0.0610373445865 0.0433643694438 -0.0650823989635 0.0512245454828 -0.0453680195405 -0.044664778754 -0.00104091017128 -0.0201617452015 0.0355461977222 0.00441898539057 -0.0579013671927 -0.0358590427262 0.0182574856034 0.0272077468186 -0.0393909800315 -0.0411529867067 0.0343205606313 0.0129591072219 -0.0546549678273 0.0118761182031 0.0226237616209 0.0010900298267 -0.0383376880355 -0.0510049258749 -0.0279961494194 0.0728478954588 -0.078920492601 -0.0105991002865 0.065903864865 0.0292760694909 0.0141351711437 -0.0314718005976 -0.000758658432109 0.0123480466108 0.00764707770366 -0.010671056367 0.0335399901082 -0.0425355699975 -0.000513897720353 0.0144727061399 -0.0585701095141 -0.0151909772804 0.0716181773388 0.0682143533149 0.0285263109789 0.0232595950651 0.0517337429734 0.0810373397527 0.0129783582933 -0.0292557064935 0.0139204029228 0.0171043124301 0.0104702924222 -0.0106398859447 -0.00877564512607 -0.0627001709956 -0.0597706928871 -0.0340264726647 -0.00220462510078 -0.0273060826944 0.0548370147752 -0.0534322358363 -0.0464316957434 -0.0265967922045 0.0155889320831 -0.0533915951453 0.044034726443 0.00397914865402 0.0207023863492 0.0404861569451 -0.0462404725536 -0.0120763177733 0.0415708579727 -0.0182448137143 0.0363049609646 -0.0540869389964 -0.0435578551199 0.0456531197105 -0.0477113351567 0.0137437717441 -0.0604078749622 0.0606476344309 -0.0260271562977 0.0313092168467 -0.0548059298368 0.0514577388283 -0.014167112099 0.064304612847 0.0362347934743 -0.0625740950134 -0.00274331912064 -0.0236892865479 0.00254787863281 -0.0339828865932 0.0210001901526 -0.00460419001612 -0.00119349166506 0.073165296705 -0.0254324477337 -0.0113868299665 -0.0181262684254 0.0103874504892 0.00895015826448 0.042892878296 -0.0113459426926 0.0546758778011 0.0416939068585 -0.0712852779259 0.0432263370432 -0.0209630860626 -0.0298378233968 0.0431266623965 0.0300272505771 0.038093231729 0.028286734393 -0.0344403808086 -0.00102347721721 0.0375788172122 -0.0627889966454 -0.0478745612982 0.0721772601107 -0.0518386390877 -0.0514985099803 -0.0613457061343 -0.0723300863267 -0.0258344321938 0.0288391498781 -0.0349715827505 -0.0285183562944 -0.0591451430383 0.0537538350252 0.0377753636778 0.0373893747962 -0.0338685147375
to 0.0291593999725 0.0112105303827 0.0401345569491 -0.0870827536609 -0.087183438687 0.103185642503 0.0949827959039 -0.089116021564 -0.020261752977 -0.0910311679804 0.0130216416296 0.106832807884 -0.0837792368212 0.0874602880669 -0.0834692458308 -0.0655516765442 0.0582913498929 -0.019756641503 0.0286468385483 0.120404113816 -0.0760666953784 -0.0567973075818 -0.0220387929357 -0.0125522905193 -0.0443825147216 -0.0739272206353 -0.0622467721848 0.0441564005444 0.0836891597321 0.140378737206 0.0247871774525 -0.0486378409353 -0.0318808988843 0.0159711225205 -0.0150350895002 0.0173730454795 0.0459075694961 0.0862447768333 0.0698156926911 0.0545251587959 -0.0569091935592 0.0665199065574 0.00372751117147 0.0776197227505 -0.0487458334202 0.0224259358283 -0.0806509237858 -0.0782091213423 -0.11257905832 0.0767894821112 0.0908361728024 0.0880625099394 -0.0102976385875 0.0868428655902 -0.0169870320498 -0.0779683164471 0.110427496346 0.00501809567907 -0.00581478873165 -0.0384818162594 -0.114861652039 -0.0563269597383 0.00163803595539 -0.0576573643942 -0.0744055732721 0.0555860801052 0.083169165018 0.0748550816236 0.00629564021481 -0.0871574385627 0.00652303987056 -0.119704289484 0.0112569650922 0.0169059057399 -0.0533013578389 -0.0236518500534 0.129345462321 0.104291081256 -0.00711867697271 0.0436864344141 0.0151286838971 0.0156993129197 -0.0619628924828 -0.00341590437215 0.0181350910468 -0.0552376651235 0.0281084069327 0.0325268403384 0.0781850766255 -0.0360022941373 0.0205812149723 -0.0928959243444 -0.0218187598196 -0.0604199956323 -0.034873509627 0.0415619547698 -0.0179486675533 0.125075632296 -0.000409774621309 -0.0969155702867 -0.0310759240125 0.058040876825 -0.0495497661085 0.0663213660689 -0.0931895634686 0.0606734316787 0.0577960729316 0.0176815801252 0.0543082117035 -0.00726730976848 0.0855835413844 0.0510113968253 0.0502698541552 -0.0253147564041 -0.00616523780847 0.0262842770958 0.113825677515 -0.127980896361 0.0136038372448 0.0570251240871 0.0699169810132 0.0761943816953 0.0630468271929 -0.102170138693 0.0672183293295 0.11031829408 -0.0800684805223 0.0561881033329 0.0317534123317 0.0454306062448 0.0441691916581 -9.15773855047e-05 0.00380785008659 -0.0197221500236 -0.0769023445629 0.0838511063273 -0.02598642259 -0.115331075781 -0.0673965200298 0.078654748557 0.0912204263273 -0.0707970876713 0.0130398629561 0.0186155702462 0.0993705090699 -0.0138203807104 0.0224467498964 0.0116784471192 -0.0450858744355 -0.0889026917602 -0.0296844730617 0.0788126959031 0.124246464682 -0.0341221893623 -0.0775097977061 0.076671871705 0.120781301995 0.110056114922 0.0251409187045 0.0136304944413 -0.0441849719157 0.0862826734172 -0.114642592056 -0.0725146425666 0.0436021189909 -0.00610570644254 -0.108363660246 0.075456652461 -0.117138020425 0.096103106684 -0.0813236608569 -0.0833584940368 -0.00114026920107 -0.0376660854136 0.0664281728185 0.00959602774401 -0.106300506207 -0.0653723233288 0.0374988225054 0.0512175823174 -0.0714435371101 -0.0723328615451 0.0607767803532 0.0230299054306 -0.0978760792868 0.0176643025693 0.0426801824809 0.00548190850813 -0.0666496086031 -0.0928997909335 -0.0477948194285 0.135223634072 -0.142955620387 -0.0155730948912 0.12505677353 0.0553547732038 0.0283630554303 -0.0590400730847 -0.00321639816451 0.0239031173665 0.0126781860281 -0.0192558389145 0.0614267923272 -0.0779755630263 0.0013841257643 0.0257687686986 -0.109196038286 -0.0244788169555 0.135027897966 0.121980490911 0.0502933258874 0.0397227646122 0.0963610498108 0.146111832251 0.0257918545307 -0.0549463532795 0.026395705037 0.0327700710976 0.0197109830882 -0.0229854527761 -0.0165214447893 -0.112034568976 -0.105008076911 -0.0603974031382 -0.000962907115352 -0.0522634522798 0.0998511120218 -0.0940322012764 -0.0873618819495 -0.0487219127837 0.0299551376155 -0.101577136005 0.0837823806678 0.00871567264415 0.0397381655478 0.072022870045 -0.0831571602746 -0.0205583364708 0.0745938880813 -0.033627986421 0.0671403945403 -0.100919694086 -0.0766419328472 0.0827792296562 -0.0838117155914 0.0248638867696 -0.112824652559 0.110104478688 -0.0488041847944 0.0550632232516 -0.104005850719 0.0931443212015 -0.0277656697808 0.118531955329 0.0699592266117 -0.110766343042 -0.00330919392897 -0.0420314356131 0.0028494984635 -0.0620726629982 0.0365240312973 -0.00762211096539 -0.00587004237816 0.130568773828 -0.0441300373755 -0.0223918735193 -0.0338547353001 0.0160646210029 0.0172315933978 0.0812464315996 -0.0220392374956 0.10216377866 0.0757579693493 -0.130671365031 0.0782026874499 -0.0362634914508 -0.0523858981005 0.0802004480019 0.0574881368047 0.0668752124716 0.0487554929284 -0.0618202342568 -0.00190540207407 0.0709807343999 -0.116929414171 -0.0888345842749 0.132462291038 -0.0912125732019 -0.0906618941551 -0.110000810447 -0.131172576802 -0.0497450865267 0.0510179481945 -0.066862141407 -0.047821884392 -0.10938988846 0.100034877928 0.0689998973058 0.0645676295354 -0.0639136192979
<bol> 2.03126679368e-05 0.00140137105219 0.00139336424079 -0.000862317658646 -0.00148958105595 0.000984651108366 0.00143625142964 3.04094520698e-05 0.00125965929808 0.00133708517185 -0.00124807682259 0.00163625448 0.000491133667665 -0.000899623340506 -0.000935260247541 -0.000568207081864 0.00121241408917 0.00135931909342 0.00071983614361 0.000522734626027 0.00166235552363 -0.00074930563398 -0.00139804639087 -0.00162621426964 0.00117347047253 0.000556659373485 -0.00130481429916 -0.000858340052435 -0.000902586690422 -0.00128172298973 0.00029092959266 0.000316072911074 -0.00146627474198 0.000870472205607 0.00159123888663 0.001590059596 0.000478460066037 0.00138721554114 -0.000659009397672 -0.000299586747086 0.00124522981927 0.000460416659015 0.000466903068195 0.000589385991123 -0.00108206465328 0.000948467886387 -0.00147766093356 -0.000545886476117 0.00128611466392 0.00148024699643 -0.00143914241147 -0.00055448672563 -0.00145346848708 -6.72240914118e-05 0.000169906576624 -0.00164700121571 -0.00139354520656 -0.00161874999446 0.000980327753328 -0.00105179158314 0.00065371751637 0.00110470268573 -0.000332227325202 0.000257401118038 0.000498829851916 0.00025060873278 -0.00052538665087 0.00140161719863 -0.000283882827473 -0.00039606868191 0.0013767679721 0.000708401004977 -3.38959652082e-05 -0.00023247643652 0.000352323396878 -5.09293099906e-05 0.000741810414737 0.00132831310973 -0.00151668041834 -0.000942458643386 0.000288721466774 0.00117456221204 0.00156069509833 -0.00122216689019 -0.00153725620642 0.00122568115477 -0.000150533143599 -0.000674904377501 0.00128017800244 -0.00113647482784 -0.00153479304059 -0.000175210757732 -8.15531231627e-05 0.000752095628526 -0.00140385962138 0.00107381089164 0.000216324827082 0.00108519416926 0.00138638164817 0.000336091435517 0.00133832099126 -0.000189178799459 -0.000763605231122 -0.000219738850203 -0.000542153230206 -0.000717416121039 0.000262596232126 0.00141178224752 -0.000701803633328 -0.00058554932881 0.00105156646262 -2.28335743537e-05 -0.000542356252689 0.000434711957749 0.000618814183649 -0.000601531848808 0.000172763786362 -0.000114684173259 -0.000582545627885 0.00141169621636 0.000559311741433 -0.000493293746495 0.00112670563889 0.00110521806492 -0.000569425168366 -0.00115827587656 0.000227748197371 0.000910410356537 -0.00113506999494 -0.00159879540245 -0.000951958110173 -0.000522283768095 -0.00154526592487 -0.00121537923728 -0.00131053220759 0.00166036423522 0.00131844083831 -0.000976098556373 7.66330053507e-05 -0.000617469229 -0.000657829557253 -0.00107487905624 -0.00099912882311 0.00054520618836 0.00070592798358 0.00136440260538 -0.000933119509733 0.000486814344112 0.000306701472237 -0.000675584582359 -0.00059422138989 0.000533871996989 -0.00098155565612 0.000871600587096 -0.000337838108905 -0.00138896304579 0.00077720278397 -0.00160697403248 -1.66579637498e-05 -0.000709799523351 -0.00144126005628 -0.00146638028721 0.000526842875671 -0.000532228561006 0.00107533340027 0.00150273947686 0.00152933901197 0.000697247746265 -0.00136824054964 -0.00128695562146 -0.000580330575753 0.00133808890296 0.000807896708012 0.000273140322203 0.0015663742818 -0.000782531453025 0.000190060608327 0.000517249129859 0.00165572425997 -0.00120009362792 -0.000783297889664 0.00017210680752 -0.000791752388716 -0.000754113298839 0.00158492163154 0.0013909309126 -0.000557260099938 0.000178161866584 0.000616064073344 -0.000797867304706 -0.000361859351039 -0.00058275778744 1.27111589523e-05 0.000885111393075 -0.000601144655933 0.00127207353398 0.000631862998211 0.00145210751493 0.0008035095798 -0.000150321475821 0.000292392728886 0.000571633915602 -0.00015433224466 -0.00139377042654 -0.000276030248156 -0.00113872299607 0.00164121006064 1.76910225905e-05 -0.000479042912888 -0.00127722674147 -0.000386427032988 -0.00161555560041 0.00149383468102 0.00161558370724 -0.00125430057197 -0.000769938402159 0.000717009108781 -0.00126471344621 0.00117045218341 -0.000174024652223 -0.000963368249076 -0.000947501213078 -0.00120401041078 -0.00099944124003 0.00148522805772 0.00127975586197 0.000137677818526 -0.00010827691513 -0.00100048208617 0.0012406154302 0.000592722493766 0.00154371998883 0.00135138950502 -0.000326592818725 -0.00114116452305 0.000971943271277 -0.00112867725572 0.00134765416796 0.00156204601301 -0.000591786183779 -0.00165786165915 0.000409337174393 -0.00116865463484 -0.000368251822308 -0.000110495132104 0.00154147243217 -0.0001503015728 0.000386641043424 -0.000458500023576 0.00149748483288 -0.000108917724212 -0.000190681219542 0.00132817825839 0.00140877617103 0.00106053835868 0.000957432458411 0.000143924110734 -0.00104060913261 0.00159525742622 0.000247826876762 -0.000640454319447 -0.000606682359377 0.0011634573475 -0.000823683268595 -0.000547883241838 0.00101928463281 -0.00136250004159 0.00036862404713 -0.000968977543166 0.001341373655 -2.33679781576e-05 -8.96071650153e-05 0.000694856940516 0.00038884830555 0.00150017405519 -0.000952249041153 0.00158592861996 0.000179070593144 0.00127615001702 -0.00162742168584 0.00135309276894 -0.00146106893648 0.000930475055644 -0.000948841699529 0.00146749195457 0.00116529670154 0.00132477021156 0.00131362431776 0.000844077503476 0.000342056273604 0.000696421466124 -0.00156656186337 0.00063814691738 0.0013597066152 -0.00155383766363 0.00144431348316 -0.000484459747854 -0.000378493696947 0.00144475949344 -9.46966742657e-05
<eol> 0.0184663115252 0.00667427261974 0.0263401807045 -0.0566071472189 -0.0574363425857 0.0669667022363 0.0616735699237 -0.058296223753 -0.0129850906818 -0.0619712425155 0.00709156112065 0.0722039220746 -0.0564481728679 0.0571276417344 -0.0563577937889 -0.043957921033 0.0377131115214 -0.0136142215228 0.0185035192087 0.0799848584313 -0.0487837785459 -0.037324411804 -0.0138297494823 -0.00574951545759 -0.0304579469948 -0.049571434492 -0.0404726808212 0.0300062843377 0.0535516586828 0.0914115632853 0.017833788986 -0.033418034002 -0.0222569500757 0.0113247160224 -0.00951026340296 0.0116160956914 0.0311329196086 0.0566934594429 0.0435699149282 0.0354300915549 -0.0379520375199 0.0441733691556 0.00281938802945 0.0510503634711 -0.0326293203179 0.0149727446683 -0.0532333078404 -0.0531673814121 -0.0754891846355 0.0499598580721 0.0581895009542 0.056908021992 -0.00693024115628 0.0585626004884 -0.0111747654122 -0.0521663733222 0.0724610449033 0.0044519960732 -0.00247318526941 -0.0259387726818 -0.0744843361618 -0.0360985789495 0.00261385533375 -0.0362937470276 -0.0481511751302 0.036931159363 0.055112351488 0.0509633400003 0.0047971856128 -0.0575939991409 0.00465018530671 -0.0767406228507 0.00750596967505 0.0108018378462 -0.0357468059506 -0.0179963431542 0.0858813634394 0.0672706260211 -0.00619177171876 0.0282150609207 0.0123977631827 0.00919260186981 -0.0421767212847 -0.00115318934423 0.0134835898131 -0.0381084620184 0.0176112588395 0.0231372409648 0.0514272066101 -0.0234602991466 0.0140463559972 -0.0609468517676 -0.0155551413464 -0.0385526775946 -0.0245697295922 0.0278777859001 -0.0110284911422 0.0823935929294 0.00150614864187 -0.062905900186 -0.0205191282029 0.0370395977459 -0.0322090384866 0.0427255631187 -0.0592864681116 0.0403845966801 0.038018547832 0.0120690082461 0.0372211762908 -0.00264764828981 0.0564555475109 0.032249762739 0.034743590042 -0.0171474896475 -0.00395136344539 0.0170757213786 0.0755529914726 -0.0830171593594 0.00950548221292 0.0397147591591 0.0440157159378 0.0512447307978 0.0439209993317 -0.0687473503347 0.0433719774222 0.0733710426848 -0.0544663654222 0.0382791839703 0.0205635838283 0.0286336846261 0.0294116416052 0.000273764206417 0.00102998408971 -0.0121301800632 -0.0502042296524 0.0562806863043 -0.0167427011228 -0.0784799929856 -0.0449767021566 0.0508963384693 0.0579999227968 -0.0464664976687 0.0082505582245 0.0117547737855 0.0655015210752 -0.00994917844291 0.0157583375066 0.00865581885034 -0.0294122963185 -0.0597747182534 -0.0187259829161 0.0530962111241 0.0833986402019 -0.0235532869959 -0.0516475317807 0.051403433013 0.0789200517826 0.0737580453591 0.0166918971036 0.00964796416461 -0.029302786462 0.0573070686223 -0.0751779972947 -0.0484645487954 0.0287746626544 -0.00383232919018 -0.0709667472503 0.0497399230962 -0.07701073807 0.0612751913828 -0.0546595423878 -0.0542855821172 -0.00200579631821 -0.0239381351161 0.0430621847771 0.00421533410361 -0.0691768530153 -0.0409669572867 0.0238842544211 0.0327835783296 -0.0458792784233 -0.048145019736 0.0389306581614 0.0138237074164 -0.0649803103865 0.012072902786 0.0273505715763 0.00251264364558 -0.0432598053351 -0.0617389040459 -0.0330981332443 0.0872367410126 -0.0936015818241 -0.0121791110175 0.0828820181659 0.0369609552463 0.0185095132608 -0.0393544837262 -0.00288991045242 0.0159362182824 0.00733615755029 -0.0148676263648 0.0406681743099 -0.051048995978 0.00174320544555 0.0179368954455 -0.0696977880284 -0.0166668369155 0.0878224194386 0.0825708652339 0.0342368252168 0.0268510653124 0.0637668834681 0.0972871426276 0.014509538694 -0.0351084358876 0.0167485598416 0.0207362659156 0.0133842254005 -0.0124772575839 -0.00892180378048 -0.0743989716491 -0.0708656880995 -0.0407782707501 -0.00117770989113 -0.0347026642522 0.0660999703643 -0.0628942753246 -0.0586592471878 -0.0338337544732 0.0202204844289 -0.0668761309434 0.0564882059545 0.00668945616738 0.0282775069042 0.0482926150378 -0.0551016651881 -0.0134792344091 0.0481182828866 -0.021519399877 0.0429210207776 -0.0678192067808 -0.0520607322687 0.0528203426902 -0.0562976242096 0.0164829541693 -0.0724278650289 0.0711444095722 -0.031764530354 0.0366621966403 -0.0668392285839 0.0625802219322 -0.0195782391658 0.0787417504807 0.0460506412265 -0.0727909422505 -0.0017788461907 -0.0289778772044 0.00353991908356 -0.0404485856451 0.0235675671325 -0.00647138196508 -0.00437185415694 0.0872257377463 -0.0291987542764 -0.0147489930675 -0.0232424693537 0.0112723188933 0.01178855432 0.0526625149903 -0.0153310610104 0.0657115620078 0.0496448808196 -0.0855544561722 0.0508956622318 -0.0230484183255 -0.0342803638928 0.0521488748242 0.0367862222316 0.0437393190154 0.0330760491947 -0.0409721948405 0.000543927631882 0.0468104194892 -0.0771820178513 -0.0572977285613 0.0860221759543 -0.0616901185859 -0.0601318855122 -0.0714143907261 -0.0872115478766 -0.0332056975525 0.0346839255066 -0.0445315023309 -0.0315959310071 -0.0697974931643 0.0647331881852 0.0476612692946 0.0448454777134 -0.042749356668
in 0.0346076083019 0.0110022014859 0.045185292524 -0.103292808908 -0.101298982744 0.117654381478 0.108630730483 -0.102869584884 -0.0249489215694 -0.107338570912 0.014213683424 0.124781527431 -0.0968652670691 0.102092538647 -0.098834174751 -0.0776684464703 0.0669460212124 -0.0245541192325 0.0351102426102 0.138537675089 -0.0876203779815 -0.0683503045416 -0.0236946907892 -0.01257980696 -0.0531880149867 -0.0863039791605 -0.0705531855462 0.047916928391 0.0977995363911 0.163047560556 0.0312280653186 -0.0552698982345 -0.0380480762465 0.0199611325076 -0.0203607955474 0.0206535259213 0.0531585759645 0.0998395726246 0.080133980224 0.0624260567591 -0.0664902640099 0.0766472741308 0.00228293271052 0.0888468439777 -0.0558846341311 0.0243558003903 -0.0937514249068 -0.0924542298367 -0.133116387239 0.0902275811588 0.10495090867 0.102200786975 -0.0107799165454 0.101258147103 -0.019306907793 -0.089374321502 0.127051119211 0.00469846308948 -0.00452316990352 -0.0445528532357 -0.13290137642 -0.0647318254046 0.00188862051773 -0.0660402712647 -0.0855499958055 0.0663656921414 0.0957230537634 0.089446682386 0.00736220948911 -0.100713227375 0.00476502283262 -0.139524626742 0.0131356738084 0.0177032912224 -0.0638240653578 -0.0290819871795 0.149066258684 0.121746610892 -0.00950921824227 0.0512524684156 0.0203095861416 0.0173021928789 -0.0721247232493 -0.00077041058014 0.0210236546959 -0.0657308996784 0.0322803557849 0.0398693716586 0.0921290277472 -0.0421579653535 0.0248279403532 -0.107617416841 -0.023863067608 -0.0700604859635 -0.0409895623031 0.046831498793 -0.0234654037469 0.143668906176 0.000479888941675 -0.112740158096 -0.0341682828176 0.06722369885 -0.0556155405394 0.0736306052586 -0.107921088106 0.0702837275062 0.0689434298739 0.0219169337727 0.0623771155098 -0.00815054679601 0.100137779595 0.0595422474448 0.0576178837925 -0.0297649903315 -0.00517005221432 0.0313729677137 0.13283972187 -0.146860502891 0.0138891459562 0.0672933532295 0.0799271822441 0.0874035220977 0.0748574329349 -0.119710468797 0.0760408774008 0.130785217248 -0.0924481312157 0.0651769553092 0.0371383130262 0.0528399287382 0.0518273067311 0.00217891850055 0.00558166904842 -0.0248806740452 -0.0903305668567 0.0982692521714 -0.0293188533623 -0.136756134389 -0.0790406113797 0.0914310595199 0.105594704038 -0.080917502489 0.0137874930455 0.019937739945 0.113697580684 -0.0161418863153 0.0262465487466 0.0138675714702 -0.0505593729362 -0.104293112729 -0.0321473838656 0.0924985567466 0.14320504822 -0.040578696138 -0.0920632806065 0.0893940739863 0.14115050332 0.128363982831 0.0273403060955 0.0153428874167 -0.0523073422934 0.0992568705923 -0.130661171184 -0.0853837111136 0.0514892954721 -0.00834004125926 -0.127001210723 0.0895329316742 -0.135497248805 0.11165229606 -0.0928258377143 -0.0987582830155 0.000437327676573 -0.0412717881572 0.0775824009325 0.0114886608064 -0.122744259609 -0.0751927165551 0.0430015432773 0.059672806385 -0.082358688232 -0.084635591641 0.0695042594677 0.0242390091313 -0.111904159047 0.0233983192788 0.051855583287 0.00654320901917 -0.0790005363908 -0.106175006344 -0.055903396984 0.155467651303 -0.166009345063 -0.0187282148849 0.14391120307 0.0658699059577 0.0325981647756 -0.0676393659378 -0.00512699680325 0.0302984079699 0.0129632957253 -0.024754748621 0.070428602018 -0.0896572307026 -6.5998248375e-05 0.0324271299681 -0.126348504485 -0.0294050509918 0.155033846024 0.142399108467 0.0577111385945 0.0491258160416 0.113431066446 0.167864401336 0.0290816014355 -0.0618818395295 0.0300532075975 0.0370760833362 0.022938034713 -0.0264544209355 -0.0169793778736 -0.130060574077 -0.122328016393 -0.0702428168163 -0.00139154349698 -0.0592971425098 0.117908051489 -0.112114414541 -0.100591855642 -0.0594899025695 0.0354791426692 -0.116714378583 0.0982213381009 0.00992720439304 0.0487201857234 0.084000962204 -0.0959681052309 -0.0259662269081 0.0865834367378 -0.0409624864451 0.0759050547132 -0.116519583094 -0.0891740372615 0.0961514456839 -0.0987890903213 0.0319461970274 -0.132279028478 0.126711497606 -0.0577777271572 0.0625563318865 -0.121019171433 0.10995259091 -0.0318628961642 0.138607329377 0.079096327339 -0.129307020841 -0.00504312627419 -0.0490367573195 0.00352462604832 -0.0732954859266 0.0406512917437 -0.0092651897431 -0.00466201881858 0.152547131487 -0.0520053313416 -0.025005741018 -0.0405621902085 0.0209011290795 0.0221879770099 0.0936085185369 -0.0265813347561 0.118724135902 0.0900405876507 -0.153555028607 0.091216436504 -0.0416118274051 -0.0619399795535 0.0947902052528 0.066821927604 0.079000449673 0.058459431307 -0.0728600463559 -0.00228854900055 0.0795216018843 -0.136417797432 -0.101441547188 0.15202556441 -0.107651393588 -0.105522463098 -0.128734504096 -0.153091056972 -0.0568622438542 0.0587519160036 -0.076895176183 -0.0584917991868 -0.124839885247 0.117388587103 0.0804169973053 0.0755211694784 -0.0748976907519
a 0.0306627245816 0.0119979691344 0.0422364931779 -0.0894800490914 -0.0883726294105 0.105567749719 0.0976054238971 -0.0933099400513 -0.0212643935625 -0.0968581698217 0.0135273591709 0.11218393568 -0.0865897161532 0.0894350313227 -0.0871122577577 -0.0698780749311 0.0605634170712 -0.0210603268298 0.0308890221291 0.123283337439 -0.0779787588144 -0.058584753475 -0.0212805887051 -0.0106712702252 -0.0473594419342 -0.0765870006476 -0.0639033636028 0.0451656125244 0.0845059066685 0.145981234503 0.0279508484624 -0.0499784556478 -0.0338520736511 0.0187840756354 -0.0174838509024 0.0194632448872 0.0496623186245 0.0895415083807 0.0718911690049 0.0555609737593 -0.0605885832627 0.0694796939565 0.00145772591317 0.0791594351378 -0.0512038521287 0.022229759853 -0.0849798825101 -0.0837652398871 -0.117633099138 0.0814875482501 0.0939006616245 0.0913866079599 -0.00958611651419 0.0911632311752 -0.0173609234926 -0.0780902531273 0.115263647282 0.00536013306281 -0.00646794345303 -0.0392327358471 -0.119248845185 -0.0580652392308 0.0029423826684 -0.0583994981104 -0.0765421045843 0.0582251233553 0.086827964866 0.0786142835069 0.00825971737768 -0.0892897922247 0.00587649720458 -0.12433472049 0.0121198637355 0.0158652425456 -0.0573114791892 -0.0265144004414 0.132325175125 0.106313752848 -0.00588420305517 0.047520654051 0.0176820448013 0.0169504536332 -0.0627850357561 -0.00223049549564 0.0179774337308 -0.0578180544629 0.0305407624871 0.0346162675971 0.0811508497824 -0.0390907974774 0.0219436878428 -0.0946958465534 -0.0216673099043 -0.061873590697 -0.0389652213363 0.0414745342197 -0.0191095804949 0.129290616176 0.000715573336578 -0.101382943091 -0.0312200215563 0.0606757161023 -0.0501421500357 0.0665183394937 -0.0943842215357 0.063720276468 0.060613131629 0.020447277734 0.0568714111761 -0.00497433331305 0.0878572569914 0.0519749769978 0.0514950810778 -0.0279056064554 -0.0064520762231 0.0255445129736 0.118773416103 -0.131270943494 0.013272341719 0.0592431039914 0.0712926929493 0.0770856624696 0.0667717885212 -0.10532961791 0.0700180085687 0.113376585172 -0.0838609706151 0.0572965646346 0.0353657981415 0.0460135606472 0.045270483072 0.00211191631416 0.00200026261156 -0.021419075864 -0.0802346213849 0.0889790389069 -0.0258277253966 -0.120988988714 -0.0696684046889 0.0787949373481 0.0936657033053 -0.0710639033753 0.0114661035852 0.0172738342407 0.100795733207 -0.0123146844065 0.0225646048187 0.0106220962617 -0.0474258774464 -0.0922212108741 -0.0279033659633 0.0826487386745 0.128804255695 -0.0367807830045 -0.080336150613 0.0780137459859 0.124109075075 0.113456708962 0.0256088931837 0.0133035152327 -0.0446175207809 0.0875899340531 -0.118502194548 -0.075952818109 0.0456750227798 -0.00656797320908 -0.112721317864 0.0806245770253 -0.119105128136 0.0964048831703 -0.0846116428026 -0.085222070056 -0.00178638550636 -0.0370376685351 0.0701282655357 0.0102214281125 -0.108690319795 -0.066689427732 0.037794343069 0.0522199526987 -0.0723379263675 -0.0748684820812 0.0608928171582 0.0217642846203 -0.10207047093 0.0209099009976 0.0447905276119 0.00613099831107 -0.0697932806258 -0.096995047048 -0.049006917957 0.13803135792 -0.146577097407 -0.0169893102976 0.127443450706 0.0578214075993 0.0296152934611 -0.0597125561697 -0.0042656016484 0.0246039733285 0.0139534943133 -0.0202915692313 0.0635217661212 -0.0783120251874 -0.000106948766707 0.0277674176739 -0.112391747865 -0.0265488615698 0.138647880812 0.125916433876 0.0527662709772 0.0409692581288 0.10010012445 0.150288565868 0.0262687036425 -0.0556027608173 0.0285917314049 0.0326113105608 0.0190171159704 -0.0218397339336 -0.0164192909355 -0.117654122411 -0.110422228276 -0.0621035855633 -0.00198257147784 -0.0541121265358 0.105743259819 -0.0993146406189 -0.0909172261277 -0.0509239100916 0.0321968924596 -0.103864183306 0.086494792155 0.00912686411725 0.0414922406856 0.0755621808472 -0.0842693373556 -0.0212219605674 0.0787683656861 -0.0361516676006 0.0668701970001 -0.106304417437 -0.0799324656583 0.083521303547 -0.0900993965865 0.0271162859147 -0.115374890803 0.112153161182 -0.0502246374727 0.054367684859 -0.10509472303 0.0971268960354 -0.0296027344235 0.12261462027 0.0720163747801 -0.114919137673 -0.00293828593261 -0.0447640754954 0.00152687259412 -0.0649783986451 0.0360604364901 -0.00736123489964 -0.00628012452284 0.136756907605 -0.0455204993199 -0.0212614040694 -0.0370939154091 0.0159388990235 0.0171564097056 0.0811143295506 -0.0236178948516 0.103979695804 0.0795709584064 -0.135662735159 0.0800939397362 -0.0385248182068 -0.0572025692736 0.0832304865807 0.0585403972178 0.0674070721669 0.0512491321419 -0.0633042193614 -0.00042924839942 0.0714161369556 -0.122412537268 -0.0912802269123 0.136203520222 -0.0937529241955 -0.0934344719466 -0.11317820178 -0.13385886949 -0.0512799201557 0.052501567652 -0.0676138815281 -0.0504074235473 -0.111165008501 0.103377722027 0.0727906286364 0.0692742138436 -0.067300356428
as 0.0316152970975 0.0119415921925 0.0408872133555 -0.0914643839003 -0.0885815581116 0.105417047664 0.097859882497 -0.0934085629755 -0.0213073830031 -0.097509924065 0.013923576685 0.113403588441 -0.0871740053558 0.0922971770023 -0.0858759844482 -0.0688126946731 0.0587902047177 -0.0206555740261 0.0315812061299 0.125843898848 -0.079139077116 -0.0610016001711 -0.0231508648582 -0.0102116151936 -0.047080380989 -0.0771948476838 -0.0620863362161 0.0445101804547 0.0862926523086 0.147156215047 0.0274528986352 -0.0501474062992 -0.0332486317768 0.0172605267903 -0.0154754606702 0.0167688775053 0.0480020802838 0.0901513637256 0.0717306952421 0.0553989787285 -0.0616619731715 0.0681991665398 0.00216015297665 0.0786797376648 -0.0516725509099 0.0229943655436 -0.0865252252706 -0.0829910065066 -0.117425524445 0.0806297529953 0.0954622637631 0.091226918372 -0.0116931124808 0.0924835186075 -0.0184760298917 -0.0819602110858 0.115523158666 0.00430979659197 -0.00357775593392 -0.0418269268827 -0.11983571578 -0.0597436313955 0.000288578247682 -0.0581295938002 -0.0779397018676 0.0570058550695 0.0880927345169 0.0777041060914 0.00825081037325 -0.0893850032327 0.00528510159994 -0.123786377721 0.0124298749927 0.0168879599091 -0.0571064430226 -0.0270705554915 0.132923274493 0.107511593742 -0.00642659291363 0.0466069346829 0.0169795697934 0.0165333504233 -0.0643249963584 -0.00205929360866 0.0194616204607 -0.0570016546489 0.029647521701 0.0327260959192 0.080794893386 -0.0392461946798 0.0230300550477 -0.0974857740895 -0.0240280444583 -0.0618684026641 -0.0376898956392 0.0405954268105 -0.0206485723359 0.12806810561 0.00139543791732 -0.101128769966 -0.0319369921943 0.0602259429728 -0.0499837786744 0.0677772746587 -0.0961629007308 0.0649664924892 0.0623057769399 0.0188702504336 0.0564962568299 -0.00696311407745 0.0877794801829 0.053704062659 0.0530910751509 -0.026817141178 -0.00488225334795 0.0258615615427 0.119599204809 -0.133650520295 0.0133630000296 0.0597765439961 0.0709247185794 0.0789147066103 0.0670808224789 -0.105250790561 0.0699077336045 0.115913777887 -0.0831684110164 0.0571541544029 0.0331441544863 0.0474241058498 0.0470548500363 0.00022663921509 0.00443636042348 -0.0198203101691 -0.0816010965159 0.087160849895 -0.0256611386556 -0.122079200127 -0.0689966980139 0.0819975280834 0.0953642133773 -0.0713782576145 0.011722898357 0.0192227384987 0.102159811512 -0.0138202048571 0.0232741830162 0.011332245474 -0.0476139751335 -0.0933057345528 -0.030359540539 0.0828995010716 0.129261172657 -0.0358498267723 -0.0802752049874 0.0791551970697 0.126474634948 0.11317316087 0.0260883876209 0.0128130240685 -0.0467771469995 0.0872048144011 -0.11804334906 -0.0768937896895 0.0474976903173 -0.0070054298153 -0.114178672143 0.08103653824 -0.121439764126 0.0994867583333 -0.0849122185547 -0.0874951124228 -0.002208186399 -0.0358538800926 0.0696280281918 0.00917903516537 -0.108134893311 -0.0680228590591 0.03784930202 0.0531633503348 -0.0731685634305 -0.0761550392633 0.0606838278848 0.0225954577374 -0.10112484745 0.0212805165673 0.0445236638598 0.00430358812735 -0.068274968598 -0.0950622183004 -0.0505002037542 0.14039767169 -0.146365065048 -0.01693431518 0.126758628745 0.059540423014 0.0276797611633 -0.0620266232455 -0.00312631657201 0.0272552592688 0.0135415590327 -0.0221117073965 0.0623063152261 -0.0817396314447 0.00121903362735 0.027587587675 -0.113345979662 -0.0253288970429 0.139781561192 0.1294304932 0.0522620241054 0.0442569541218 0.102200364485 0.152491073845 0.0249177782011 -0.055790062584 0.0291881970298 0.0335879175688 0.0183467685053 -0.023772860514 -0.0174202879809 -0.116856372883 -0.111829407874 -0.0617304330129 -0.00394337047658 -0.0554169399937 0.105123855771 -0.0979679380394 -0.0888903434937 -0.0507269944877 0.0330894137781 -0.103103540234 0.0873343637716 0.00926801609465 0.0412346917364 0.0761207901167 -0.0845653722407 -0.0218718575844 0.0787691398009 -0.0378331463773 0.0666067149025 -0.106109290756 -0.0792336148037 0.0853237889689 -0.0908058706958 0.0279874031644 -0.117535086111 0.114570299933 -0.050537979564 0.0570942353965 -0.105876828175 0.0971796787148 -0.0279053110249 0.125630532771 0.0711289493247 -0.116909511454 -0.00522387290886 -0.0439495805007 0.00412168527514 -0.06713913134 0.0373153712027 -0.00925691968267 -0.00563542052554 0.136905300637 -0.0456313930581 -0.0211383592307 -0.0374155746733 0.0159867281417 0.0196769479122 0.0822900967249 -0.0242987059952 0.106086600529 0.0799378947461 -0.138479426401 0.0816777400346 -0.0369297266079 -0.0574184167729 0.08521807343 0.059357270892 0.0705844501558 0.0502613368183 -0.0650571922333 -0.0018696145317 0.0722232269256 -0.121154955887 -0.0929848589525 0.137685573163 -0.0966376543576 -0.0958934919702 -0.115940953747 -0.135561489062 -0.0491187693829 0.0544377152892 -0.0675159631254 -0.0522184591 -0.111930617006 0.106088221392 0.0737473269211 0.0697742562023 -0.0651954656137
or 0.0246757367885 0.00888094434134 0.0348506188346 -0.073847915813 -0.072801240617 0.0864288032843 0.0812943878727 -0.0766353291524 -0.0188624319835 -0.0795575527217 0.0127504247661 0.0930049731933 -0.0705223397487 0.0752546224064 -0.0721696981403 -0.0585823299613 0.0481189116391 -0.0173501109303 0.02286445825 0.101875393533 -0.0651678194836 -0.0496856146833 -0.0181146041759 -0.010296796304 -0.0393545442677 -0.0636947002975 -0.0505263459611 0.0371016449808 0.0709134037328 0.120478972923 0.0211580186117 -0.0408618241958 -0.0280752981149 0.0146749037302 -0.0134616404224 0.0169010064387 0.0387592542952 0.0753487146364 0.0576915558539 0.0451512276635 -0.0500513285257 0.0564770128587 0.00315595835043 0.0640163452933 -0.0417483192793 0.0203168843361 -0.0691190667334 -0.0689379645424 -0.0976322628829 0.0662652822147 0.0780549945605 0.07417522717 -0.0087512833409 0.0749007748206 -0.0129956082772 -0.0658540541675 0.0951318762977 0.00365211035011 -0.00374529057279 -0.0327688251549 -0.0990649644176 -0.0479677329298 0.00273178674062 -0.0476118248881 -0.0642084596715 0.0468498963197 0.0694460509643 0.0631686161105 0.00451674596317 -0.0742615250274 0.00417231570897 -0.100849049744 0.0085679566693 0.0125344621066 -0.0458550058658 -0.0215581648849 0.109663547624 0.0891857418629 -0.00609762263968 0.0384315542747 0.0136321443973 0.0141843765723 -0.0520482543981 -0.00066689171309 0.0150512265468 -0.0473626917221 0.0254564834427 0.0280321842476 0.0662641415799 -0.0306388999344 0.0187637091074 -0.0792044272123 -0.0169139226872 -0.050595108121 -0.0297198503399 0.0340819725722 -0.0163598779947 0.104678133788 -0.000522163797062 -0.0821588404783 -0.0256555530277 0.0481269653023 -0.0411365852911 0.0541700232987 -0.0766404340379 0.053249327886 0.0510439103579 0.0166371876959 0.0468029421596 -0.00500288503837 0.0737707170832 0.0421490825323 0.0443620283461 -0.0241171536966 -0.00509076719046 0.0223242378295 0.0976331060663 -0.109167642944 0.0115160109926 0.0501419334536 0.0599950215402 0.0649835635146 0.0552763134621 -0.087299819317 0.0577748813302 0.0959666871357 -0.0676710412876 0.0466273951971 0.0279876637414 0.0387828132902 0.039260059478 -0.000711376639846 0.00218606557684 -0.0188721207896 -0.0654776203526 0.0731664683901 -0.02051641228 -0.100456095341 -0.056724398651 0.0660247187955 0.0762937856433 -0.058670518768 0.011369764918 0.0159711520412 0.0852756360906 -0.0102390394613 0.0183243243267 0.00839570789422 -0.0369611739779 -0.0770683008919 -0.0251486956418 0.0680979844017 0.106215274706 -0.0300707099468 -0.0678974042477 0.0639803196165 0.103405360109 0.0942180027627 0.0207651297392 0.0109263902232 -0.0383208824154 0.0717371815898 -0.0971036067121 -0.0629619403099 0.037702868405 -0.00547370033011 -0.0940701107696 0.0660535896072 -0.0995610793866 0.0794603231981 -0.0690331593696 -0.0704431178781 -0.0022783336375 -0.0304026360063 0.0583308417492 0.00828713330901 -0.0896606779763 -0.056097582971 0.0318069594881 0.0429518150134 -0.0591176992892 -0.0625948146867 0.0495751295885 0.0172243911339 -0.0814863820993 0.0172832927727 0.0367515182237 0.0052260046281 -0.0574618952176 -0.07949476424 -0.0425276657141 0.115823539603 -0.121366989222 -0.0147458487736 0.104886494206 0.046026255341 0.0246661007636 -0.0484314200361 -0.00382274277322 0.0206086076236 0.0097860638241 -0.0168695290591 0.0511318486062 -0.0663741528856 -0.000258288651891 0.0239463284958 -0.0931617332668 -0.0202784946869 0.114602913076 0.105514843687 0.0446823988094 0.0350707262883 0.0836064361522 0.124824182337 0.0198440020813 -0.0440593269596 0.0215453586131 0.0265380337288 0.0171861400679 -0.0193263592086 -0.0116193872277 -0.0957431920714 -0.0915318549924 -0.0494983524621 -0.000484585549809 -0.0439091581948 0.0867689949554 -0.0806759907067 -0.074924557096 -0.0411215435077 0.0251595904901 -0.0860098848186 0.071083019614 0.00713448888684 0.0339898792168 0.0619279574816 -0.0707071561692 -0.018456408992 0.0656113096668 -0.0271501622706 0.0555945742311 -0.0861722433694 -0.065629693899 0.0704714363063 -0.0741054133165 0.0239266669457 -0.0967017746806 0.0944229966072 -0.0408268817799 0.0473653697892 -0.0876766191333 0.0806290836612 -0.0245992000359 0.10258614614 0.0567688748933 -0.0950923610194 -0.00374176579763 -0.0357037341565 0.0026001604499 -0.054230626474 0.0308253270648 -0.00697901860934 -0.00331520057056 0.1120103077 -0.037743630221 -0.019070142552 -0.0292606314967 0.013958339754 0.0155757982182 0.0669306722406 -0.0185781959671 0.0870631042891 0.0662357426915 -0.113241287821 0.0668206803144 -0.0320881649703 -0.0453604883634 0.0679393786531 0.0474379890742 0.0554094344249 0.0412622394595 -0.0527399258532 -0.000448431858469 0.0592848533608 -0.0999598481254 -0.0749856113906 0.113181897904 -0.0793486353667 -0.0773958487716 -0.0928029461174 -0.112049761048 -0.0407970366475 0.0438152036851 -0.0546329824691 -0.0422126638673 -0.0926280229788 0.0861098408081 0.0583801938022 0.0560000165119 -0.0531352316424
The 4.73500122371e-06 -0.00111885421125 0.00165648101156 0.000116695029304 0.000940020093258 0.00087780770799 -0.00110299849793 -0.000675232998721 0.000185226698322 -0.000968472157128 -0.000526633925436 0.000178004266246 0.00138069134021 0.00102255534672 0.00156396028226 -0.00157938400199 -0.0006451435897 0.00097277322992 0.00161149092126 0.00099844533344 -0.000609429159134 -0.00153391639438 0.00116373200601 0.000472067080842 -0.00105344795435 -0.000199916324411 0.000641268208713 -0.000847853868646 0.00152616650332 -0.00108350243826 -0.000479476478267 -0.00119055418601 -0.000750550096351 0.000481036820587 0.00134575882384 -0.000348108908986 -0.00163308090306 -0.000877192885354 -0.000311821638079 -0.00128373085374 -0.00163655759323 -0.00048996563918 0.000917853111939 -0.000470382014866 -0.000837705450999 -0.00041910835352 0.001165381491 0.00105823427105 0.00109346355673 0.000103423043496 -0.00134548587857 -2.73523683988e-05 -0.00117646951057 -0.00136996831807 0.000507605098391 -0.00154874614246 0.000148565271666 -0.000252882284695 -0.00133707627341 -0.00074235994956 0.000585321753725 0.00141457808036 -0.000110224101674 -0.00108262194948 -0.00061285560718 -0.00106049990052 0.000156909515083 7.86973836995e-05 0.000557216342928 0.00107776423969 -0.00122700150846 -0.0013023555545 -0.00092179963931 -0.00127867229521 -0.000532033476654 -0.00100121057065 -0.0013686300625 0.00072327777914 0.00058957606517 -0.00158460278624 0.000150504208302 -0.000798050158866 -0.0003495092591 5.96354979324e-05 0.00107108193011 -0.000597690450278 0.000184034157151 -0.000847731271738 0.00119297081975 0.000662225792095 0.000379877529871 0.00123396914538 -0.00159648864177 0.000215173055053 0.00133451454623 -0.00161808254643 -0.00121976572934 -0.000458704438704 0.000950961703383 -0.00109715594707 -0.000850992840522 0.00157450522652 -1.64545407107e-05 -0.00109061639754 -0.000775437492549 -0.00142145384114 -0.000606677804752 -0.000209053684292 -0.00147276964436 0.00137716189192 -0.00136099242291 0.00116844818482 -0.00123862551559 0.000983395017874 -0.00145125257444 -0.00166360380146 0.000929132688259 0.00165662732491 -0.00101989807854 -5.07603411333e-05 0.00143188087522 -0.001175400415 -0.000559709842564 -2.9045226918e-05 0.000434010029947 0.00119895846377 0.000215652114657 0.000432296368515 -0.000933673697788 0.000244817217314 -0.00127743003917 0.000333844700671 0.00128157453384 -0.00121294507546 -0.00153558146876 -0.000499764048956 -0.000349500901543 -0.00105744715622 0.000880662709173 0.000361684367655 -8.07731575543e-05 0.000904023803868 -0.000485453656232 -0.000601882449475 0.00097984139361 0.000426423861709 0.00132041453809 -1.85441006578e-05 -0.000650150217683 -0.00163808715158 0.0007599936333 -0.000344474037508 0.00159118569 0.000451807561834 0.000519169056851 0.000463278606165 -0.000240252904036 0.000475474145495 -0.000925686337406 0.00146924594227 0.000746922816259 0.0014528736145 -5.54731553674e-05 -0.000549921673859 -0.00160921869582 -0.00024602501254 0.0011182167945 -0.000761613208261 0.00133140057279 0.000613594071327 -0.00116066869305 0.000485769169067 0.000803967833461 -0.000449496988397 0.00161666904624 -0.000389662348181 0.00157894108578 -0.000396700594806 0.00111049150666 -0.0014704046655 0.000581808652945 0.000991619628831 0.00100723347992 -0.00162792053149 0.00112769136055 -0.000490113647135 0.000421882113554 0.000535582502058 -0.000585743928648 -0.000870457652668 0.000595365879081 0.00120095581274 0.000557299779231 0.00131425592699 0.00112367708416 -0.000670923651572 0.000398682338731 0.000141298692313 -0.000846081844897 0.000385778603439 0.00132926532661 -0.000996026215851 -0.00128758379212 -0.000605026785631 0.000560582792626 0.00164751300432 -0.000829079881562 0.000262973708526 0.00159716128102 -0.000338680960857 -0.00143062309141 -0.000675818060756 -0.00110288769956 8.85663493187e-05 -0.000297208969081 0.0014319373381 -0.000847024154463 -0.000500828990048 0.000895289614551 0.00104567304573 -0.000279012967951 -9.44889788583e-05 -0.000347765337324 0.00125994029994 -0.00106298269567 0.000528833484096 0.00116404366658 -0.000995688535953 -0.000282343604685 0.00151454997007 -0.00122173497763 0.00160678718502 -0.0010355637688 0.000382440536903 0.000870369019809 -0.00151146255564 0.000601255469429 0.000914702123497 0.000685831371926 -0.000418636356119 -0.000843438768385 -0.00109751136379 0.000612212847737 0.000674189877785 0.000273941179618 0.000428880965255 -0.00131605712726 -0.00090785211877 -3.18788386784e-05 -0.000886297114162 0.00116720822285 0.000532731750057 -0.00133361766894 -0.0013083149374 0.000881375838542 -0.00101061379438 -0.00143388652511 -0.00116839938227 0.000237735375231 -0.000223019944447 -0.000441627499372 0.000992484417639 -0.0015754429604 -0.000962042061451 0.000661197796577 -0.001315040366 -0.00152919803788 0.00124109476531 -0.00105245303983 0.000330915880683 0.00042581145318 -0.00093196446812 -0.00156873420775 -0.000309736066511 0.000391519754435 -0.000329280797359 -0.000810447817726 0.00151882036657 -2.13826508213e-05 0.000173542430908 0.000793497071158 -0.000750336478053 0.000180167163755 0.000430809823555 -0.000994506309 0.000436349954203 0.000387675723984 -0.000450302105417 0.00160381916794 0.00113836713235 0.000179556095473 0.00109104510429 0.000978743293244 0.000475121066718 -0.000150684559203 0.000334253804085 -0.000423789541911 -0.000939079834275 0.000872174126186 -0.000354490686809
is -0.00131725046209 0.000482287303643 -0.000371559582902 -0.00127443647224 0.000365970228556 -0.000257780423535 0.000947826763748 0.000812657585543 -0.000573379256763 -0.000624305803269 0.000810928820564 -0.000499607756512 -0.000421156987299 0.0011762381628 0.00153912175662 0.000791521977369 -0.00116581577905 -0.000941178354602 -0.000266317911199 -0.00118680389617 -0.00163802681814 -0.000875945069558 -0.00144596791927 -0.000875637524362 0.000102085664575 -4.29003207374e-05 -0.00041352058992 -0.000597638408025 -0.00108711381844 0.00118048140546 -0.000486234044859 0.00126361854954 0.000993397543615 7.29098775849e-05 0.000122072896447 0.000433507884282 0.000563242013308 -0.000543649284701 -0.00090866867045 0.00130888724119 -0.00156631108361 -0.00111853508014 0.00156274185898 -0.00138167952076 0.000944660669805 -0.000290082269304 -0.00123721615653 -0.000223300814802 -0.000784310529615 0.000312115394106 -0.00014201012744 0.000493766837647 0.000427546453788 -0.000628888731212 -0.00139645481037 -0.000797168140615 -0.000461752750697 -0.000746620339744 -0.000772400361702 0.000590428879505 -0.000255878477924 -0.00076994209858 0.00143592866574 0.000220056125143 0.000275401972667 0.0011450396603 -0.00106881403932 -0.00118862063819 -0.000174511847183 0.000371605931018 0.00106094176852 -0.000945323060642 -0.000679021730364 -0.0015001609492 -0.000223078804146 -0.000778357418338 0.00153001632557 -0.000582549477283 -0.0014312365854 -0.00131468457 -0.000152335524866 -0.000506404724089 -0.000148335305915 0.00122063868589 0.00106255320053 -0.000804641252962 -0.00163295932208 -0.000127633695962 0.00160178393846 -0.000139216285112 -0.00123881366565 0.000398123422626 -0.000249270605539 0.00160644814985 0.000270456395698 -4.96171228381e-05 -0.000278613855083 0.00115823765229 0.000887958813483 -0.000950089708524 -0.00117909706159 -0.000709679211177 -0.000128695951811 -0.000433068836044 0.000407154141315 -0.00162922952027 -0.00165789369386 0.00126310581365 -6.07333802247e-05 0.000622273120427 0.00147704151593 -0.00123331057237 -0.000571909063592 0.000904555556541 0.000274693775241 -0.000547612596027 -0.00127414364354 -0.00164930468507 -0.000513358449454 -0.00156730086451 -0.00128617821308 -0.000458821970387 0.00118651480685 0.00155989284345 -0.00082590102838 -0.00108569115883 -0.00154186279434 0.00109897891868 0.000744649320341 -0.00121165243155 -0.00148000339575 0.000582044261155 -0.000705401855861 0.00140912185033 0.000839607459497 -0.000369374399528 -0.00139340909359 0.00162265212045 -0.00010880236569 -0.00112923162283 -0.00160637236675 -0.00016348409381 0.00101394445799 0.00119064185874 -0.000693605585979 -0.00107203234004 -0.000121479722555 0.000262057846203 -0.0013256912589 0.000397081568802 0.00042212971871 9.23975697748e-05 -0.000663929905258 -0.00105361251044 -0.000660100109476 -0.000200798614142 -0.00125453600199 0.00089456558034 0.00139460162415 0.000427435315513 0.000918943744461 -0.00142311966771 -0.000744460406139 -5.06457982826e-05 -0.000713693064041 0.00163824130893 0.00163708705753 -0.001406969823 -0.000715516860753 -0.000214512465982 -0.0010842099469 -0.000218016325749 -0.000222772684661 0.00124952517011 0.00163866685363 0.000333385763144 -0.00129160109052 0.001537222666 0.000412175109106 0.000804800854308 -0.00103331298468 -0.000359329967685 -0.000446114032375 0.000616826521482 0.000101112988758 0.000522131309551 0.000513089446552 -8.93400831157e-05 0.00151169184389 0.000882896432508 0.00109038658416 -0.00128385372077 -0.00153328470362 0.00121930952225 -0.00142344815084 -0.000778262639757 -0.00126017569738 2.80856252714e-05 0.00035592643706 -0.000718496766291 0.000541969920295 0.00102135423475 -0.000442246160334 -0.00101840144807 -0.00165322423444 -0.000128157380096 0.000125141436265 -0.000936043331408 0.000512235873109 0.000524551031608 0.000191696368862 -0.000108711453039 0.000174906269822 -0.000797343423633 -0.000209398427145 -0.00101228884805 5.31051232753e-05 0.00139807698202 0.0012989014649 0.000578511730297 -0.000980259747904 0.000740613886475 -0.00116318242695 0.00102046607813 -0.000949750313175 -0.000218592402313 0.000761072180319 -0.000167692414947 0.00164307635255 -0.000442737192397 -0.00141677113253 -0.00163235146309 -0.000606554449216 0.000890444930928 -0.00134639626479 0.00136090976284 -0.00104715493174 -0.00112847194848 -0.000801878733091 -0.00139493992856 0.00038652570195 -0.000488641848221 -7.81588809352e-05 0.000926295146287 -0.00103843166602 -0.00114528307619 0.000415464429058 0.00143022923116 -0.0012266375741 0.00111490833395 -9.61786367294e-05 0.00151107240584 0.00060012869966 -0.000675677187642 0.00128794741621 -0.000529634024263 0.00118758496992 0.000849466425743 0.00100863339956 0.000749252532217 0.0015492612715 -0.000137841128388 0.000911254102834 -0.00108939866432 -0.000134551218143 0.000906185221794 0.000629182626862 -0.000445713451662 0.000740021882498 0.00129795384751 0.00030880887348 -0.00119430500115 -0.00119703277655 -0.000855186724734 0.00132305535501 0.000595390155932 -0.00141529089728 -0.000947869180412 -0.00130448049864 0.000904584135689 0.00141868692979 -0.00061116429401 3.21419992556e-05 0.0013030252841 0.000542859246181 -0.00113022307405 0.00123597658633 -0.000301082009082 0.000436785503654 -0.000777004008283 -0.00143284669976 0.00111395709506 0.000766600816408 -0.00133127674867 -0.00100031680967 0.00140182189198 -0.000330821890152 0.000877297272925 -0.000560353457566 0.00108602468162
sports 0.0337716766796 0.0102194102003 0.0438438680717 -0.097706196448 -0.0938745068448 0.111338147058 0.102361545678 -0.098680797628 -0.0246388929941 -0.101138651177 0.0157442482836 0.11780640394 -0.0911918035643 0.0971222457229 -0.0934201479462 -0.0747682602371 0.0624216322041 -0.0239179268607 0.0330209646177 0.13104544105 -0.0831986002491 -0.0644262199237 -0.0226799332617 -0.0114945215301 -0.0499346862026 -0.0812130932297 -0.0672787356136 0.0475114403428 0.090811830555 0.155084368944 0.0287502302348 -0.0540423336772 -0.0362576591641 0.01939889267 -0.0165634052769 0.0209044125264 0.0507565409462 0.0954707670175 0.0756032716247 0.0570341091849 -0.0643119804506 0.0736154055449 0.00165079764392 0.0836771454876 -0.0543477802883 0.0249021657797 -0.0885970501116 -0.0877923397536 -0.123712472766 0.0870577758555 0.0995786257619 0.0954044049738 -0.00994024252272 0.0971455554282 -0.0169168104707 -0.0848035317733 0.120873365134 0.00414290126087 -0.00514732198688 -0.0439261781035 -0.125040159637 -0.0605074882734 0.000994019296727 -0.0634197509611 -0.0811870254564 0.0619752167312 0.0913414402048 0.0843644522861 0.00832681908839 -0.0954712097257 0.00647566141443 -0.131406847875 0.013512991338 0.0188673587309 -0.0584718658259 -0.0290765339557 0.141278360428 0.112167067283 -0.00859051280864 0.0499247966961 0.0176863377053 0.0176622525209 -0.0672886305928 -0.00206433691177 0.0205144493815 -0.059801090715 0.032150070776 0.0379247043704 0.0864659591408 -0.0399081194461 0.022766611302 -0.10278613455 -0.023753129031 -0.067111446913 -0.0391329585009 0.0437346747672 -0.0207746073908 0.137011882519 -0.000858021758984 -0.107252183497 -0.033937291825 0.063344831274 -0.0522944605789 0.0703670878833 -0.101232805916 0.0671466604898 0.0657453309078 0.0198659280108 0.061500416574 -0.00704769408266 0.0935531468439 0.0572943908788 0.0571517870395 -0.0305582378717 -0.00453045391912 0.0282167100379 0.125429674685 -0.138720284654 0.0154022670116 0.0641494952827 0.0767738477742 0.0816545241379 0.071406794949 -0.112433969282 0.0746962980678 0.123324522357 -0.0878956985411 0.0615824624372 0.0351953249375 0.0508146768258 0.050580002841 -0.000669373790645 0.00298246312641 -0.0235281163556 -0.085346872509 0.0915555047957 -0.0284465843212 -0.127975822437 -0.0724866485353 0.0853324449076 0.0978271610671 -0.075677639514 0.0118514077199 0.0207387972423 0.109412109703 -0.0149668830907 0.0237585988711 0.0109092276363 -0.0486973543228 -0.0981995218513 -0.0315671226895 0.0850143276117 0.137008213592 -0.0386315683555 -0.0866708484811 0.0832018267915 0.133428235414 0.119397176721 0.0276146286194 0.0140659985447 -0.0470328041504 0.0936882070638 -0.125876526143 -0.0805767740095 0.0498743332989 -0.00482656272642 -0.121081979917 0.0853975517505 -0.126991178513 0.105145861887 -0.0874956073956 -0.0915014023947 -0.00168578209967 -0.0394655403507 0.0746206520909 0.00832942018998 -0.117362616111 -0.0706678279707 0.0389764189026 0.0556550198622 -0.0769637586658 -0.0820079573729 0.0653483216515 0.0249884041171 -0.106978976352 0.0195737816322 0.0486038671758 0.00489793453925 -0.0737809020284 -0.100218044629 -0.0543924466434 0.149029260767 -0.157100937847 -0.0196737914282 0.133997349356 0.0604413020813 0.0325605398879 -0.0638050160119 -0.00598644145639 0.0266212191301 0.0134988124569 -0.0219227202165 0.0670171210151 -0.0833714326394 -0.000175554852682 0.0290455298539 -0.119224314667 -0.0277808517609 0.147781881655 0.134818429686 0.0562765580553 0.0452010180927 0.107475705828 0.159530378855 0.0253042933148 -0.0594159559473 0.0294751595437 0.0352253036702 0.020751858094 -0.02256267222 -0.0155249938467 -0.123210747104 -0.115184716082 -0.0647300624838 -0.00343490243099 -0.0573352038155 0.109407362764 -0.10505298924 -0.0947908869428 -0.0542966220276 0.0347035542781 -0.108724348793 0.0910187668213 0.0089393366426 0.0454535383062 0.0780798982894 -0.0895408560441 -0.0235839299069 0.081365353127 -0.0387736916129 0.0730077291865 -0.112316493444 -0.0844008705946 0.0896709268567 -0.0928495525984 0.0291623061195 -0.12433810357 0.121466335021 -0.0541533278504 0.0607299846161 -0.112454268576 0.102016091565 -0.0303608609567 0.13026327871 0.0769995630805 -0.124258935885 -0.0027813693903 -0.0455148501952 0.00303169306101 -0.0705957789186 0.037825718077 -0.0100601934346 -0.00668741725956 0.144924274467 -0.0487710797079 -0.0241027174247 -0.0373414748074 0.0165234967843 0.0208609924026 0.0861140525784 -0.0234670008085 0.108932655821 0.0840413623725 -0.145833735595 0.0829904548058 -0.04216037245 -0.0584816001889 0.0879838179909 0.0632501331452 0.0742407433248 0.0560348386959 -0.0689489801724 -0.00197859315184 0.0766807894503 -0.129469388994 -0.0959403943038 0.144903565643 -0.101281507645 -0.100616681789 -0.120146809181 -0.144421491448 -0.0530019121271 0.0546626740541 -0.0723584372087 -0.0553757199796 -0.117630385704 0.110722760219 0.0758475137218 0.0729494289617 -0.0682819152802
Olympic 0.000760221980242 0.000538173729845 0.00135266031128 0.000276174672689 0.0016520668064 -0.000944384869407 -0.000536604156897 -0.00119061138264 0.000627299872754 -0.000849159941522 0.000707103083682 0.000686194281922 -0.000741224615179 -0.000908879535869 0.00123065806785 0.000341322632049 0.000285276690159 0.000618590862608 -0.00071882872237 0.000801908302225 -0.00119748890841 -0.00128346316356 -0.000622002527636 -0.000181086323094 1.10936655426e-06 -0.00025684990412 0.000667214869119 -0.000694640127712 -5.60644107073e-05 -0.00108751715971 0.000767629855005 0.000456225910509 -0.00100747917349 0.000905608433735 -0.00115338861691 -0.00118576893395 -0.00104494972515 0.000263873338471 -0.00136119402863 -0.00060216222458 -0.000173186202793 0.000301547863189 -0.000461318929261 -0.001336360036 -0.00157595298512 0.00102767955919 0.000443235802599 0.000809575399299 0.00137938081633 0.000331187982602 -0.000849550226096 -0.000876013485297 -0.000308702601445 -0.00138879381758 -0.000807785946456 0.00153875322593 0.000784845892181 0.00073772428722 -0.00140837183992 0.000438326277949 0.000646540825888 0.00146143609423 -0.000350746774075 -0.000462001718508 0.000683587130431 -0.00137097415352 -0.00103706941331 -0.000307359558032 -0.000955578132435 -0.00138118287947 -0.000721945677261 0.00156330372073 0.00104114784848 -0.000392789550824 0.000982041516057 0.000777980155781 0.00030010316338 0.000871900993351 0.00160372788935 0.000164189005076 -0.00117299660389 2.70149744003e-05 0.000874405685471 -0.00082186101072 -0.000327178116583 0.000199189454238 0.00115094322655 -0.00135051775399 0.00153052344591 -0.00126015324837 0.00155169856144 0.00082749406955 -0.000800422357328 0.00153133386289 0.00108124599356 5.34958171207e-05 0.00155228017292 0.0007083870145 0.000757240992188 0.00166290371617 -0.000508559846891 7.66810710351e-06 0.000607213203053 0.00123865534339 -0.00132135312029 -0.00114428824733 0.00146088654982 0.00164734875816 -0.00112239844199 -0.000572831112084 2.97134880583e-05 -0.00085911207336 0.000105701401827 -0.0014959719884 0.000348763551283 0.00132849089647 -0.00149644165341 0.00162433167295 -3.80560880139e-05 -0.00140793573157 -0.00165952138909 0.000349847216067 -6.52727605935e-05 -0.00061405029711 0.00160300617891 -0.000826640726761 -0.00128490315772 0.00147891381737 0.00165544442954 -0.00130607300405 -0.000210091772522 -0.00131578638873 -0.00155556373319 0.00139735405559 -0.00122431882151 -4.98537194152e-05 0.000653432823078 -0.00119786605412 0.000516470564803 0.000723802733797 0.00059058490393 0.000812772565594 -0.000639005096907 -0.00149437648571 -0.00116778765019 -0.000207531501573 -0.000421413343242 0.0009576651254 0.00138269018271 -0.000576268394429 0.00112172857591 -0.00104159284887 -0.00082294902935 -0.00101377143914 -0.000941275166132 -0.00119533850196 0.000741470399474 -0.00135775585681 0.00150761316121 0.000315592531603 -0.000864578451681 0.000189882427191 -0.000446985000873 0.001225688325 -0.00153143631104 0.00102118036094 0.000597100873004 -0.00153865104764 -0.000206768781631 -0.000756979385694 -0.00100204569421 -0.00163811958143 0.00117940999537 -0.000135566691987 0.00115665245571 0.00121779595313 -0.00166190602825 0.00101278027723 -0.00139383031618 0.00106595157008 -0.000929084825786 0.000481645919207 -0.000120024769131 -0.00134324707964 0.00133633618861 -0.00102567352779 0.00126080464877 -0.00100863735132 -0.000304701522659 0.000918660533312 -0.0010710949554 -0.00165003289026 -0.000888890371983 0.000333987406248 0.000321913175564 -0.000562434292084 0.000185722488037 -0.000597885195613 -9.02241862895e-05 0.00161957331643 1.84612498105e-05 -2.4644043707e-05 -0.000719202162676 -0.000567584049331 -0.000733969952974 -0.00133419626942 -0.00135883166269 -0.00114187397454 -0.000496815780703 -0.00121721502161 -0.000750823635933 0.000429951952613 -0.000914453402848 -0.000418165259414 5.41627818285e-07 -0.00115881765845 -0.0010777823405 0.00148885838116 0.00069814623455 0.000408144409333 0.000273920955609 0.00103476316238 0.00129652028057 -0.000385505699431 -0.00103437285727 0.00118561332937 0.00127615581376 -9.39613336838e-05 2.04052658555e-05 -0.0011553648346 -0.00111380983049 0.00112869872034 0.0009600867175 -0.000906696493196 0.000138496215092 -0.000779037678333 -7.30055935908e-05 -2.73338442144e-05 -0.00120362968969 -0.000797603980229 0.00126083806498 -0.000315469501766 -0.00125462646609 -0.000271483921241 -2.03151446473e-05 -0.00107966193508 -0.000776338314141 -0.000614103250484 0.000331864438018 -0.000401829006851 0.00126378568682 -0.000473710772894 0.000918965823673 0.00135438248171 -0.000875297443888 -0.00133846236427 0.000643288134085 -0.000380342682664 -0.000119283117786 -0.00131814571776 -0.000172700695932 0.000545171932355 -0.0011761064813 -0.000188551040053 -0.00166650296483 -0.000503666551112 0.000110552449886 -0.00113031129078 0.000214386170423 0.000300278241993 -8.5829421296e-05 0.000434769148634 -0.00128217703034 -0.000757437269888 0.00162431363562 -0.000270511632145 -0.000739568445704 -0.00153012761074 -8.4776789329e-05 0.00016350664669 -0.00060899286285 -0.00120779984124 0.00154424673152 0.000929493546305 -0.000764394465782 4.65807679018e-05 -0.000575025361537 0.000899873714738 -0.000762127045169 -1.64941574203e-06 -0.00119651255762 0.000433480055275 -0.000764456682324 0.00163133432899 0.00133464799693 -0.00161122559528 -0.00141489249416 0.000621508577409 0.00149922192451 -0.00155321813145
for 0.0171150067079 0.0070393419864 0.0207224808354 -0.0494517008522 -0.0455343300526 0.0551953462291 0.0520557995964 -0.0493688998984 -0.00981964009844 -0.051615032795 0.0086758480326 0.0590813947772 -0.0472299629473 0.0492387274481 -0.0465676207672 -0.0370281987966 0.0306648989328 -0.0107051033893 0.0160591777885 0.0655995759986 -0.0402110909704 -0.0305003011831 -0.0125230342615 -0.00570283043406 -0.023522174422 -0.0409018612878 -0.0331989141275 0.0243904712256 0.0448515880693 0.0767981017518 0.0143447834569 -0.027112130455 -0.0194610398328 0.00908519993751 -0.010164464286 0.00999453200218 0.0268356336031 0.0470548131709 0.0380051694437 0.0304972621726 -0.0297448663757 0.0359761271961 0.00133631495475 0.0420452830902 -0.0286350018926 0.0120519513469 -0.0439239717919 -0.0443733112153 -0.0635399866777 0.0423370540557 0.0494820133268 0.04667494892 -0.00620427801275 0.0492241758993 -0.00898748818707 -0.0411601334471 0.0608130334994 0.00270460994826 -0.00328834392155 -0.0229553155412 -0.0635194904442 -0.0305577541649 0.00199436847769 -0.0328236157224 -0.0404585813327 0.0308087288264 0.0458030949918 0.0422451334837 0.00461875702436 -0.0471501261486 0.00356349765651 -0.0640136428895 0.00586197819021 0.00837399721764 -0.0298073159547 -0.0122709004712 0.0685478137877 0.0572209931404 -0.00262608113989 0.0231157343473 0.00788870948422 0.00904584731238 -0.0347972941301 -0.00163147091658 0.0113498297662 -0.0299424860028 0.0154676405059 0.0178739884471 0.0450797440505 -0.0200471635673 0.0103044670764 -0.0515486036703 -0.0105506691129 -0.0340067359785 -0.0195237595091 0.022271195822 -0.00974299931143 0.0676283422672 0.00050899482303 -0.0525705520542 -0.016814615464 0.0318449394933 -0.0273991306775 0.0341246920422 -0.0495252487613 0.0350769151734 0.0333867332366 0.0098377969729 0.0303020294535 -0.00213314359898 0.0477447843761 0.0287090370124 0.0288305963678 -0.0153855272632 -0.00346301743836 0.0128902099054 0.062583420876 -0.0686558932469 0.00844182557749 0.0311419950321 0.0381104315586 0.0430981945704 0.0332906978873 -0.0553103885839 0.0364298734883 0.0621978820333 -0.0456150832216 0.0295472599606 0.0185316535159 0.0231427210771 0.0257101634283 -0.00100409989393 0.00324749113311 -0.0109407918999 -0.043999324224 0.0461120622115 -0.0133148632565 -0.0653981511782 -0.0378965330373 0.0429536239251 0.0493104176441 -0.0378702185389 0.00611196668673 0.00933042980151 0.0547414474848 -0.00543445001513 0.0120018390498 0.00730375760512 -0.0236453723284 -0.0480809740601 -0.0170406498048 0.0438628651935 0.067994643807 -0.0179719321938 -0.0426469062044 0.0426528724571 0.066250573705 0.0591397396316 0.0122182556219 0.00599393917065 -0.0250848046592 0.0482253115457 -0.0611507015069 -0.0415256283263 0.0252040112997 -0.00453932326037 -0.0609038524013 0.0422250166756 -0.0649748639306 0.0513883285217 -0.0456988557329 -0.0459904635539 -0.00115046267558 -0.0215019936117 0.0377049206567 0.00494777347115 -0.0572678885537 -0.0342726971055 0.0186169832084 0.0284658728148 -0.0399464404746 -0.0395367055927 0.0316503339407 0.0132988308712 -0.0541383308254 0.010322131094 0.0236473805705 0.00167162479791 -0.0354978583304 -0.050019039873 -0.0262361116979 0.0721849536985 -0.077177833023 -0.00804907872598 0.066383061503 0.0301811048708 0.014566460619 -0.0305353589713 -0.0021405732439 0.0153982942248 0.00681429292041 -0.0100287262802 0.0335366542151 -0.0437124643761 0.000236835006287 0.0148449749696 -0.0606778369525 -0.0140595658152 0.0727257023226 0.0664448763205 0.0278260891753 0.0225307460544 0.0544421179468 0.0790832983036 0.0123887304797 -0.0296460228176 0.0142310702314 0.0162199487699 0.00944779894754 -0.0133390908788 -0.00973978719277 -0.0608505128362 -0.0569732425886 -0.0310521870308 -0.000172967460942 -0.0297530652605 0.056130747005 -0.0533144025824 -0.047303008363 -0.0269901236688 0.0160928507596 -0.0559380293731 0.0462739185351 0.00375751139281 0.0228248320087 0.0394957616746 -0.0469683635007 -0.0120228866655 0.0426867426725 -0.0178826645121 0.0344330597143 -0.0551294565073 -0.0407607113875 0.0466735618666 -0.048243726281 0.0159101860847 -0.0615940513755 0.0599283047599 -0.027399393648 0.0303521934143 -0.0578743585025 0.0509598248777 -0.0168386899234 0.0656402050863 0.0369076433926 -0.0612896794752 -0.00344153440813 -0.0236685135615 0.00225640486752 -0.034553897761 0.0183894452864 -0.00296985104355 -0.00139244670293 0.0723090768281 -0.0230153100984 -0.0110112838768 -0.0182370413868 0.00790182278236 0.00870015614232 0.0437364122604 -0.0119174797734 0.0564781695448 0.0421785412386 -0.0721384305415 0.0412929180341 -0.0197024989459 -0.0308220126793 0.0443724607963 0.0300366279105 0.0370976821783 0.0286337198729 -0.0323441749939 -0.000986084308565 0.0382890796033 -0.0628155909309 -0.0482879961568 0.0709674960642 -0.0497334029593 -0.0507796665348 -0.0604858821139 -0.0723635948948 -0.0283186211035 0.0285145394493 -0.0356800262131 -0.0263935107493 -0.058907188719 0.055727503771 0.0392640486979 0.0344643433531 -0.0340261531692
Games -0.000548859333451 -2.4137406501e-05 -0.00070991841592 0.00162122214939 0.0014312963015 -0.000600461182845 -0.00161445498893 0.000535440495455 -5.55482310578e-05 -0.000312051514635 -0.00120249146827 -0.00122450122509 0.00072772877332 0.0013905274989 -0.000288723759472 0.000641803960532 0.000487882225364 -0.00035083979625 -0.00155456308448 0.000674343359182 0.00164594860383 -0.000190806681676 0.00125048341535 0.000642018052154 0.000670857393712 -0.000856406296605 0.00108054725482 0.00127503211474 -0.000898762692678 -5.92626398295e-05 0.000184742237767 -8.72695878852e-05 -0.000226609688261 -0.00150780421734 0.000577581621988 -0.00141154801736 -0.000697064143394 -0.00143739914978 -0.00148101135367 -0.000119312460814 -0.000801697454473 0.00154318639186 0.00104220435219 -0.00118653678973 0.00125113396707 0.000179483329269 -0.000585132052109 0.00145975493671 -0.00118262889939 0.000421804919113 -0.000292545862562 0.0016397724917 -0.000643186544765 -0.000601934394782 -0.000794795308632 -0.000823129948534 0.00122474248006 -7.90784529107e-06 0.00117974386647 -0.00143194943553 -0.000349258627866 0.00067077835964 -0.000842431454265 -0.000496165727264 -0.00157148548847 -0.0013082742641 0.00108347132445 0.000379943823631 -0.000362153824156 0.000260181032411 -0.00145607410995 0.000361572281219 0.000887492309961 -0.00108359200037 0.000583710271958 0.000979229002259 0.00120418871578 6.29409108471e-05 0.000280131863757 0.000617138075137 -0.00154528503168 -0.000905368248511 0.000965024657362 0.000673916759851 -0.000251952084983 -0.000556813609703 -0.000569227930844 0.000201267058836 0.000796169182327 -9.65933845726e-05 0.000114908603533 0.00103589246657 0.000198381774844 -4.76470145783e-05 0.000565469624545 0.000916240424362 0.000499543416111 0.00014101424302 0.000403251741777 0.00162899246161 0.000335756617235 -0.000558962808326 0.00108763185628 -0.000531791643578 0.000812793952934 0.00156299310121 -0.000680167380165 0.000349124321186 0.00138050592262 0.000521856027742 0.000308461745506 -0.00156875906005 -0.00130146043253 -0.000363495279938 -0.000335500327225 -0.000871962267688 0.00036763037128 -0.000422538741809 -0.00149262827693 -0.000911959121127 -0.000187550353232 0.00110692807153 -0.000992613262648 0.000740483355325 -0.00035743564235 -0.000432837268672 0.00100334473612 -0.000725092624188 0.00108645081055 0.00138820057203 0.000253254909747 0.00106645292527 0.00149011239789 0.00118880082955 -0.00114100538204 -0.00126762145639 0.0010404399205 -0.00131129050938 0.0013584751554 0.000807423576079 0.00159343797935 -0.00140205590419 -0.00156952748407 0.00116119766719 0.000189196783512 -0.000415763183855 -0.00142609043746 -0.000467895748025 0.00122883569004 -0.000333927296945 -0.000725096225302 -0.0012526614787 -0.00130585440697 -0.000770632097489 0.00121491906271 0.00113617909276 -0.000352867974887 -0.00101186631648 0.000843989127037 0.000656558455042 0.00136775351143 -0.00126438821667 0.00164878857778 -0.00102707516591 -0.000167354901313 0.000756179330979 0.00160575624832 -0.000504247341025 -0.00165979688892 0.00158860622017 0.000437628631675 -0.000451197632914 -0.00102242647325 0.000542431754568 0.00111807062729 0.000208675852991 0.001355602932 -0.000634977099191 -0.000282706746054 -0.000242268792446 0.000477155767872 -0.000899840576641 0.00034361503023 0.000967650565442 -0.000115241240723 -0.00157448529191 -0.00125030830435 0.00017299750888 -0.00119961719339 0.00166315502657 -0.0010221980659 -0.00141276463058 0.000510090869399 0.00130684832054 0.00122415388441 0.00165967544327 3.60424292207e-05 -0.000577569985583 0.000748973346379 -0.00112757336824 -9.67003291127e-05 0.00125008109182 -0.00107448477327 0.00151834773121 -0.00109641053174 0.000533979918878 -0.000567128634773 -0.000208752678443 0.00133693184972 -0.000755518457289 0.000388194187952 -0.00155621314339 0.00123211137104 -0.00120605806312 -0.000479911793601 -0.000365965129839 0.000150034229797 0.00134645680425 -0.00143296520913 0.00116553810938 -0.000807347699626 0.00155945336701 -0.00142770281549 0.00157432294875 -0.000388131444607 -0.000178672598907 0.00114492542818 0.000932373774896 -0.00115595486637 0.000425429063906 -0.00102198000652 0.00132304600637 -0.00110604003276 0.000569147944131 -0.00110978424473 -0.00128828748122 -0.000817722915148 0.0005287938495 0.00120867961367 0.000450733226612 -0.00150074704491 0.000957673036164 -5.70278654107e-05 0.000612315037509 0.00133646759223 -0.000811034655098 -0.00117187980391 -0.00144627277376 0.000471763607189 -0.00117053264418 -0.00154442549055 0.000690869741679 0.000159849091642 -0.00155313255905 0.000633335248455 -0.000578789098928 -0.00113600922833 -0.000775658202209 -0.000209508530735 -0.000530903363569 -0.00139661541506 -0.000752184789338 -0.00164793282638 -0.000701131908854 -0.00032800564547 -0.00118728879969 0.000288572631681 0.00143140012675 0.000499289095826 -0.000389898481714 -0.00165207373301 -0.00119804014598 -0.000903408631629 0.00156076780541 0.000419878909537 0.000646429366312 -0.000419444722766 0.000501417605174 -0.000172578153541 0.000134082008866 -0.00109512426719 0.000716588636614 -0.00134671101997 0.00160958914535 -0.00123328233592 -0.00129871956102 -0.000707467755988 8.69197963444e-05 -0.000572242367233 -0.000639131199584 0.000738148324317 0.00130900015508 0.000187443381413 -0.000193575376911 0.00159286505465 -0.000433648520954 0.000796407147209 -0.000245300567509 -0.000908329946725 0.000645027970527
by 0.000227484494858 -0.000325973324228 -0.00161385912291 -0.00101332281177 -0.000115196075674 0.000512405596728 -0.00165085449566 -0.000111683083638 -0.00116972243653 0.00109763163951 -0.000325519468645 0.00132458527625 -0.00128326678733 -0.00144566119784 0.0011213274359 -0.00096097733973 -0.00135581254634 0.000575344414854 -0.00136909017954 -0.000811465631677 -0.000940768765133 1.82082108048e-05 -0.0012905055636 -0.00126382295813 -0.00150811963181 -0.000668371068508 -0.00129288627614 0.000467806116643 -0.000441450461247 0.00162338007363 0.000236488024761 0.00100190387097 0.000286989843407 0.000501451582463 -1.27468798115e-05 -0.000698883660115 0.00135947878096 -0.000696373896646 -0.000750210602191 0.00146884575739 -0.000270968664441 -0.000262901244781 0.000308682329551 0.000102125711104 -0.000531203869502 -0.00138336778674 0.000382834587668 -0.000586933274479 -0.000390074563462 0.000231471581622 0.00100526251359 0.00029303926837 0.00124355483504 0.00027768525856 0.0006552881186 -7.7847385837e-05 0.000343955802828 -0.00100862591231 -0.000354508640416 0.000660578257709 0.000615297570596 -0.00117915010672 0.000528420663271 -0.000918019060427 0.000240174674676 -0.00145623508509 0.000689003910032 0.00132449774253 -0.000592193756885 0.000587931976578 0.000379353203157 0.000278273227186 -0.000130576215492 0.000881583967959 0.000647086425061 0.00125821883888 -0.000147432752417 -0.00131546474474 -0.000736017504749 0.00113934077542 0.000198507276815 0.000184057866089 -0.000248801090264 -0.00110660562218 -0.000162656240976 -0.00159999915335 0.000297937685202 -0.00122419372023 -0.00104275022145 -0.00155231861913 -0.000179209435886 -0.000139782877016 -0.000349934431804 -0.00068822159494 -9.35738322764e-05 0.00100196200496 0.000928761659374 -0.000855340858148 -0.000668549545151 0.00130976831624 -0.0012196570031 -0.00039420343949 -0.000712058535786 -0.000366449750722 0.000525586357867 0.0010919224189 -0.000161610484429 0.00105803886834 0.000510167664505 -0.000766279908205 -0.000262516250457 0.00108386847783 -0.000975837549143 -0.000534976654332 0.000801304686485 -0.00165816829781 -0.000745173691448 -0.00163064231846 0.00120010067054 0.000856666906428 -0.00137963591147 0.000339353258969 -0.000592579340341 -0.00132830962853 -0.000584654197011 0.000544600958491 0.00035506536823 -0.00142826040368 -0.00152980377968 -9.45098855075e-05 0.000616136601683 -0.00143459587429 0.00073757039627 -0.000529325760254 0.000873220892575 -0.00157847482699 0.00115353632139 0.000279018360171 0.000510076940415 -0.000379636692828 0.000141961501392 0.000372949853163 0.000966083512719 -0.00106313759218 -0.000933452255161 0.000919007167385 0.000962818200739 -0.00139239392997 6.60059238257e-05 0.00129042615783 -0.00117190674755 -0.00138866512362 0.0015562748252 0.000379398486978 -0.000154714214653 0.000871956921936 0.000495224084414 0.00109169456555 -0.000192173625957 0.000269672005712 -0.00146990242902 -0.00102850509653 0.000437609952004 -0.000854615357913 0.00104547329585 -0.0011567599434 0.000392215586774 -0.000647380378195 -0.000423647711847 -0.000810996960064 -0.00134837098767 0.000153649734396 0.000428454085366 0.00015037657721 0.000602970744374 -0.000157380082455 -0.00090733496091 0.000363984742632 0.00086557866123 -0.00124457860681 -0.000959403613332 0.000390454920256 -0.000610889997412 -0.00110688555146 0.000844295484685 -0.00102928570353 -0.000565764816139 0.0013487505951 0.000480320648689 0.00017006835302 -0.00138669651315 0.00078907606207 -0.00104634824101 0.000590295434358 0.000100396221845 0.00160227137317 -0.00115393444322 -0.00105194815723 -0.00126846754343 -5.16540513357e-05 -0.00141553868592 -0.000137343938475 -0.00148334276055 0.00164709917808 0.000977518846019 0.000415337996061 0.000846950103517 -0.000562915997269 0.000963664648483 0.00112090963143 0.000543559146898 0.001537478447 -0.000516800430418 0.00112961715714 0.000564683138268 -0.0013505432691 3.67031944342e-05 -0.000463975539959 -0.000922400884548 0.000962890281564 0.000668839556706 0.00152559151913 0.00129810322851 -0.000804152895626 0.00119171171892 -0.000372993700815 -0.00159166898205 0.000523919497747 -0.000399268801618 0.000803412311118 -0.000199702092792 -0.00122042716128 -0.00147537472108 0.00145102756355 0.00100990428214 -0.00103730877928 0.000124993809098 0.00142781243695 -0.000705810230446 -0.00148449886214 -0.00112039736024 0.000631220785242 -0.00164235501108 -0.00059481029594 0.00135959447337 0.000393458806586 -0.000520362167699 -7.6052092359e-05 -0.00154377937854 0.000443429382673 0.000257830510581 0.000263430113168 0.000524513112873 0.00106825916281 0.000178196410577 0.000195548026604 -0.000148010905624 0.0015631037938 0.000128111082184 -0.000703189503183 -0.000237085523579 -0.00153340229002 -0.000529916595879 -8.92063807916e-05 -0.00115251689221 -5.01019671971e-05 -0.000507513186653 0.00121546005316 0.00120441663992 0.000225026216808 0.000955515435374 0.000550550403269 -0.00106042725044 -0.000574685250074 0.000321778555474 0.000694984128541 0.000880214423196 0.000722923814362 -6.02909820269e-05 0.000366877119893 -0.00125691646255 0.00126721445798 -0.00023033856015 -0.000805681377208 -0.000789835309663 0.00057676305922 -0.00133159595983 -3.37053033095e-06 0.000838773924117 -0.000470465446905 0.000285102935848 0.00139757140603 -0.000520462345708 -0.000680475723567 -0.00130336518189 1.39873338423e-05 -0.000594190131544 0.00162086806749 -0.00116614936778 0.00161679049876
with 0.0266042872271 0.00761016770378 0.0362525814218 -0.0773193260347 -0.0762859228359 0.0896141191535 0.0837088778171 -0.0809879324334 -0.0205164862273 -0.0827653637964 0.0107286039437 0.0957599093314 -0.0750330885507 0.0771805263416 -0.0736550666354 -0.058788845744 0.0504725180982 -0.0193750163734 0.0256189483079 0.104924322999 -0.0695222197686 -0.0526892501878 -0.0198769732367 -0.0111196603874 -0.0423846235237 -0.0642870546945 -0.0554241549669 0.037399791614 0.0735250185902 0.125584363399 0.0230738670166 -0.0435984497596 -0.0274189066682 0.01512403964 -0.0161796511672 0.0140335711866 0.0420163199593 0.0763535732822 0.0621352493266 0.0484926468176 -0.051221150071 0.0579906783034 0.00133458002248 0.0689828832859 -0.042556482291 0.0197501502674 -0.0712329508658 -0.0719032624271 -0.101825348481 0.0700205696448 0.079242384972 0.0782671576977 -0.00739896598946 0.0769375856311 -0.0128448772638 -0.0700149536819 0.0988406737073 0.00256130319505 -0.00228649142547 -0.0349723519347 -0.101586024769 -0.0514757816098 0.00185841947814 -0.0491472981119 -0.0665998388595 0.0496156875293 0.0745322475066 0.0659476460815 0.00751363022946 -0.0771612756061 0.00412831111148 -0.104515803851 0.0105406850038 0.01373880422 -0.049915681708 -0.0215633275832 0.114839550079 0.0916574290263 -0.0083596090653 0.0390341946537 0.0155261732629 0.0119752528823 -0.0545363851798 -0.00244208192405 0.0159652295392 -0.0486039904089 0.0257059879828 0.0288359195635 0.0682640310037 -0.0316463755238 0.0192441323123 -0.0811894725493 -0.0180681598113 -0.0552438119006 -0.0333640546553 0.0375333985714 -0.0174177362608 0.109721796983 0.00104922533153 -0.0852206141502 -0.0273838687087 0.049481165788 -0.0417441295325 0.0564243475849 -0.0831729974065 0.0550570798887 0.0511056026337 0.0179184498252 0.048502279602 -0.00645369738935 0.0766731901482 0.046117372946 0.0465569946277 -0.0223448786353 -0.00261553929118 0.0215074416056 0.102623018864 -0.113186395237 0.0114966346402 0.0532905734048 0.0604988903883 0.0684214041427 0.0572409774844 -0.0905107928385 0.0577387600297 0.0988530430818 -0.0702104960882 0.0488825016016 0.0286082269763 0.041072024195 0.0398663653088 -0.000962521145202 0.00476183794464 -0.0166423485174 -0.0697059311401 0.0732035967461 -0.0225416364556 -0.105509339048 -0.0594064903459 0.0710391599005 0.0805795737272 -0.0627257260121 0.00911500090748 0.0175945208106 0.0883754194529 -0.010601656491 0.0193237214851 0.0087238490013 -0.0412244267521 -0.0796423885756 -0.0267820179033 0.0695816968804 0.111887172128 -0.030166257935 -0.0683628878925 0.0694068786888 0.106145920416 0.098371819676 0.0204467505601 0.0114841410476 -0.0383984719792 0.0743264888619 -0.100043035528 -0.0666796123803 0.0382080799833 -0.00623314236682 -0.0960159999968 0.0667182607165 -0.10323284704 0.0840017547849 -0.0732230669799 -0.0765845243574 2.59470377418e-05 -0.0304916689408 0.0602159008354 0.00940217589948 -0.0926480635075 -0.0563434942719 0.0327006663912 0.0437026205972 -0.0641583369946 -0.0644716328497 0.0531627996921 0.0201824549548 -0.0865306438795 0.0160091669377 0.0396079635394 0.0052369321624 -0.0582542029855 -0.0824119079212 -0.0434698987123 0.118581892335 -0.127263357661 -0.014389832924 0.109960939097 0.0515863147062 0.0245344610063 -0.0519865902253 -0.00540653514221 0.0218238038921 0.0117605974512 -0.0180590931401 0.0524264676341 -0.0688942054498 -0.000558799340137 0.02392644944 -0.0947668957347 -0.0212459605791 0.120006378593 0.110685373022 0.0433753344257 0.037711067604 0.0866480813912 0.130619666434 0.0211849577509 -0.0490023608719 0.0228097859063 0.0284726947655 0.0166035519871 -0.0179007996621 -0.0139614613842 -0.0995851297711 -0.093928075833 -0.0530696976342 -0.00185232119525 -0.0466966279707 0.0884673524774 -0.0853020581891 -0.0774037087102 -0.0439608527108 0.0287533387074 -0.0889014123155 0.0740704430929 0.00715211534515 0.0366061193546 0.0634235271408 -0.072884671175 -0.0187107483744 0.0664046015048 -0.0311697463317 0.0574239859152 -0.0881941636295 -0.0695253354596 0.0741367998044 -0.0769082706414 0.0237671189949 -0.100688819263 0.0961158520854 -0.0420188509108 0.0474718319856 -0.0927557166036 0.0823839105992 -0.0253728908511 0.10475435053 0.061290156327 -0.101353144301 -0.00290030144312 -0.0375515623531 0.00292376054097 -0.0575758076254 0.0310624957688 -0.00879034236149 -0.00236771544413 0.117093870392 -0.0391111738856 -0.0202975783098 -0.0297311150908 0.0151934050387 0.015433659374 0.0710667017528 -0.0182652572393 0.0895706671185 0.0686901854827 -0.117945728279 0.0698710982071 -0.0336192415993 -0.0473950683087 0.0700816670194 0.0508659639136 0.0612954015706 0.0438153811804 -0.0544033557991 -3.52753035032e-05 0.0636419676538 -0.106022405126 -0.0775223599805 0.11711870091 -0.082070372475 -0.0806707201557 -0.098735989266 -0.11654449065 -0.04408117413 0.0444104908998 -0.0588638749479 -0.0438227174323 -0.0959459419699 0.0886566791791 0.0617278969184 0.0586876661548 -0.0548069256534
