90 300
<unk> 0.0332866905163 -0.0853826116278 0.131277309069 -0.0458456954289 -0.119978195738 0.0398906393259 0.107991914008 0.11749792992 0.138083052921 0.0442159181132 0.185768938263 -0.126586797479 0.226905281329 -0.123967741947 -0.104177167728 -0.211722235625 0.187448419803 0.124212772834 0.143602771374 -0.000704969431615 -0.0359007242881 0.116294896325 0.0180776883846 -0.253516085392 -0.294358862798 -0.288549830054 0.366134844293 -0.0682517702465 -0.0707496542138 0.107718766543 0.113944982962 -0.133441536144 -0.11503734477 -0.196315053827 -0.140258357006 -0.00369511226586 0.0439578876989 0.100291629261 -0.137885324876 0.0840015227806 0.151731824885 0.0232137530002 0.213021137792 0.130987961974 0.0162731647819 -0.128166432941 0.280656836867 -0.0612114505674 -0.167232831672 0.183102765761 -0.0906942361942 0.052815748386 0.210664769538 0.0375277071293 -0.121501346227 0.0381792548692 0.0872934222976 0.207559726315 0.14091500856 -0.0842854587993 0.0632262960276 0.21914504196 0.16085645859 -0.0813185559224 0.0528346143297 -0.120438061426 0.0515876430055 0.0402726848921 -0.0386333646158 0.105458207125 0.126292450101 0.105590750381 0.112952171864 0.0668386895109 -0.0283031083439 0.00728026727424 -0.0985402462142 -0.0651829046561 -0.0154574078421 0.189293035549 -0.219555268078 0.179446815609 0.146443361851 -0.228508081284 -0.153251949076 0.0554071692348 -0.130109354022 -0.137827159628 0.205713687246 0.171912963584 -0.123705449529 -0.0434781924192 -0.131408375737 0.117861167691 -0.00145459498248 -0.100990645755 0.0572855011387 0.138090931506 0.224928185185 0.116922052574 0.0635916355594 -0.160759774677 0.0475380650515 -0.0735791489956 -0.0744372844197 0.139659743059 -0.210380973283 0.215725205527 -0.0216210316602 0.144212066209 0.0100695369413 -0.160881843924 -0.135151123536 0.138242152665 -0.0212702370759 -0.0292887981839 -0.106456478274 0.202453397025 0.26638070743 -0.157334488287 0.136264493918 -0.157548989706 0.0753554450545 0.224007979978 0.0422763747948 -0.11164579924 -0.229529863872 -0.170577420717 0.108221301735 0.279321246049 0.0868075581838 0.12739958786 0.0418868819647 -0.174589402251 -0.100677543757 -0.108302486874 0.145102433712 0.159279812805 0.131948125084 -0.0645884796845 -0.103613504695 0.0279770544243 0.122793400123 0.162498086643 0.0905790740822 -0.0464683330887 0.222803001933 -0.113793906998 0.249959887956 -0.119778480346 -0.13511103798 -0.152262402602 -0.166042039551 -0.222731951468 0.00873031814098 -0.14233964806 0.157729144018 -0.191710538151 0.0120055293821 0.0542842895609 0.256298666186 -0.131289400519 0.128853999837 0.179344821546 0.143173373559 0.0493747120461 0.229811957116 -0.0768513766226 -0.0518512103741 -0.119077668777 -0.0528285153746 -0.0407066158886 -0.0224945931561 0.107977243225 -0.0536057861635 -0.104389014887 0.0395587525233 0.179029875959 -0.0360973908193 -0.301465456192 0.129121895834 0.194010975146 -0.0383804247439 -0.107393053182 0.151151779582 -0.167021721707 0.190385641881 0.0216023898924 -0.132498405917 0.0893032761012 0.282693026166 0.150935971852 0.248621266621 0.0929594482708 0.0332445849469 0.110242737546 0.0345509513294 0.192496293146 -0.206472864622 -0.0880273807579 0.0725538974219 -0.223138819623 -0.0941341400615 -0.223314707378 0.19783194801 0.153457970584 -0.296493246792 0.0124697064061 0.186832072026 -0.184114229125 -0.145625369829 -0.202787435854 -0.291593020158 0.0279723692719 -0.0475103063088 -0.0843057945048 -0.0153436234436 -0.0678971309536 0.125997677625 -0.00450538172806 0.097801770059 0.123248396006 0.0674210602152 -0.270622290879 0.168590958889 -0.175290228995 -0.0193938513521 0.0805092511414 0.244005112992 -0.0159874825005 0.256414770234 0.346658565464 -0.160182312159 0.0638395621135 -0.211541758677 0.0743664507755 0.0880936252584 -0.0966820179592 0.120855422417 -0.118522167512 -0.0451038936249 -0.0875359303183 -0.0646781337737 0.109409222758 0.288053788655 0.0836676623677 -0.168793188651 0.180654921043 -0.0458445714887 0.00636314404204 0.248491080219 0.24025327912 -0.146577778849 0.0278673035114 0.152062142024 -0.108832229272 -0.0758597049406 -0.178695299026 -0.163110306615 0.234303513944 -0.0664614049515 -0.182030096409 -0.122008349368 0.0533265248493 0.0757023643921 -0.0306277119405 0.0856021207995 -0.142548937903 -0.118886665664 0.00120036726824 0.0463261751961 0.275868982662 -0.12059757942 -0.0896442750568 -0.268003127036 -0.130914335021 0.113079854703 0.00425224966219 -0.114168396007 0.184443968915 -0.085204334627 0.0502660083816 -0.14880898071 0.236754018135 0.163921042793 0.225486216603 -0.204369558077 -0.00616088713516 -0.262302197732 -0.137823013067 0.192590418089 -0.108056790876 0.130881690542 0.177534725271 0.167237734703 0.188065091291 -0.109664024098 0.0515033299085 0.210897996366 -0.142347560535
the 0.0622813734555 -0.0991224907292 0.147166013067 -0.0662443194308 -0.13228139071 0.0152253042991 0.135384800982 0.119046767004 0.142949361776 0.0662976344906 0.139663428152 -0.121510420198 0.229354896272 -0.127200120112 -0.114160664723 -0.224028797629 0.159221000028 0.0877491885988 0.0918367139075 0.00816554897184 -0.0331011464908 0.125218443983 0.0360024461336 -0.263714422378 -0.268464557308 -0.283963872007 0.370740629801 -0.0703468482415 -0.0926646990169 0.128163129451 0.114002003683 -0.149365296251 -0.157564901756 -0.18742555837 -0.137887945979 -0.0378366313626 0.0562393956162 0.0943146543913 -0.135009789479 0.116993777086 0.172348741013 0.032420531114 0.195198159461 0.159642028132 0.00807134268538 -0.125286182096 0.264198967944 -0.0775854493709 -0.157416215178 0.208593642078 -0.0870525009956 0.0427388768071 0.181981687078 0.0620651339081 -0.1310697827 0.0468508729674 0.102555708515 0.224763525825 0.163176608735 -0.0724700223928 0.0552249102653 0.23352696048 0.169126798967 -0.0794873560476 0.0459402176144 -0.122493567099 0.0721925867893 0.0364477899171 -0.0514697567514 0.0842304186263 0.135893731956 0.135059025574 0.130427576707 0.0690809553505 -0.0188943492731 0.047242959298 -0.116032481377 -0.0625556808793 -0.00829954329566 0.209543314102 -0.225910623363 0.181405535346 0.15894905016 -0.244184842108 -0.151903278298 0.0622278088183 -0.139866119042 -0.162661500093 0.186008609976 0.164054058257 -0.1269943248 -0.065598366316 -0.142663413203 0.11736764164 0.0348040035719 -0.114893938038 0.0875892034482 0.145971674429 0.209348488252 0.117128781612 0.0696055561151 -0.176347611245 0.0629254761402 -0.0793298279181 -0.0736388950022 0.116276790796 -0.220393662655 0.24074387571 0.000263659389415 0.174553820483 0.00906727248383 -0.143341070993 -0.160952548718 0.124441188235 -0.0123697653034 -0.000861711086019 -0.137761940894 0.197972037488 0.313325095846 -0.127811130105 0.15144408433 -0.165801782788 0.0873190683739 0.237971041327 0.0359350674542 -0.131293157972 -0.248823240464 -0.130035888002 0.12180059209 0.278593426193 0.0755312740104 0.108751861096 0.0148321251088 -0.161122620944 -0.131945676175 -0.0767497500196 0.119142232545 0.157573269295 0.124435109167 -0.0624987378677 -0.110639923791 0.00947058007986 0.0905754304261 0.198385521022 0.0748497938292 -0.058258527176 0.224908496776 -0.0947255182523 0.227809157198 -0.150980018067 -0.163937495826 -0.198622989887 -0.152658439934 -0.228509291261 0.00955294488296 -0.167006725717 0.14535707443 -0.191937991879 -0.017288806562 0.04908708624 0.271501746209 -0.131985699996 0.134181311245 0.172576157797 0.150270152766 0.0584699084232 0.226364615424 -0.0871510019592 -0.0114190093086 -0.113893620557 -0.0656197273747 -0.0570232707379 0.00228521193539 0.13582839124 -0.0714838721474 -0.119128886673 0.0178405839933 0.213811755771 -0.036072628527 -0.324157486752 0.135829586268 0.215672711435 -0.052206895643 -0.126039526482 0.193247930831 -0.208853636703 0.213932013489 0.0403748737424 -0.125535115678 0.125436411557 0.251630959651 0.173493168407 0.255933092235 0.0774758569045 0.0371854122139 0.0930517147439 0.0136662272242 0.1765795568 -0.242305077927 -0.0741716934172 0.115855253146 -0.219474426214 -0.0884448656585 -0.244877177911 0.205728743471 0.142197430473 -0.285059635982 0.0266641771733 0.179097037547 -0.177544582379 -0.170759323121 -0.196907767589 -0.28624191718 0.00820605302728 -0.0346538065624 -0.103887556955 0.0073957158582 -0.0532304462049 0.11824451397 -0.0025400001003 0.0572877469412 0.125501005056 0.078279331074 -0.296234259714 0.181567458089 -0.195043135684 -0.0231107617625 0.0773170734095 0.251436653918 -0.0294840481506 0.276603529411 0.325051127676 -0.149304129633 0.0422964539834 -0.238645357182 0.0891376940824 0.105492068665 -0.121303206769 0.100545069567 -0.147331464817 -0.0609862885092 -0.0840236175141 -0.0558950264724 0.123117625482 0.298884529539 0.0854467706096 -0.152744507278 0.1880349929 -0.0483124501 0.00742707120256 0.249350521152 0.240545445556 -0.161857894089 0.0197061235017 0.152714976908 -0.146649381274 -0.0758173923512 -0.170185356477 -0.125723271915 0.239591150171 -0.0640365324815 -0.190923593578 -0.1167401179 0.0592891842344 0.0579844404206 -0.0222583225457 0.0754720810505 -0.144535676643 -0.129226561093 0.0148807109725 0.0526078499993 0.245166345177 -0.120049397667 -0.0853253779667 -0.270047760587 -0.147400246061 0.103284155062 0.0211754607133 -0.127740976725 0.156336629825 -0.111049566513 0.0569762419096 -0.126972549415 0.21695772652 0.157314836681 0.245916789865 -0.213417614115 -0.0154897260252 -0.255431813489 -0.1115569795 0.193469183436 -0.139956197997 0.141125098653 0.184835248844 0.161009086493 0.187001483088 -0.0826015999366 0.0331599131232 0.236167227585 -0.149326609065
of 0.0626455332713 -0.0999322842785 0.146658348307 -0.0685393071395 -0.131267330299 0.0166033878077 0.137371892609 0.122161484112 0.143752555608 0.0673917610641 0.144797147295 -0.123082516856 0.231933628576 -0.131667024055 -0.116292835218 -0.227384273993 0.161956138816 0.0896940584986 0.0952698153402 0.00887613680477 -0.0328665621149 0.128434113813 0.0331419087283 -0.267412761304 -0.271874149718 -0.289716595997 0.37637069578 -0.0700851681324 -0.0921899987832 0.126623500565 0.115480479801 -0.149050831374 -0.158293944325 -0.191931071452 -0.138322553707 -0.0376644656566 0.0552333089686 0.0932339407523 -0.135814520801 0.11849443517 0.172859998926 0.0331862413396 0.195362157715 0.158202577449 0.00690458358022 -0.12720075515 0.268925230979 -0.0802582898457 -0.158960691863 0.211439408346 -0.0892411792835 0.0403087740117 0.186870373545 0.0613062498047 -0.134369877922 0.0495982150277 0.104518973757 0.226817441227 0.164282558455 -0.0759899354758 0.054035492918 0.234121715567 0.168243160519 -0.0801529624055 0.0479084426466 -0.121202722014 0.0746500678511 0.036625771471 -0.0511850579877 0.085516996345 0.139464805335 0.137639309422 0.130946901424 0.0694464168401 -0.0192450309998 0.0449462053901 -0.117296865018 -0.062886281587 -0.00951397163298 0.210011965153 -0.22787964824 0.183145239562 0.161060124764 -0.249135266498 -0.152819513524 0.0627424962803 -0.144435545022 -0.165150046589 0.189137692115 0.166908367044 -0.126836369031 -0.0639403994895 -0.145625565484 0.118545288161 0.0347419927581 -0.115740736619 0.0879178498361 0.148119928555 0.21393000626 0.120694420672 0.0694213456367 -0.179627517976 0.061976311114 -0.0825886925284 -0.0748736379483 0.116094397354 -0.223216924688 0.242076961064 6.12685193291e-05 0.176803717584 0.00677836533358 -0.144765540559 -0.159850832941 0.125917561306 -0.0141808406694 -0.000479785202748 -0.13851302591 0.20196007757 0.314950226531 -0.129770132958 0.155598831613 -0.168609648496 0.0898549507165 0.242123513362 0.035533521499 -0.132139201213 -0.251737255663 -0.134200335274 0.123400022623 0.283541770629 0.074419872868 0.111301348666 0.0143073737841 -0.161717625347 -0.130185640387 -0.0795232061063 0.122164420529 0.160249483168 0.127135578582 -0.0644884414859 -0.112987869584 0.0089489420487 0.0935340820462 0.19953162163 0.0757526713346 -0.0593983247309 0.228347353555 -0.094658838411 0.231569927678 -0.154677013569 -0.163061084076 -0.199155669192 -0.155424963549 -0.230651141064 0.00835041532928 -0.170928717417 0.14989660502 -0.197409114496 -0.0162331861931 0.0501564124842 0.275001929734 -0.131279268196 0.1368826923 0.175246455534 0.153104629571 0.0591443329922 0.230875425925 -0.0864853654611 -0.0121376783865 -0.114876839704 -0.066255884346 -0.0591813081208 0.00175643157047 0.138779840797 -0.0692139818486 -0.120447466319 0.0182152146786 0.217551390721 -0.0353410383017 -0.326557130831 0.135608150163 0.216195336648 -0.0519913654993 -0.12459502885 0.1941191397 -0.211675009187 0.21784425772 0.0399903776273 -0.128542814109 0.125307580035 0.256123708729 0.175644167772 0.257237810795 0.0814001098194 0.0380750516589 0.0941677339497 0.0139378611776 0.177806466491 -0.245534767364 -0.0741745825383 0.114652911386 -0.225031239285 -0.0895861976274 -0.244948872348 0.207407374456 0.14467149186 -0.286382635517 0.0292459308913 0.181182221681 -0.181423996225 -0.172934730091 -0.201323537868 -0.289770849132 0.00901217371781 -0.0349675659531 -0.105286249096 0.00726379769261 -0.0524230504119 0.12231962519 0.000185063081299 0.0607477350532 0.127638651788 0.0798825652987 -0.298576157349 0.184256772967 -0.195123737784 -0.0231213724491 0.0786418262563 0.254451583906 -0.029551861534 0.281346405176 0.330453725112 -0.150081010444 0.0437151433475 -0.240583021593 0.0894944085002 0.108181765381 -0.120901263744 0.104635620615 -0.147426109678 -0.0639239404981 -0.0880928162572 -0.0585335686119 0.120928961642 0.299679952627 0.0857059460987 -0.154911019169 0.188140502761 -0.0483398438187 0.00723843761062 0.252890034244 0.242789097053 -0.164492017385 0.0206601898322 0.151557276682 -0.147092272417 -0.0754944908751 -0.173062989588 -0.130869688017 0.242179616691 -0.0671955906517 -0.193143079861 -0.116915711721 0.0582390643692 0.0606385907076 -0.0239184450094 0.0768173344519 -0.147218786817 -0.13066747889 0.0152309220465 0.0537547367686 0.249113270427 -0.120786231724 -0.0863465920764 -0.272081767062 -0.148756875014 0.105030541407 0.021125573129 -0.132141429577 0.158195061636 -0.112139921486 0.0565505877765 -0.131921691412 0.222420155285 0.160817491356 0.249314852289 -0.216161165558 -0.0156012217718 -0.260178698487 -0.115062282186 0.19710850704 -0.141131513871 0.141394110758 0.186019348816 0.164571294147 0.187944812306 -0.0845139160517 0.0346378332179 0.237119027609 -0.149745649087
and 0.076046823768 -0.108413530887 0.156635656247 -0.0807838205205 -0.138769670921 0.00538447563368 0.153495644797 0.125896488037 0.148119086941 0.0776768578226 0.128665863898 -0.121839173443 0.235497042249 -0.13460833196 -0.122807472767 -0.235470109002 0.154151398628 0.0775366109899 0.0759838643819 0.0101967094464 -0.0296896429897 0.134684899639 0.0431881219459 -0.274841874775 -0.271349464543 -0.293251472241 0.386264994225 -0.0706496885392 -0.101658398285 0.140381205622 0.121399189478 -0.160549485205 -0.179713189019 -0.193916656279 -0.139913883737 -0.0510267775615 0.0611838430064 0.0942179851001 -0.139927611558 0.138869604373 0.180625897319 0.036923809433 0.194907320295 0.174679767437 0.0033558165569 -0.128410424004 0.26840125227 -0.0878722058938 -0.158724978407 0.227514148215 -0.0899561775712 0.0365826755611 0.179740733442 0.0710579077078 -0.14311487113 0.0548484489516 0.112316875311 0.238993654253 0.179340192326 -0.0725705055675 0.0506115365872 0.243924997971 0.175351356475 -0.0795986677777 0.0456234295082 -0.121913573036 0.0832279216582 0.0368364000081 -0.0551753608999 0.0810358416036 0.142210201149 0.153266363033 0.142419667202 0.0737133316643 -0.012680492332 0.060725206837 -0.124602548146 -0.0610381259041 -0.00608203141802 0.223492649055 -0.238572522103 0.188287682261 0.167547705784 -0.263006499582 -0.157059638099 0.0674818168551 -0.152898010022 -0.179192700424 0.181204402147 0.170478499568 -0.133769310545 -0.0771259030751 -0.154155370088 0.119016128493 0.0486928834905 -0.124164009534 0.104683625435 0.151701799207 0.211627639233 0.121291918937 0.0746469113672 -0.185480902576 0.0692167592353 -0.0854923095715 -0.0753624160588 0.11131755458 -0.235556020678 0.257379033601 0.0072821942154 0.189814310597 0.00546009488676 -0.137813395071 -0.1760319851 0.124709680045 -0.0108070495318 0.011204902818 -0.15604801327 0.204509659565 0.341807802844 -0.120120112149 0.16558440002 -0.177700114171 0.0978160907848 0.253792401436 0.0341521757023 -0.140764498862 -0.264615019517 -0.121674905802 0.129860452796 0.287423350542 0.0742186261917 0.104319318843 0.00230011442591 -0.160132005764 -0.1470450348 -0.0710040205422 0.114302897856 0.164292844162 0.123066103726 -0.0636150514292 -0.118758743253 0.000942404903939 0.0824007922338 0.219331052282 0.0705690481231 -0.0655157554175 0.23253147366 -0.0875523210513 0.224857084807 -0.17010917604 -0.180030322261 -0.222147705427 -0.155454370485 -0.239209776024 0.00854687417236 -0.184185222069 0.149606709333 -0.203919662362 -0.031181524824 0.0525214367462 0.284878281327 -0.135861347259 0.147057717711 0.177652590144 0.158971785561 0.0654657074079 0.233172789195 -0.0969020638176 0.00300383881385 -0.113050298422 -0.0749958460412 -0.0682168137624 0.0137579292343 0.154092593877 -0.0790112950932 -0.1318098317 0.0121529141305 0.236853833687 -0.0353689229795 -0.342201679588 0.139106771623 0.231147604732 -0.060257807183 -0.134788031304 0.217128909217 -0.234035893939 0.230960117471 0.0451299862899 -0.127027202 0.144034090551 0.250353277787 0.188454267653 0.266084653774 0.0773734339123 0.041995519646 0.088587381647 0.00618313421278 0.174107732572 -0.264526126892 -0.0688579331497 0.136068517368 -0.23088461142 -0.0876173201886 -0.258083476727 0.215282937913 0.143117045977 -0.288822746984 0.0335746193206 0.180801248742 -0.187751350458 -0.185652959697 -0.204264732048 -0.293371390701 0.00180269898596 -0.029648873537 -0.115931114684 0.0176773589828 -0.0470892336278 0.121817061962 -0.000493962655003 0.0478846787875 0.130261876084 0.0903047598133 -0.314739158127 0.197082562992 -0.207623282545 -0.0210745489227 0.0762511546568 0.26304814131 -0.0376105904085 0.294559770461 0.329227735209 -0.151363271939 0.0351349992287 -0.255853239497 0.0996911759667 0.11952845608 -0.135374569229 0.0963788824293 -0.164705403047 -0.0727209319349 -0.0893865477383 -0.0571567426508 0.128471843666 0.310121189232 0.0863670259537 -0.153498234004 0.195806603242 -0.0526046042773 0.0101719024696 0.257698675781 0.249364191001 -0.173146398541 0.0166081356048 0.155432807317 -0.16635121902 -0.0763423050361 -0.17680769052 -0.120365064509 0.252876242929 -0.066335606877 -0.198244867169 -0.120432003763 0.0633971594432 0.0570104409021 -0.0170694980389 0.0750116643037 -0.152546651299 -0.139181221691 0.0218364786456 0.0542129088811 0.240499305058 -0.124326641012 -0.0854054020372 -0.281417469846 -0.153806519127 0.10252586926 0.0260638774228 -0.138708584158 0.153771654048 -0.127004702898 0.0614061808161 -0.124406744586 0.215479360539 0.161552712512 0.2636913125 -0.221935845526 -0.0214453510062 -0.261469041728 -0.106186902727 0.204464419696 -0.15822045312 0.149937702728 0.193128099896 0.164130244658 0.191197456996 -0.0766919752365 0.0282216429173 0.252773201175 -0.153725173162
to 0.0627138252998 -0.0984541256171 0.146155883027 -0.067589490968 -0.133198095138 0.0153625825419 0.136360259701 0.123225259852 0.143176950437 0.0688083553594 0.145707747709 -0.121352851072 0.232444565546 -0.129474741744 -0.117349329568 -0.226104607065 0.163287553531 0.0911095389459 0.0962466651367 0.00825085236024 -0.0322015440427 0.12740762271 0.0324070747295 -0.26475268023 -0.273334354002 -0.28904637332 0.374593450724 -0.0697957727705 -0.0925929696579 0.126392914744 0.11523054748 -0.150962997745 -0.159434391846 -0.191407055533 -0.140717932786 -0.0350301140851 0.0576907827829 0.094558658095 -0.138075874295 0.1172110538 0.173349656524 0.0317135076869 0.197066564174 0.16054033623 0.00655203062718 -0.126966730082 0.270193636835 -0.0776394661191 -0.157063233246 0.210360850312 -0.0911347464004 0.042697124956 0.187271448169 0.0601405157861 -0.131998304969 0.0478332326996 0.105702972787 0.224699949255 0.166568364492 -0.0753693231937 0.0566311297846 0.236130254204 0.169729567549 -0.0806377284512 0.0490161721093 -0.123158841788 0.0719033959485 0.0355473630382 -0.0493914120539 0.086903422714 0.138536659911 0.135460826049 0.132921086884 0.0716812665645 -0.0180660020284 0.0458768764365 -0.116150729756 -0.0630449141105 -0.00757082988169 0.210391078144 -0.227269455565 0.18504328064 0.161113266776 -0.246061441788 -0.155111915191 0.0625067326466 -0.141719057018 -0.163411320452 0.189769776759 0.166426233742 -0.128896516931 -0.0635280864892 -0.143783037895 0.115969282335 0.0329562758996 -0.117106989696 0.0866655936925 0.146728402088 0.214494944014 0.120593804479 0.06980581439 -0.178455462625 0.0618390078186 -0.0817882772991 -0.0746340820373 0.117391709558 -0.222784492738 0.241986925981 -0.00274231166267 0.173695035542 0.00968739144821 -0.145536440356 -0.160521920781 0.124959881738 -0.01523399843 -0.00170433978076 -0.140521339297 0.202599695051 0.314648049111 -0.131340933978 0.154435764043 -0.167709388493 0.0911908310722 0.241190415097 0.0382564189878 -0.129927187218 -0.248515823433 -0.136479371326 0.122496821971 0.282813164191 0.0770686759677 0.112071209459 0.0155016385824 -0.162423065175 -0.130245099436 -0.0810186935674 0.123901303116 0.159568642068 0.126677907088 -0.0649800549901 -0.113456147235 0.0122536973387 0.0950684579972 0.197989684433 0.0762886540723 -0.0593325473498 0.228406788998 -0.0963069036554 0.232248257575 -0.151842725739 -0.161914509642 -0.198454975713 -0.156225850265 -0.231819231899 0.00883560994457 -0.168796633829 0.148295962628 -0.194092746262 -0.0152939774279 0.05043745034 0.273468868105 -0.132894140339 0.135739550215 0.176815865295 0.151478961303 0.0587031300979 0.228925425128 -0.0885323285252 -0.0147365106484 -0.115175371843 -0.0670850540983 -0.0587309572189 0.00243164736822 0.13788510109 -0.0694557996781 -0.119601126029 0.0210967404988 0.214553753608 -0.0360289252207 -0.326565658831 0.134263648068 0.217491398254 -0.0546159651012 -0.123544266406 0.194954208396 -0.207899099662 0.215756802943 0.0393485990783 -0.126103584403 0.124421028104 0.257907411307 0.172566065437 0.259695446239 0.078963198195 0.0374444853868 0.0932552533922 0.014970491851 0.179051767099 -0.243216434797 -0.0762214438417 0.113241891278 -0.222003709646 -0.089723257209 -0.243597531556 0.205218634739 0.142143456157 -0.286565101565 0.0267229629399 0.179636884101 -0.180413680626 -0.171335114099 -0.199669193433 -0.289406841784 0.0108502645264 -0.0334695361803 -0.106080151183 0.00824104746874 -0.0546143674743 0.121549131946 -0.000396539111835 0.0625527037299 0.126207818526 0.0793524911584 -0.300570102198 0.183225201742 -0.196632119742 -0.0236966642617 0.0763296390081 0.254323028708 -0.028997780412 0.279560712584 0.33231507161 -0.152966555806 0.0439898668631 -0.238480397086 0.0922346091026 0.107042260761 -0.121331946718 0.104409814173 -0.146624877154 -0.0635168054477 -0.0857606996457 -0.0600379255448 0.124015632499 0.299894990899 0.0840323188236 -0.153889853706 0.18766006466 -0.0475231138351 0.00785252942165 0.250731608585 0.242232357701 -0.161268525246 0.018359241947 0.151818712868 -0.1460076651 -0.0739029397881 -0.173046804917 -0.130236589902 0.243561293429 -0.0638444471608 -0.190119855247 -0.118670098902 0.0593614763915 0.0593048277418 -0.0234652031406 0.0784278942997 -0.149380091681 -0.130595594711 0.015575145279 0.0541760592362 0.249380292767 -0.119399820683 -0.0857094640327 -0.273174711266 -0.146093564195 0.104905134681 0.0184111558313 -0.131279779139 0.161150476524 -0.111336132556 0.059406349309 -0.132048028861 0.22280003575 0.158445776899 0.24774343581 -0.21670087586 -0.0155639082552 -0.258269066214 -0.115982359319 0.196281346897 -0.13895533995 0.141908245993 0.185432072729 0.165654057291 0.190442850246 -0.0872902738802 0.0359551260689 0.237410801127 -0.149672877144
<bol> 0.0190983850122 -0.0625444003009 0.116891899789 -0.025805642142 -0.119905929885 0.0595090410863 0.0883794219262 0.111311421564 0.134506750223 0.0332258206795 0.212448043749 -0.134506360884 0.232940435448 -0.120321866393 -0.0949501039748 -0.204556705377 0.194297786838 0.146195906149 0.16224067533 -0.00474421492169 -0.0532784474946 0.101185892747 -0.00673655100392 -0.244108530761 -0.289125227978 -0.278629986566 0.345306083029 -0.0705994173929 -0.0631781976675 0.0909187560941 0.0994448410039 -0.123465308713 -0.0821108710098 -0.194089781807 -0.137731828984 0.0206311323283 0.0373630033135 0.0982796662043 -0.12790719871 0.0540502847758 0.155223037233 0.016105249656 0.209168038959 0.11440554214 0.0277408096703 -0.130152948112 0.270566435195 -0.0452009181534 -0.162575054619 0.163232488704 -0.0935567545711 0.0659298854553 0.223997343459 0.0283581198686 -0.100355757083 0.0285051970689 0.0820418482936 0.193614604084 0.120643417843 -0.0794088809834 0.080821635124 0.213855111354 0.159859386737 -0.0768552831878 0.0580209911341 -0.129363277297 0.0369260081734 0.0405969356083 -0.0354738598288 0.109392633412 0.123183097432 0.0848123146302 0.0945654380075 0.0670919350079 -0.039917850981 -0.00584318406954 -0.0840499164567 -0.0757151469256 -0.0155822652803 0.163955823702 -0.202142149022 0.179117536759 0.129413445687 -0.19759046385 -0.142341571718 0.0487695516528 -0.106060383179 -0.114934198888 0.218474306526 0.157500889415 -0.112120884085 -0.0223177382785 -0.119757748559 0.118768841924 -0.0220333266677 -0.0921950674062 0.0268300388983 0.129068817405 0.232876371211 0.113457793467 0.0592414461113 -0.159364897768 0.0397474685441 -0.0779681325104 -0.0808021683196 0.146121710351 -0.1932817343 0.197664588796 -0.0322499021793 0.133854539009 0.0198463557502 -0.178663019731 -0.108313264019 0.125606960222 -0.0315527666999 -0.0457481774224 -0.0936063574429 0.201538196719 0.233945848401 -0.175431080843 0.119859984255 -0.136963223926 0.0632996023496 0.204574162515 0.0503085069002 -0.09891107213 -0.212929446021 -0.191575684643 0.108282659223 0.279807322036 0.0776734815999 0.141272254309 0.0576256076362 -0.176219658832 -0.0720842704929 -0.114340866397 0.154268978784 0.151384883236 0.137654209727 -0.0773569746791 -0.0905674105471 0.0559130118999 0.133111761554 0.134299353187 0.100515257095 -0.0371397704489 0.21330004439 -0.132184527004 0.266172087346 -0.0928867930874 -0.114680897589 -0.129881894116 -0.156440824439 -0.210926621121 0.0151129347061 -0.123023840219 0.143720874814 -0.170726868603 0.0355925790012 0.0517536979921 0.243284177139 -0.13342451708 0.0961970347625 0.180039119026 0.138193583607 0.0372599002823 0.221829150476 -0.0574800636002 -0.0750961579626 -0.125071202306 -0.0373636144917 -0.0310234947031 -0.0397050767556 0.0760183471383 -0.041443894818 -0.0884351931607 0.0409996711783 0.147922147504 -0.0417079898408 -0.281637001275 0.130878018892 0.1814442869 -0.0343121614009 -0.0943049072155 0.124254615714 -0.127252420111 0.16256973461 0.011900807964 -0.138524307661 0.0632496317619 0.287342949499 0.130829566121 0.235889964193 0.0933905555135 0.0318289960906 0.113545056694 0.0398452965399 0.204095326926 -0.174995144677 -0.091886769489 0.0463845614374 -0.195091262071 -0.0952105594733 -0.213349846978 0.183635453372 0.152104068244 -0.287670656206 0.00393340467736 0.193438209559 -0.164846558579 -0.120291526727 -0.202462074998 -0.290195960912 0.0410203227225 -0.0526653129596 -0.0694506667176 -0.0350422966526 -0.0819311635102 0.119904320305 0.00276361910646 0.112067653845 0.123175651677 0.0493534318004 -0.254938272207 0.145254438879 -0.159410999668 -0.0334098146012 0.0835877347611 0.230523559634 0.0042613463838 0.240851766721 0.348612864401 -0.164629010349 0.0771519846422 -0.194013772259 0.0668835069563 0.0638639974532 -0.0708446371704 0.130663385138 -0.097094407716 -0.0333100260264 -0.0810655380435 -0.0665770512892 0.108000527835 0.273020258442 0.0818354291622 -0.166250029419 0.17286621541 -0.0436666358344 -0.0046522545374 0.237094198788 0.224598587861 -0.134459188449 0.0361387574715 0.147950943453 -0.0844718439435 -0.0774915463022 -0.172102994273 -0.167233583386 0.208013135283 -0.0544902213883 -0.176309442547 -0.116074347927 0.0345936589871 0.0769989919372 -0.0461409228153 0.0936238478974 -0.133092952769 -0.100384674753 -0.00258151731738 0.0522353095812 0.290191082305 -0.107966394025 -0.0938388495441 -0.250930735013 -0.13274032058 0.11517476811 -0.000905521184653 -0.102084034625 0.180227021986 -0.0582889899564 0.0494405001239 -0.152421538161 0.245997975298 0.160378836617 0.190095868652 -0.198531686104 0.00152287098863 -0.257577554454 -0.153930625171 0.176494160904 -0.0843045036212 0.1243849779 0.160233678568 0.164526036736 0.184335582731 -0.116268798393 0.0612375832555 0.198434018038 -0.138197667834
<eol> 0.0340607839855 -0.0743296596039 0.126736393172 -0.0376860502711 -0.12395292067 0.0445073889807 0.103830921652 0.112888392948 0.137359327403 0.0438947214548 0.192080195621 -0.131864985133 0.231191877844 -0.123932780184 -0.101597842599 -0.210946912761 0.185616581529 0.129121831569 0.14291476987 -0.000215724933801 -0.0486727015778 0.10679581682 0.00663711932758 -0.248569444262 -0.28406951593 -0.280764897402 0.354401762618 -0.0678662553802 -0.0724098842923 0.101769058541 0.103604709523 -0.133473350612 -0.104461329964 -0.192630090849 -0.136764041073 0.00436088306935 0.0438871997097 0.0961592325703 -0.12982353142 0.0725406209866 0.159339565238 0.020713331376 0.205630379266 0.128176187822 0.0225492248423 -0.129531752316 0.268315592937 -0.056670816529 -0.161345501932 0.176666025871 -0.0925815690539 0.058218619655 0.210934300616 0.0374941389652 -0.109443223442 0.0337884341788 0.089067186337 0.20121425864 0.133717912064 -0.0783882615906 0.072663948335 0.21975349563 0.16261997342 -0.0754837912887 0.0540598049028 -0.127544473056 0.0489443227194 0.0396377724984 -0.0405151306351 0.104739940649 0.127915921325 0.100704232837 0.104686406519 0.0691565298762 -0.0343937368717 0.00958671693674 -0.0929788185104 -0.0697101762204 -0.0138685296923 0.177821016467 -0.210184013639 0.179107557122 0.13836175663 -0.213459459244 -0.14521628177 0.0536061913759 -0.115340747829 -0.130679471425 0.211327561691 0.161908086099 -0.116818577204 -0.0362618704777 -0.12605848547 0.116008802683 -0.00480754451557 -0.0989613523767 0.0442572020684 0.133681853106 0.226174034167 0.115185507139 0.0632378825963 -0.163861139026 0.0474338566646 -0.0805202153742 -0.0804047480158 0.137073646959 -0.199853507508 0.209825604953 -0.0234986765633 0.147551788566 0.0157457835115 -0.166695056266 -0.124057535827 0.12626556418 -0.0245386189719 -0.0321836162049 -0.106686542096 0.202115707261 0.255508660949 -0.161612134493 0.128931753919 -0.146631452248 0.0715707425438 0.213377079617 0.0465592533628 -0.107357082951 -0.223637122801 -0.173772506144 0.112555622896 0.27994071823 0.0779265936053 0.13349787536 0.0437083518342 -0.172111391081 -0.0884670130664 -0.102375521933 0.146442751665 0.15366561416 0.133740435857 -0.0738201710531 -0.0987088020619 0.0426036016869 0.120512332533 0.15322373028 0.0916807621385 -0.0422146726891 0.218204852123 -0.120441830201 0.256626740202 -0.110920034889 -0.130866059568 -0.149919781493 -0.156434638721 -0.215863239676 0.012458582934 -0.137866172365 0.143047749736 -0.1786157698 0.0218152929644 0.0493288942073 0.253441180785 -0.130922927848 0.107498232868 0.179030684746 0.142691139092 0.0424897262988 0.224397696009 -0.0669962491129 -0.0554972250191 -0.120213707196 -0.0470465324484 -0.0401691256058 -0.0267364386837 0.0929606882924 -0.0498029154085 -0.0971362982433 0.035562328449 0.168203576194 -0.0393669854 -0.295316410149 0.132018963291 0.193154656847 -0.0406516363204 -0.105300322521 0.144620771012 -0.150131547144 0.177216592277 0.0212309634857 -0.136050600647 0.082580343767 0.277525628144 0.143926639881 0.244083364405 0.0902684354829 0.0340702749228 0.108101255176 0.0312439003817 0.195731530494 -0.195665967501 -0.0892251402982 0.0658967611254 -0.203624744776 -0.0945749467274 -0.22220839034 0.191602873196 0.150128412026 -0.286678857328 0.0121136918405 0.188306780296 -0.169744325133 -0.133882190516 -0.199943391272 -0.287498264055 0.0341949119195 -0.0459306861999 -0.0811064133067 -0.0236903152078 -0.0728588414017 0.119091699423 0.0044791420683 0.0966623622428 0.12357414755 0.0588003602536 -0.26710241897 0.157306603129 -0.169656731283 -0.0333188751579 0.0807834809097 0.234989768502 -0.00623424866259 0.251344306677 0.342505066151 -0.160783882914 0.0658025334233 -0.206570468242 0.0734476707954 0.0761732623894 -0.0858420928403 0.123462619669 -0.111866804722 -0.0406208559862 -0.0838051713323 -0.0640374743408 0.112346292905 0.277881944973 0.0835202421698 -0.160102221083 0.177620229653 -0.045801469114 -0.00268265269433 0.242269100397 0.228073934508 -0.14418324042 0.0301530200483 0.150686551824 -0.102481473168 -0.0767830102753 -0.171872249875 -0.153932720749 0.21810845994 -0.0600897701894 -0.180788845014 -0.115757534801 0.041867794886 0.0737019148785 -0.0401768758267 0.0873098988664 -0.137268928326 -0.110169937734 0.00197589797276 0.0515369737867 0.278186584972 -0.111273738415 -0.0911731812278 -0.254853896445 -0.137710029192 0.111852505411 0.00588268103381 -0.108394930734 0.172170403477 -0.0748522756505 0.0528747585948 -0.146964560152 0.237981427487 0.159565016325 0.206823320401 -0.202589637604 -0.00282927171557 -0.258666433845 -0.14293444622 0.183206651392 -0.100283880877 0.127761299415 0.167265771203 0.165689872309 0.184116797034 -0.105480246398 0.0542950203846 0.209847052399 -0.141390266487
in 0.0605798877344 -0.0967986399934 0.146233996786 -0.0635734518876 -0.130885433412 0.0180643540649 0.134472300191 0.120493007503 0.142213537655 0.0659049964201 0.149902923019 -0.121840459091 0.230501975756 -0.130667074292 -0.116021616816 -0.223848054479 0.164995949596 0.094414237569 0.0995396179275 0.0069732213028 -0.0331257297651 0.123334952189 0.0304153430092 -0.265754937122 -0.275028015991 -0.286773094534 0.371278584204 -0.0691858626873 -0.0901285993976 0.123706803827 0.1127074119 -0.148714967175 -0.152115055435 -0.193198230138 -0.13725155758 -0.031569884206 0.0568420757613 0.0944873304199 -0.133787698853 0.114913828495 0.172099339427 0.0307594918608 0.195666666763 0.155551152045 0.0105247225582 -0.128690201176 0.266422598366 -0.0749974964282 -0.159194732718 0.206926432856 -0.0900306901184 0.0439455927013 0.18984268577 0.0574245706762 -0.129657860496 0.0454709661894 0.102060748041 0.222309210584 0.16351522543 -0.0730735423715 0.0581480303414 0.232266167903 0.170753771786 -0.0782039145492 0.0505347332956 -0.123354541517 0.0717598264002 0.0360156854506 -0.0487311407817 0.0874057994896 0.137654014033 0.131821907902 0.130598422168 0.0716775425231 -0.0181636737958 0.0407153202398 -0.112963343978 -0.0648345281122 -0.00922020407289 0.208025545317 -0.226412910988 0.184688108711 0.156128577122 -0.242618465762 -0.153016491591 0.0612550747533 -0.138937246202 -0.16340643026 0.189920973373 0.166483971745 -0.125096643681 -0.0619162835469 -0.142232553964 0.11761518424 0.032141174072 -0.115754098116 0.0838680655901 0.146398846607 0.213600537528 0.119780038237 0.0674593340983 -0.178964883361 0.0609859268922 -0.0823545708863 -0.0751826208514 0.119193187777 -0.22227960943 0.237241023305 -0.0031580278919 0.174387868202 0.00882857097895 -0.146229292219 -0.158531226227 0.124419789939 -0.0165054259787 -0.00477612575798 -0.137302174862 0.201982376433 0.308898045769 -0.13290810398 0.153232994279 -0.165544938422 0.0888608190069 0.237281543444 0.0389755863926 -0.129539152133 -0.246980219064 -0.139925204951 0.123625465214 0.283572944229 0.0770139855435 0.112484589659 0.0175315706489 -0.162685095794 -0.127859467992 -0.0816354608042 0.124204097739 0.160849361221 0.127286231409 -0.0671518401136 -0.112881763688 0.0154214880898 0.0956151524332 0.194597199045 0.0783075799448 -0.0573987884406 0.225383745088 -0.0985890380085 0.232774721296 -0.148523354553 -0.161666481549 -0.196694162553 -0.15511643539 -0.230789947727 0.00753041808096 -0.165263574394 0.146593301796 -0.19216190058 -0.0120154006863 0.0518573641222 0.271221392568 -0.132967279277 0.133494263501 0.175665774225 0.151507947944 0.0576095337635 0.227157003626 -0.0853385497776 -0.0171080257625 -0.113221343569 -0.0649692454161 -0.0561839000398 -0.000478359969288 0.132277404956 -0.0666257611526 -0.117444102748 0.0201793730679 0.212727360641 -0.0365444357945 -0.323300445413 0.135328433976 0.214523236633 -0.0520681431181 -0.124336062588 0.189696765686 -0.202599867886 0.211032246523 0.0356965837929 -0.128972988804 0.121125775916 0.259270219074 0.170844394837 0.255255431824 0.0808669640371 0.040375234227 0.0964690425012 0.0153344743136 0.180827783146 -0.239937022476 -0.0750237768295 0.109108430361 -0.221511244584 -0.088772755344 -0.242356083803 0.203812089329 0.144047099499 -0.287112420227 0.0247310701435 0.180073557732 -0.178698059528 -0.166713007454 -0.201852171276 -0.28930174815 0.0130357121597 -0.034186409297 -0.101966903415 0.00304929552294 -0.0554089599681 0.120814557236 2.74790587241e-06 0.0646652010012 0.126329364082 0.0770177157137 -0.29474696616 0.18118612038 -0.193800735865 -0.0243973380579 0.0765068653492 0.250268175872 -0.0264759158392 0.277060304771 0.331897436199 -0.15167215426 0.0459641947245 -0.237610174388 0.0878606088342 0.102834486974 -0.118508613897 0.106371889989 -0.144112369022 -0.0596932501322 -0.0855586524026 -0.0584443275432 0.121422425422 0.297885530411 0.0866219223266 -0.15389286489 0.187618901548 -0.0473857254136 0.00632783080712 0.24907220288 0.239121031071 -0.160122665146 0.0209381054103 0.152727669307 -0.142587828258 -0.0736127180614 -0.174315562673 -0.131073875021 0.239506430527 -0.0643018424127 -0.189127251011 -0.1171097338 0.0564973234931 0.0612931988877 -0.024560885274 0.0787996526426 -0.146789499705 -0.130342048644 0.0152046353811 0.054091350563 0.251125309604 -0.118259029684 -0.0847325618722 -0.269713567693 -0.147421448169 0.103871451839 0.0200035060386 -0.1278888698 0.158952565319 -0.110769745733 0.0586349519532 -0.132821205085 0.220676010126 0.158566530858 0.243616119063 -0.21599277109 -0.0154015189938 -0.259439593274 -0.115904012898 0.197112627437 -0.135038858221 0.142110500613 0.183488711212 0.164622144041 0.188076247273 -0.0873532518693 0.0351755681744 0.234572583989 -0.147957096268
a 0.0524738486826 -0.0913655284615 0.140910231849 -0.0570886342206 -0.132375825274 0.0260908067401 0.127188871065 0.119269185877 0.143566680633 0.0589958416799 0.163742100251 -0.127856137364 0.236478801605 -0.128917392803 -0.112954731597 -0.22490080535 0.17296601178 0.10624444633 0.11112006493 0.00631841568033 -0.0373557080404 0.123053686195 0.0243210483115 -0.263941285529 -0.280669110708 -0.290357081523 0.374502234783 -0.0694145671556 -0.0889901007511 0.120780295869 0.112901353899 -0.145894241968 -0.141346663444 -0.193746949014 -0.142110411947 -0.0236135376749 0.0530162008206 0.0956344147894 -0.135088340874 0.104360365007 0.171705409199 0.0282860929989 0.20146948916 0.15197188367 0.0107313321837 -0.130885348154 0.27464110608 -0.0725834533376 -0.163547442913 0.203621258418 -0.0922456302149 0.0481956251955 0.199101551718 0.0528053598419 -0.126168077316 0.0429666126328 0.102351256918 0.2218899918 0.158834571544 -0.076888780994 0.0608349751556 0.23189692005 0.169936020544 -0.0812622903838 0.0503617327691 -0.124125850963 0.064921569138 0.0387820446356 -0.0466216687994 0.0947227434374 0.137271236686 0.126024005223 0.124607527888 0.070902839769 -0.0228166299619 0.0327819822884 -0.112107439329 -0.0658086315994 -0.00917954355191 0.202431130336 -0.226019926505 0.186225669817 0.154255474264 -0.23907354469 -0.155166206126 0.0614926291573 -0.135642210123 -0.15679404639 0.198629239517 0.16637805665 -0.1264274654 -0.0551461938741 -0.139966008046 0.120242871978 0.0203830101711 -0.112741857677 0.0749560450062 0.145363904937 0.221240458098 0.119420282831 0.0680325105573 -0.175720207816 0.060165422571 -0.0818586258342 -0.076827071728 0.127607141404 -0.21890913133 0.233846794897 -0.00867257689595 0.167080391557 0.011484892247 -0.155121805994 -0.151314336928 0.125816288955 -0.0187283528648 -0.0123920035211 -0.130881288931 0.202764913025 0.301788216338 -0.14372619064 0.148350948317 -0.164390771585 0.0855132943503 0.236438682636 0.0421825860205 -0.126231986875 -0.243614262238 -0.151940546654 0.122726549082 0.287242897402 0.0762640424686 0.119335743334 0.0236398484936 -0.168068095066 -0.117977088373 -0.0900779709522 0.132651635479 0.161907511895 0.131262487778 -0.0685910273346 -0.108630466751 0.0231212767212 0.102890074193 0.187263905243 0.0828085970753 -0.0545910716535 0.225819606591 -0.105446220284 0.241222697491 -0.139389496992 -0.154572576712 -0.185348528293 -0.157191377465 -0.231196637853 0.00950517321587 -0.161044778172 0.15070082855 -0.193234466193 -0.00261522515787 0.0522594421398 0.270291359417 -0.135852478061 0.128686407284 0.179846795966 0.14945158825 0.0565849594943 0.231692188661 -0.0825994741523 -0.0270671138299 -0.119601451573 -0.0621791597084 -0.0513540144852 -0.00678645431079 0.123705547868 -0.0635965506389 -0.116310850367 0.025521607241 0.204928401589 -0.0391312318244 -0.320986806174 0.137434862835 0.211179258669 -0.0509870676947 -0.120106932249 0.180089789706 -0.192128665203 0.208009637645 0.0331619845889 -0.133689472127 0.113945134369 0.267618955585 0.164982651796 0.255559711078 0.0863420714903 0.0369781820035 0.101117494188 0.021788543079 0.186191658064 -0.230263127345 -0.078970418394 0.101060466787 -0.218541334207 -0.0912233020686 -0.242757105875 0.204058722466 0.148472934518 -0.293460519257 0.0226357855606 0.185526204213 -0.178145920432 -0.160816186003 -0.204166353682 -0.293815483229 0.0159276424966 -0.0389954537546 -0.0993388967705 -0.00289386668357 -0.0630837700056 0.123853491343 -0.00123056996656 0.0755606762286 0.128015200613 0.0739217925803 -0.291965544099 0.17670737012 -0.188423452057 -0.0269170284723 0.0798141451794 0.250275777898 -0.0228765397648 0.275551475346 0.340543395948 -0.158051470375 0.0504446807572 -0.231925595504 0.0852626045796 0.0988750228287 -0.110140214245 0.113310331371 -0.136862868862 -0.0548972228891 -0.0859122284357 -0.0621738382056 0.120530083065 0.296745537949 0.0841056734844 -0.15763553352 0.188225606353 -0.050212783838 0.00445886407612 0.252627715689 0.241178953486 -0.159497432662 0.0244145073004 0.153535163081 -0.133500560106 -0.0782126440813 -0.176622841932 -0.139204372054 0.239536780578 -0.0650438280841 -0.19065220348 -0.120441218346 0.0545641674506 0.0655280397916 -0.0307137266941 0.0813102089304 -0.146441738368 -0.126943067501 0.0114988056242 0.0551867167665 0.261644234354 -0.119879285691 -0.0895390748493 -0.273069546959 -0.145704032701 0.109201373193 0.0163193518186 -0.123698662614 0.166154507662 -0.101658500216 0.0565532666304 -0.138959633391 0.230552896862 0.163584399954 0.239311114064 -0.215095932596 -0.0119874234134 -0.264164639318 -0.125656540319 0.196595248338 -0.129569975239 0.14155346614 0.184116194137 0.168811019881 0.191932760132 -0.0941337928067 0.0415218074724 0.232628880455 -0.147597080564
as 0.0399999835347 -0.0776696195805 0.128835570404 -0.04069478307 -0.122030281527 0.0402626298141 0.108699414335 0.115817050049 0.136200225991 0.0468443258637 0.182799853795 -0.128213762439 0.229962423741 -0.122361194954 -0.102568599393 -0.211029466319 0.180711345402 0.122973964969 0.132003055206 0.000828158169774 -0.0448624360048 0.112239389672 0.0124501911514 -0.251317681395 -0.280081097761 -0.283474892228 0.356328402446 -0.0701932610566 -0.0755581201658 0.105947489398 0.105135618912 -0.13635360062 -0.113032648678 -0.191829324737 -0.1386443321 -0.00460100987283 0.0473996027159 0.0958842499145 -0.132217278426 0.0813212461327 0.159219625104 0.0211898587933 0.201152198676 0.132442687768 0.018372459833 -0.126441624621 0.270124282312 -0.0603040667292 -0.160005336019 0.183106115916 -0.0924340406139 0.0570053727247 0.20839434358 0.0402990762125 -0.111259230524 0.0361174034132 0.0912309478402 0.205592111155 0.138452496631 -0.0772743789538 0.0686181095573 0.220039883233 0.162384276399 -0.075159560032 0.0539010501856 -0.124322642475 0.0509817167398 0.0406483199589 -0.0401453545956 0.098768887714 0.129239969605 0.104263103847 0.110875345402 0.0697328878474 -0.0312543748406 0.0135797218733 -0.0977241353767 -0.0693753262083 -0.0120742084797 0.184283476691 -0.212759072685 0.180396825369 0.140601755154 -0.219234869533 -0.148498827105 0.0548135033831 -0.122352718343 -0.13746790786 0.205717104079 0.163081512299 -0.118146693463 -0.0396202555106 -0.129190488822 0.116996530571 0.00189148514167 -0.103942215113 0.0519290589866 0.136329489731 0.225214509958 0.116616874546 0.0628585929283 -0.166438155724 0.0489039865433 -0.0798631747657 -0.0794323409225 0.133769785534 -0.204249779903 0.215308055346 -0.0192017895979 0.149978945616 0.0152527372469 -0.162244382108 -0.131302782471 0.126355853931 -0.0245074183863 -0.025151810546 -0.115154013213 0.200480050729 0.266682265332 -0.155869100637 0.134076943776 -0.150085838438 0.0722347309499 0.217646983657 0.0444066629881 -0.112255460919 -0.226540824248 -0.164655034204 0.113451282131 0.279354615266 0.0759496233585 0.127281883808 0.0397461563841 -0.171083326948 -0.0972321528548 -0.0988631420169 0.139837811513 0.154508717524 0.132003432694 -0.0707244933914 -0.102143244774 0.0355836078863 0.1140104791 0.162383162785 0.090238034657 -0.0451316131117 0.218209627012 -0.114595378755 0.248727005592 -0.117131538269 -0.134606085195 -0.158317709707 -0.156574553818 -0.217812090875 0.0122274421541 -0.141664710599 0.146457082021 -0.182667872914 0.0153139754028 0.050036522081 0.255464510435 -0.132382191166 0.112834472106 0.179156073609 0.143249952232 0.0461081619716 0.222894238779 -0.0727157181723 -0.0471785507114 -0.118862160793 -0.049876669842 -0.0432256826994 -0.0235535624015 0.102466972217 -0.0524423562743 -0.101737148614 0.0333200040827 0.177472314178 -0.0371522164934 -0.29928141554 0.132762754305 0.197727831064 -0.0429365940281 -0.106426988091 0.151877161568 -0.161800475136 0.184064390955 0.0225255766603 -0.134355196763 0.090163477951 0.273126393144 0.15019560405 0.246245536052 0.0873733860703 0.0365734162999 0.106479656793 0.0281615104555 0.191057172791 -0.20177597115 -0.0844087143985 0.0758994989626 -0.204731217496 -0.0940447937351 -0.225563134914 0.192339556479 0.147031656317 -0.285922042993 0.0133995082566 0.187141652565 -0.171628601467 -0.143097769451 -0.201969084715 -0.288804510186 0.0283223227363 -0.0447456551583 -0.085418639281 -0.0171343636764 -0.0697432710631 0.118029067427 0.00055094422566 0.0914986355434 0.124540952128 0.0643991779271 -0.273787909304 0.160754406197 -0.175294832359 -0.0309572225404 0.0815508931135 0.238560395957 -0.0105979567004 0.255337188632 0.339281764749 -0.15793246935 0.0635723130787 -0.211059950849 0.0769712379112 0.0822261616621 -0.0927938629487 0.120187592249 -0.116863124285 -0.0464538720282 -0.0834346032352 -0.0620758188159 0.114574076886 0.282107413574 0.0838225048792 -0.159184218251 0.178532968048 -0.0446225854095 0.00133041737287 0.240611064735 0.229441313719 -0.147940980268 0.0295789424838 0.149340396471 -0.111588146578 -0.0768583415932 -0.171780897647 -0.151293853903 0.222925797018 -0.0606360279802 -0.183742313564 -0.1167577833 0.0455272885588 0.0716519418025 -0.0378499645081 0.0842633350184 -0.140294520718 -0.112323703323 0.00341547898447 0.0521004636135 0.271865694668 -0.111697622314 -0.0908658567916 -0.259038612452 -0.137705361487 0.109023749097 0.0080512669214 -0.112503285454 0.171601876488 -0.0812114269675 0.0537041531742 -0.144546562846 0.234748855957 0.158663776799 0.216550313453 -0.204826441768 -0.00761291788686 -0.257371136577 -0.137201808579 0.184356887477 -0.109008599038 0.131328603798 0.170469571574 0.165887228936 0.186374848243 -0.10055226625 0.0486066644996 0.215219096978 -0.141444119219
or 0.0423225173059 -0.08531747471 0.13670924126 -0.0488212132756 -0.129955251505 0.0373859600547 0.116753270818 0.120034409568 0.144037065117 0.0524418442993 0.182303275731 -0.132081569681 0.241002882383 -0.130796268213 -0.108059892345 -0.223242576464 0.184997714679 0.12338463031 0.132278516942 0.00353804724475 -0.0433291793284 0.116787430197 0.0143641815003 -0.263776844727 -0.29261631953 -0.296139493258 0.375138545939 -0.0715233402315 -0.0829423107025 0.11368191663 0.110464371357 -0.143125903828 -0.125611776859 -0.200712400886 -0.142381508739 -0.00859853382541 0.0491618806723 0.099117912337 -0.135351954318 0.0892341720001 0.168698734901 0.026634856873 0.209421366801 0.14309106213 0.0184799017424 -0.131515336875 0.279255847303 -0.0648467894472 -0.167987090448 0.194517978613 -0.0941304750709 0.0563953468352 0.21077961356 0.0458300407891 -0.119750595695 0.0395886686945 0.096191382257 0.218899123716 0.148005018738 -0.0804173856747 0.0700472933504 0.233572246473 0.170245190468 -0.0806254885498 0.0561687195812 -0.130556165534 0.0564388776818 0.041596464698 -0.0457758220458 0.101922517577 0.137749695973 0.115711667766 0.118255318631 0.0730476546065 -0.0298412811946 0.0207024912256 -0.105735934596 -0.0689390105895 -0.0134433240906 0.194397702369 -0.224714466044 0.186781950686 0.149312245709 -0.233132740238 -0.153046111009 0.0577707779574 -0.129702840508 -0.145014646464 0.211350497627 0.16775191111 -0.125318060309 -0.0475816269846 -0.135962952715 0.122416003106 0.00780647086544 -0.10794407654 0.0615939379973 0.143936206891 0.230858591558 0.119715100802 0.0655349007909 -0.176403007025 0.0551165093975 -0.0832417513557 -0.0788989113799 0.137207080274 -0.216803708662 0.226994997705 -0.0168926928963 0.162001254985 0.0134668159164 -0.16591267238 -0.141961736 0.130233214523 -0.0216241373805 -0.0241643564053 -0.1211722485 0.209165252782 0.286541073452 -0.158924626863 0.140828678868 -0.158267722015 0.0777459711783 0.233067902528 0.0466768761141 -0.120823602204 -0.239436103472 -0.168354511057 0.122237561408 0.291980126234 0.0792866015885 0.129649405624 0.0379483695179 -0.174448393372 -0.105105406635 -0.0984133140955 0.143012494324 0.162246362532 0.136250898536 -0.0733364258318 -0.106380549153 0.0341632576616 0.117725344089 0.173241002436 0.0905570869632 -0.0489877903323 0.228381206946 -0.116592724923 0.256645176985 -0.126635212227 -0.14376213619 -0.171104919481 -0.162119612199 -0.228313962934 0.011447634391 -0.151888382795 0.149673990925 -0.190987079068 0.0107377803202 0.0535324890164 0.270236979309 -0.135530225943 0.120186222599 0.184720224262 0.151890788637 0.0524042354657 0.233971372862 -0.0750317929739 -0.0435162669519 -0.12215740239 -0.0558762801832 -0.0453177159903 -0.0180092516277 0.111506467357 -0.0590363788293 -0.11008924589 0.0322811001896 0.190997448481 -0.0398694268796 -0.31720626881 0.138153029685 0.209672212147 -0.0447230922672 -0.115032018481 0.167443075632 -0.174472034723 0.196382698459 0.0263082953953 -0.137104368705 0.097524147027 0.282036100141 0.158728478889 0.257612672641 0.0916622289686 0.038275213261 0.10580081269 0.0287411166526 0.197905814711 -0.21881994923 -0.0879427971798 0.0835291093036 -0.217043453109 -0.0968228986523 -0.23649316588 0.201863372544 0.151965424939 -0.299675152792 0.0167055990248 0.194215602221 -0.17887166154 -0.153055323201 -0.210155644481 -0.301052052975 0.0269049772612 -0.0457949670103 -0.0907138852139 -0.0144999580449 -0.068880934355 0.124486198721 0.000789740333378 0.0899931686795 0.128963039095 0.0688080664423 -0.288131134259 0.17052992899 -0.184364024565 -0.0281361299617 0.0836184702131 0.249574831208 -0.0137241513609 0.271338542816 0.352610606664 -0.164195061985 0.0597343329356 -0.224615932386 0.0824950088423 0.0892589976827 -0.100650473005 0.122149952084 -0.128505864479 -0.0511904718418 -0.0875280919709 -0.0650092693979 0.118645466205 0.298640177841 0.0880361841838 -0.164413977957 0.187651465094 -0.0474529571366 0.00337334660725 0.253807088384 0.242104482167 -0.153843150239 0.0289666809673 0.156496215731 -0.119993936948 -0.0782928218867 -0.178986204434 -0.154888293201 0.235684782868 -0.0618476968524 -0.19239731561 -0.121948304909 0.0495594342794 0.072109191857 -0.0376729718515 0.0874207352139 -0.145541035575 -0.123147650956 0.00810471512463 0.0531462130334 0.279128377797 -0.119926655878 -0.0912766583398 -0.272634647252 -0.145440641772 0.115097435227 0.0119013222084 -0.120932659097 0.176703969141 -0.0887014071937 0.0564833602841 -0.146889850336 0.242619830728 0.164721664943 0.229843184651 -0.214660113339 -0.00871878692199 -0.268100376992 -0.138618470212 0.196407404522 -0.116789814174 0.136542494887 0.180879763241 0.169946021736 0.193017912699 -0.103278231027 0.0497559116259 0.228247103618 -0.149534132719
The 0.0226726285344 -0.0647792608184 0.118565068226 -0.0281916238161 -0.116584282205 0.0544688182457 0.0903745273542 0.107421033362 0.130203207438 0.0349896424078 0.200838108241 -0.131490273506 0.227357209842 -0.11855517755 -0.0923912500786 -0.199420839487 0.189451553394 0.138236952777 0.15314321114 -0.00121247958588 -0.0504334703776 0.0988619001514 -0.00314179779171 -0.237499437489 -0.279561276664 -0.274646933117 0.337668652701 -0.0668499764669 -0.0664190560739 0.0911128089707 0.0977098260223 -0.122522429409 -0.0867541700933 -0.189824515178 -0.133773153204 0.015416029636 0.0384985222996 0.0955910939938 -0.124005056061 0.054969658532 0.153374698365 0.0148832321006 0.202065955473 0.115495695718 0.0235713642776 -0.124739316243 0.263509005925 -0.0490217170773 -0.159075751793 0.163918677241 -0.0889564925282 0.0612836136786 0.216372139261 0.0295950101833 -0.0993693206176 0.0301466928382 0.0828560874816 0.189591343026 0.122706401542 -0.0784875462453 0.0775349154952 0.20992702667 0.156712501787 -0.0752324441248 0.0559926647852 -0.12599673777 0.0401805121015 0.0425330448126 -0.0344709688449 0.107831443921 0.123431736278 0.0855124791395 0.0979968012168 0.0680628415671 -0.0367442733907 -0.00378030338438 -0.0862415101114 -0.0713239219305 -0.0157918740346 0.164418728195 -0.201317257048 0.176110259929 0.128406412655 -0.199041731811 -0.141060597995 0.0484350680416 -0.104779814555 -0.118324888002 0.213879988668 0.156345931458 -0.111057410308 -0.0264180947553 -0.12046404952 0.114656415719 -0.0169066366801 -0.0921833914471 0.0291163558722 0.128801480973 0.225719749262 0.109837771602 0.0589417589826 -0.156307178187 0.0401864687655 -0.0781737423801 -0.0788229858405 0.138654534404 -0.189112439174 0.195270438759 -0.0292358598291 0.133698696075 0.0191406963943 -0.173547283963 -0.109524926789 0.122631528231 -0.0286228002131 -0.0413635664891 -0.0948513337779 0.197239716859 0.234610381829 -0.170360213781 0.118719545707 -0.136167334724 0.0635663042575 0.20275610036 0.0490016713343 -0.0989289408845 -0.210768382707 -0.182850426692 0.110238072771 0.275951101383 0.0756952692402 0.137705731644 0.0538155723367 -0.17217393709 -0.0729248379257 -0.10871978257 0.148591789604 0.146481500624 0.132901948414 -0.0746717968335 -0.0904449032382 0.0503422603461 0.124854612021 0.13537979944 0.097155659737 -0.0379780168466 0.211634932703 -0.126167501868 0.258574824468 -0.0927833721384 -0.117272565529 -0.133027250635 -0.152182557476 -0.208801695415 0.0130035541725 -0.124033257825 0.138700333007 -0.169684063374 0.0331100478517 0.0509673138643 0.240850914037 -0.127706770123 0.0970997681899 0.175155472402 0.134372565417 0.0378142800822 0.217796264867 -0.0578017155316 -0.0683003750214 -0.120825890449 -0.0379609717207 -0.0315795102055 -0.0372961979446 0.0763849212972 -0.0410908349931 -0.0882454352169 0.0375840383723 0.151157585568 -0.040068491889 -0.276907403765 0.128574589143 0.181584549661 -0.0363104073487 -0.09670679057 0.124540329353 -0.130395220877 0.162300988138 0.0153147624998 -0.135632426911 0.0669747333433 0.277879210324 0.1299195152 0.234424210133 0.0914545424483 0.0342950295701 0.110038827372 0.0376795159374 0.195912485149 -0.176068949864 -0.0890730792372 0.0476753098555 -0.193029003912 -0.0943960845068 -0.210141378991 0.180842556608 0.14714696063 -0.280662407126 0.0074677970724 0.187710329126 -0.159601650006 -0.121976230773 -0.198027878037 -0.282341619814 0.0376275474069 -0.051520254269 -0.0694773510943 -0.0302288015156 -0.0800889556123 0.114393057559 0.00472569926722 0.105470716375 0.122599306276 0.0534401167544 -0.251780466019 0.143742232012 -0.157996709231 -0.0332637652566 0.0812799721293 0.226888077209 0.0010137205933 0.237096575107 0.339387221991 -0.159519772964 0.0717454947847 -0.192757698966 0.0653191194458 0.0633443620791 -0.0757313343069 0.126499834892 -0.0996862456409 -0.0331549824057 -0.0800611411471 -0.0651882476029 0.108242109065 0.269143775165 0.0793860817793 -0.159172166252 0.169565078455 -0.0419418115705 -0.00361772113262 0.232168450665 0.220544694449 -0.13336665042 0.03294873723 0.146474181768 -0.0860217562967 -0.0733139691811 -0.167112713397 -0.160902724468 0.205353928839 -0.0554087478504 -0.173278508854 -0.113346161211 0.0367539904417 0.0739184705192 -0.0469090239728 0.0884598179253 -0.12996204722 -0.101920244677 -0.00147814242476 0.0527107748677 0.278980660463 -0.106900021378 -0.092104530043 -0.24437291383 -0.13034036564 0.112420380149 0.0011592260358 -0.102056817369 0.174981188128 -0.0628182441026 0.0491898622839 -0.148081614365 0.237470692998 0.157601137271 0.191577869145 -0.195331122276 -0.00106862956768 -0.253615196121 -0.147353505082 0.174232651372 -0.0890710546379 0.121478420671 0.157838543263 0.161369021535 0.181050730183 -0.110757715386 0.0562117757339 0.197449639491 -0.132851902983
is 0.0431510347684 -0.0827051876958 0.134499522193 -0.0446031447491 -0.126531258821 0.0373722573241 0.114071609751 0.117461562367 0.14019201462 0.0514901070525 0.18393329168 -0.131575910657 0.235795947528 -0.127806586222 -0.106623120625 -0.218510182803 0.181998505012 0.122381638537 0.132797049817 0.00211012789665 -0.0463091342723 0.112916928798 0.012032588047 -0.25622744263 -0.28490892145 -0.289042693467 0.362927499752 -0.0708200607403 -0.0779511311841 0.108900294617 0.107762318435 -0.14122222311 -0.121349216546 -0.195649279786 -0.140953156101 -0.00646733004892 0.0489600689849 0.0967325851739 -0.13318382169 0.0847125729876 0.166556747499 0.0247375220589 0.207249888789 0.137932997664 0.01986868824 -0.131762757098 0.272806947996 -0.0624826139051 -0.161411168088 0.190090006095 -0.0922702473469 0.0564988469534 0.209893953156 0.0440597371931 -0.114951219289 0.038086628937 0.0968005554081 0.210700466009 0.143156921249 -0.0790912500084 0.0701284181728 0.227352937608 0.1688454513 -0.0789488283875 0.0545341181155 -0.12665419867 0.0548667725598 0.0415871211846 -0.0446725091101 0.102111162683 0.13244206105 0.1092202371 0.114485729998 0.0699172960037 -0.0297274127706 0.0185171687295 -0.099901903248 -0.0710462078016 -0.011325506589 0.189146908668 -0.218200383072 0.183093254655 0.146244930429 -0.224729519001 -0.149062310648 0.0563970593363 -0.12342848004 -0.140330562347 0.207196127173 0.163055244786 -0.121804114971 -0.0429382587855 -0.134570457735 0.118783006332 0.00491663073173 -0.105839740425 0.0552183902104 0.141095383397 0.227209325316 0.11702302583 0.0662863879611 -0.172156910367 0.0514726987392 -0.0805612399099 -0.0810382298558 0.134400280999 -0.211473124408 0.220758637964 -0.0151884777501 0.157356595483 0.0129170836487 -0.163816540482 -0.134680328576 0.126263829102 -0.0240203928716 -0.023333910992 -0.117919739495 0.202883039052 0.275632640029 -0.158120118617 0.136927023772 -0.154062788905 0.0750113781118 0.224563441005 0.0471040728 -0.11706286571 -0.231887778832 -0.166656796053 0.118719215389 0.284827772376 0.0767980329745 0.129937782217 0.0365161055645 -0.171419868199 -0.100361845593 -0.100529063698 0.141608801825 0.159212287432 0.133041210043 -0.0726726736045 -0.10438932674 0.0355863909343 0.116420771965 0.169147165313 0.090862523903 -0.0496697568579 0.223411048713 -0.115293071357 0.255048637717 -0.12128029023 -0.140058849566 -0.166646501841 -0.157570519022 -0.222739172033 0.0108694758215 -0.149572039315 0.148731598491 -0.184161337445 0.0106047580814 0.0517259131651 0.261718464489 -0.13591016011 0.115356040701 0.180859291363 0.148235200774 0.0483962604446 0.227388550213 -0.0735878391928 -0.0473927195041 -0.12039685461 -0.0518434768019 -0.0446065811518 -0.0202136998506 0.105025339576 -0.0543156086935 -0.103476485525 0.0291809451238 0.183434955698 -0.0397902395476 -0.309148837763 0.137066857938 0.203800128823 -0.0442387737005 -0.110860136883 0.159900055356 -0.168996284735 0.189524376796 0.0249127400646 -0.137587792537 0.0932259446733 0.278576090856 0.15560056738 0.2505305878 0.0893042150892 0.0366432370595 0.106415607633 0.028723755497 0.194069131471 -0.210019373522 -0.0875752681306 0.0789005172771 -0.211489406076 -0.0942757051097 -0.232036381046 0.198083413588 0.150899533591 -0.291225569495 0.0151226493925 0.191400755123 -0.174037743685 -0.145683294032 -0.205693130541 -0.293928589845 0.0270400501568 -0.0455489667313 -0.0870906841256 -0.0167262482944 -0.0701193881538 0.120081156808 0.00265905286043 0.0886058132333 0.12871792994 0.0648019157858 -0.281023161463 0.164745301311 -0.178984100763 -0.0314117064928 0.0821040122378 0.246462740398 -0.0115066150626 0.263874004936 0.345069330348 -0.162216494502 0.0618987509167 -0.218894193945 0.0784330078919 0.0849086768633 -0.098103260748 0.12058917491 -0.122786754139 -0.0467351476796 -0.085493474868 -0.0630462603567 0.117568067116 0.28933507175 0.0836248055205 -0.16281317646 0.183075132838 -0.0450348145891 0.00240698200813 0.247541036548 0.236276843991 -0.149764630146 0.0296183166923 0.15315283497 -0.116720191539 -0.0768125386217 -0.175729122342 -0.150374992849 0.226320241925 -0.0623512449163 -0.185534260362 -0.11942367462 0.0486265473671 0.07025267555 -0.0375882794507 0.0849809109405 -0.142147874919 -0.116177192248 0.00742585760799 0.0536262097009 0.275849002488 -0.114303108178 -0.0924112956409 -0.263314920826 -0.142171094909 0.111077716517 0.0109510192409 -0.11841332537 0.173216973228 -0.0841248007845 0.0550544109934 -0.144003176887 0.238348154653 0.163042206868 0.220581836972 -0.209012912502 -0.00718213789698 -0.262064199441 -0.136164854574 0.190565029565 -0.114773479969 0.13560773746 0.175150815547 0.168060396751 0.19004060821 -0.103401936634 0.0495286477897 0.222936525879 -0.143677005718
sports 0.0340976035371 -0.0747276257393 0.127882791121 -0.037873925398 -0.124077992634 0.0442616102376 0.103918894436 0.116142943422 0.138015996505 0.0439959931791 0.192121826366 -0.133770992524 0.234667010286 -0.12530484673 -0.101612803887 -0.214504722352 0.189156433375 0.132825424649 0.144592200911 -0.00172245252847 -0.0484361922327 0.111272757332 0.00612287424824 -0.254573134136 -0.287250672728 -0.287191608453 0.360033781775 -0.0715720309563 -0.075421395659 0.103263295788 0.106229658406 -0.133195251983 -0.108399744872 -0.196288169391 -0.140945367572 0.00241804909636 0.0452843558482 0.0970042702342 -0.133549092264 0.0749642665067 0.161279314488 0.020365096647 0.207069823443 0.130137754979 0.0208216934639 -0.13120873126 0.273629287574 -0.0564654867771 -0.163151873983 0.18294106882 -0.0942249243891 0.0583870570898 0.216037793624 0.0376980805293 -0.109409933392 0.0370067283371 0.0897683338199 0.205630367672 0.135452541705 -0.0811545393626 0.0732683265166 0.221707652437 0.165551737972 -0.077349296576 0.0561280014693 -0.127343829334 0.0502704815927 0.041950493105 -0.040696278932 0.105396554609 0.129083337608 0.102482301703 0.109012816044 0.0685896832936 -0.035084655549 0.00766718659611 -0.0961727218329 -0.0721786257 -0.0135742984443 0.181477712339 -0.215042661771 0.184665738317 0.140507259549 -0.217198676005 -0.148532265144 0.0550352836881 -0.118633585499 -0.132354957409 0.213813981378 0.163743623597 -0.116232781842 -0.0375438650702 -0.129191487434 0.120591829292 -0.00401623402543 -0.101795135801 0.044997906932 0.136221554328 0.23062995133 0.116165861509 0.0627433967332 -0.169610736178 0.0485207020801 -0.0821029808258 -0.0812342129894 0.139725910464 -0.205500998773 0.214350305337 -0.0219710379556 0.148308234307 0.0162055350874 -0.17220941541 -0.125487935465 0.127818898368 -0.0259318214602 -0.0338161022893 -0.109575963505 0.202446790932 0.262607915304 -0.16395372185 0.131506692205 -0.14925468663 0.0722137105212 0.219145014384 0.0499931093545 -0.110991583428 -0.226954667839 -0.174963364778 0.116703033017 0.286303785442 0.0766051360202 0.134841935493 0.0452403083147 -0.176143190722 -0.0892744299202 -0.10737161119 0.148153447412 0.155881047547 0.134885601785 -0.0746672011878 -0.0998615392929 0.0427535311861 0.123458121327 0.157439475535 0.0949442792304 -0.0454222512066 0.220358227805 -0.12338544606 0.261069894962 -0.112153917045 -0.132054191218 -0.151699864328 -0.159449393297 -0.220729826974 0.0117816566 -0.139956229323 0.148026026043 -0.181431374316 0.0188706761544 0.0529903234493 0.259045488792 -0.134401245744 0.11155272142 0.183226350802 0.145552790742 0.0433779903751 0.226737985793 -0.0668590544625 -0.0584008069967 -0.12228699945 -0.0478360228577 -0.0385806114253 -0.0279992714226 0.0942978312486 -0.0518297999835 -0.098756767527 0.0336210129103 0.171923900183 -0.0404852280797 -0.301717914235 0.135853963557 0.196578128024 -0.0405591720022 -0.107475204181 0.146826223611 -0.154273629877 0.182557473404 0.0223720347824 -0.137976437534 0.0817795273538 0.284068967355 0.145520530047 0.247367435415 0.0900346240623 0.0356739734664 0.110918697755 0.0327652838116 0.200121580047 -0.198268402865 -0.0898611253709 0.0670688238393 -0.205043817787 -0.0961232286776 -0.226696046658 0.194965795617 0.153657276192 -0.294500647705 0.0122662431234 0.190777656027 -0.172176009872 -0.137781417813 -0.205022995554 -0.295076660426 0.0338371951658 -0.0470842717913 -0.0813499270954 -0.0235907687489 -0.0755385681384 0.120643184692 0.00280910490496 0.0985164563889 0.127763365262 0.0614484633987 -0.273048305874 0.158327069724 -0.173844336362 -0.0320718408101 0.0839232197845 0.241487266947 -0.00699428669877 0.25492143562 0.349265988223 -0.161665995531 0.0684380584442 -0.209087408368 0.0745915403487 0.0775746187223 -0.0868872783959 0.126034825945 -0.114650632998 -0.0426208094939 -0.0847612446105 -0.0670816296276 0.114534472195 0.284580650063 0.0837222758382 -0.165343750569 0.180175680335 -0.0472756949636 -0.000822339273488 0.245477376629 0.232582547109 -0.14387031434 0.0308695420276 0.152442306197 -0.104722311351 -0.0760052216948 -0.173233641454 -0.158429033288 0.221407646432 -0.0599591064984 -0.185182974046 -0.11660170118 0.0433291508461 0.0748081899308 -0.0404438657611 0.0897736484515 -0.138517272777 -0.111371720432 0.00236501543245 0.0552477726452 0.283374652173 -0.112069009473 -0.0923656754918 -0.261537620598 -0.139742110997 0.115443160854 0.00678410085261 -0.112489062222 0.177586102731 -0.0757814017239 0.0519708523751 -0.14928629729 0.241545480817 0.161119070034 0.211221149211 -0.208746536322 -0.00498404421344 -0.262881624579 -0.143469983353 0.187230266578 -0.102777057294 0.129872187407 0.169525944077 0.168821434866 0.187402648052 -0.107178646297 0.0542216839033 0.216824380046 -0.144872765769
Olympic 0.0272127557017 -0.0681696871794 0.121096479114 -0.030831006335 -0.118309408194 0.049782912036 0.0954626549686 0.108516800066 0.130395554612 0.038469484974 0.194961543377 -0.12883788414 0.226227739108 -0.116826077074 -0.094305336142 -0.202427531088 0.185750101258 0.134650092546 0.147460198193 -0.00240347193369 -0.0495966318956 0.101613560517 0.00157587830059 -0.241256018646 -0.277142776978 -0.273204582774 0.340818869624 -0.0661004420362 -0.0682809858005 0.0941660755014 0.0990917923046 -0.126333077153 -0.0927948113479 -0.187875911905 -0.134991551397 0.00961975824203 0.0414805560967 0.0946875261137 -0.124670342621 0.0609930470566 0.151233500393 0.0182172508199 0.199424517748 0.119673542899 0.0243829375592 -0.126631159004 0.262843942856 -0.0513257174835 -0.156345691703 0.168211896591 -0.0881878449176 0.0589322414296 0.211647638099 0.0334196574509 -0.102096928456 0.0324577534413 0.0843519650278 0.191767853595 0.125791270416 -0.0789635533922 0.0744022539757 0.211174240746 0.158519740631 -0.0739789418608 0.0559186505288 -0.122338999751 0.0416241575301 0.0414018722417 -0.0372421955022 0.104452344527 0.122477498926 0.090000231763 0.0996896939388 0.0651046249091 -0.0356578521051 0.00228760838892 -0.0887476322375 -0.0701013835734 -0.0132053000068 0.168636424526 -0.202497118108 0.176216207266 0.129229328081 -0.199866429843 -0.140300051998 0.0486396470293 -0.108520365644 -0.122099379941 0.209015375133 0.155703365981 -0.109783390755 -0.027823618303 -0.12027161632 0.113674030497 -0.0132490389581 -0.0955508211642 0.0351231459297 0.127953891228 0.222088163715 0.110654554002 0.0595028088905 -0.156936991396 0.0416338098809 -0.0775131632861 -0.0769927563941 0.136690074147 -0.192220863953 0.199076923532 -0.0251535344986 0.136141448601 0.0183522185591 -0.167887409046 -0.113280453971 0.122638192076 -0.0276670951977 -0.0366268927156 -0.100480406579 0.196378578356 0.239417471059 -0.163167024254 0.122019794053 -0.137709313251 0.0662378072095 0.204422346467 0.0494709938894 -0.101334962336 -0.210801455649 -0.177080964124 0.10969017682 0.273094319783 0.0755084411742 0.132130389387 0.0476983588099 -0.170440012955 -0.0783604385046 -0.107247708164 0.145513106673 0.148283137912 0.131257385455 -0.0744299240805 -0.0939873679306 0.047422140756 0.122576940441 0.14022663628 0.0948959820261 -0.038450500819 0.208939090853 -0.121383153099 0.253782626635 -0.0987478864668 -0.12059439726 -0.135363371501 -0.153400996787 -0.206937916808 0.0140839026511 -0.126990609323 0.138522615904 -0.171599969086 0.026222386352 0.0488489074198 0.241757392587 -0.128490716161 0.099121483684 0.174311059751 0.13698173898 0.0413829569866 0.215263391316 -0.0610685315381 -0.0625219275795 -0.119887591638 -0.039913707648 -0.0345892638755 -0.0318345275803 0.0823651819467 -0.0456746810634 -0.0909174469978 0.0363098399677 0.155703926427 -0.0384152616469 -0.280535589172 0.129751605402 0.18390350433 -0.0356192790613 -0.097363550436 0.130199742699 -0.13709118635 0.167530104136 0.0171963713518 -0.133489833676 0.0711419816945 0.273000744802 0.135931838404 0.232519237055 0.0888635483674 0.0335684310671 0.1086811383 0.0342560813514 0.192622987982 -0.180131485523 -0.0867459927475 0.0544578373103 -0.194086981991 -0.0927969204394 -0.210807609276 0.182153697778 0.146111177394 -0.281095848756 0.00753351616864 0.185132514684 -0.1629209406 -0.124304432526 -0.19470580566 -0.281256044619 0.0370029428092 -0.0467258799979 -0.0747188170256 -0.0276146960883 -0.075123208212 0.116868838754 0.00179495414617 0.10119062796 0.119997004383 0.053806796636 -0.254439221799 0.14677214211 -0.159383917606 -0.0329827102781 0.0823472412661 0.227460809533 -0.001219667487 0.238983785865 0.336861867812 -0.157908165564 0.068599534359 -0.195997213981 0.0664543581857 0.0687449023754 -0.0792119455057 0.122553281822 -0.102087888545 -0.0359086590969 -0.0805949474606 -0.0648014260085 0.107426944675 0.268979530595 0.077918150003 -0.159970388374 0.170192367986 -0.0433952246326 -0.00334696239228 0.233764254397 0.218459279184 -0.136876462338 0.0322254127348 0.145689139888 -0.0915198408084 -0.075138887654 -0.165104063188 -0.156887477522 0.208175423654 -0.057415057972 -0.173073777506 -0.11360978485 0.0396480809794 0.0717977739271 -0.0440029954685 0.0866300884767 -0.131144471185 -0.10427632682 -0.000350118781787 0.0504355515201 0.274822548221 -0.10589145273 -0.0894249367014 -0.247624141423 -0.13159278592 0.112099382629 0.00457113950759 -0.102447590309 0.170796754658 -0.0647114732283 0.050411464378 -0.144416067256 0.235936086528 0.156125445559 0.193722584334 -0.196430911616 -0.00059235984861 -0.252659456356 -0.141523996877 0.176767684272 -0.0919825953495 0.124513206895 0.160664919491 0.162364778641 0.178141389357 -0.107714250677 0.0553479241141 0.201519872322 -0.133464201057
for 0.0249454518009 -0.0693488233474 0.121025102218 -0.0288082811681 -0.120108238137 0.0513860455672 0.0929230010566 0.110355608152 0.135512137426 0.0391288599973 0.203745774965 -0.133796127689 0.232469458774 -0.12086399388 -0.0962487440886 -0.205827147174 0.189082190401 0.139525523711 0.153881017649 -0.0011815000514 -0.0518964070481 0.102734690068 0.00040427842835 -0.244467483484 -0.286517039374 -0.280863590845 0.345446204411 -0.0685534847222 -0.0662540788087 0.0952366222908 0.101363169375 -0.127531825166 -0.0904792072161 -0.194892788845 -0.137839179908 0.0121776059997 0.0387033754041 0.0989961977346 -0.128143737646 0.0595080514664 0.157045283134 0.0180747797921 0.206986689898 0.1200499023 0.0252819895089 -0.127783496553 0.2694317848 -0.0501224485374 -0.162113058456 0.171503400435 -0.0935417559057 0.0638919861489 0.216477645444 0.0300961310077 -0.102790905466 0.033096823526 0.085995018589 0.193863698435 0.126730302643 -0.0806387164341 0.0772924625762 0.214275359106 0.161362417426 -0.0765343111138 0.0564141111804 -0.126214668822 0.0426776930298 0.0400739574694 -0.0382192735311 0.108266830252 0.126658890755 0.0899595202644 0.100076158769 0.066599655574 -0.0365343232198 -0.0021930278674 -0.087584249625 -0.0717547318173 -0.0139073223598 0.169217112499 -0.206581595385 0.177527716893 0.132243115748 -0.202516769863 -0.143041611982 0.0512618594094 -0.109284727089 -0.121511498668 0.21498187231 0.156979954742 -0.110751428206 -0.0272964975441 -0.122321152909 0.117483438892 -0.0160942163654 -0.0962024085394 0.034565585044 0.13252764116 0.229133775627 0.113775053974 0.0617025101268 -0.16036348499 0.0439119941074 -0.0801276681265 -0.0803205496641 0.142077216735 -0.193326112214 0.20128761438 -0.0277989315021 0.13696358887 0.0174378515133 -0.174736489368 -0.114510318324 0.126058979117 -0.0291367686339 -0.0385984040716 -0.100774578384 0.200823208295 0.240580709167 -0.168028648571 0.121276575582 -0.140846830173 0.0641511827971 0.208000535333 0.0486557617428 -0.103155822101 -0.214076703314 -0.183206671883 0.110506256223 0.277952692119 0.077822673767 0.138109569589 0.052510342271 -0.173284738639 -0.0785977293014 -0.110840024656 0.151271473811 0.150290179057 0.134868011483 -0.0750135623201 -0.0926685108745 0.050217872343 0.127181288932 0.141484702282 0.0979103767376 -0.041127029422 0.215352402312 -0.127288498978 0.262197460704 -0.0998554390928 -0.119451255942 -0.137533678222 -0.157245887883 -0.212401527698 0.0143325843933 -0.130162151684 0.142828459635 -0.173859052395 0.031166783265 0.0504555631838 0.249041472629 -0.131903976012 0.101451688552 0.180643650476 0.1393236372 0.0403391132147 0.222336021475 -0.060500655061 -0.0683287294209 -0.123237206072 -0.0387815706809 -0.0352987761159 -0.0336686406834 0.0826502227134 -0.0431859701086 -0.0898346697921 0.0376746290096 0.15601637682 -0.0404489083176 -0.285953241899 0.131108378636 0.185914301606 -0.038186018435 -0.0990626083 0.131386934144 -0.13739291374 0.167671289918 0.0168710929619 -0.137054313462 0.0702360165497 0.283859303618 0.134584148943 0.237291445238 0.0929249785924 0.0343013746672 0.111810525496 0.0352146705041 0.201093044491 -0.180571983667 -0.0914836386704 0.052564021948 -0.197928840885 -0.0965096751251 -0.214537607585 0.185353062146 0.150483396221 -0.288084835879 0.00851966237168 0.189636067111 -0.164907779809 -0.125090270441 -0.200675348089 -0.286809551764 0.0400174564418 -0.0516633294955 -0.0734318138266 -0.0307077541015 -0.0790272846422 0.118805148963 0.00349107407295 0.104540392715 0.122324509886 0.0529678799853 -0.259540308193 0.148793397319 -0.161322845431 -0.0320993181192 0.0824627038616 0.233305766128 0.00176326471659 0.243509490814 0.344636172713 -0.162627252731 0.072565079738 -0.198813490495 0.0688220265588 0.0658535696788 -0.0777821135304 0.127471012831 -0.101453683247 -0.0364474189759 -0.0806565735745 -0.0664060916735 0.109109668689 0.27405569912 0.0794642071901 -0.16144655384 0.173399457831 -0.0446319791019 -0.00261181652223 0.238014115364 0.223872189276 -0.135944521092 0.0334260095375 0.146996917465 -0.0897969141108 -0.076939668198 -0.17179804061 -0.162392445369 0.209890251242 -0.0552243624146 -0.177575358617 -0.112946690746 0.03961134336 0.0765796740827 -0.0464733396412 0.0891708208713 -0.13328328319 -0.104895303215 -0.00214993436591 0.0527952320596 0.283294435859 -0.107000573522 -0.0922417913894 -0.252299904102 -0.134107898089 0.114193548463 0.00439724467932 -0.10364805326 0.177170323668 -0.0643198141345 0.0482687012999 -0.148554168146 0.242345264033 0.160999370152 0.197193729709 -0.199503500124 2.27237886638e-05 -0.258366262627 -0.148739127233 0.177767803802 -0.0922157738137 0.125753721231 0.16177730439 0.165447045967 0.181705383257 -0.111484764091 0.055540782805 0.204870756136 -0.13903960581
Games 0.00668998955122 -0.0516613561508 0.10665842328 -0.0124467924573 -0.109153317155 0.0676922402429 0.0715994580456 0.102581113831 0.124957115222 0.0219726785579 0.222310286384 -0.13396976935 0.222547964134 -0.113050603346 -0.0848988493195 -0.189178157021 0.197141228166 0.15876385997 0.177813200218 -0.00807068038009 -0.0590708426266 0.0882019731519 -0.0189649570021 -0.22735708717 -0.282553737849 -0.265581770594 0.320709469979 -0.0651256352977 -0.0544539072663 0.0743658059528 0.0880884548075 -0.114331054195 -0.0547728071769 -0.189130995277 -0.132928620035 0.0361387828949 0.0318366143071 0.0952917402892 -0.120253414015 0.0300327112016 0.142451888437 0.00897500983399 0.201782819739 0.0976958824001 0.029587322688 -0.123902183467 0.261822718831 -0.0352348421434 -0.156389663498 0.143658374526 -0.0897776892703 0.0690492275347 0.224689465499 0.0162902946874 -0.0859213993181 0.0212393692493 0.0744835313798 0.174793918827 0.104257562795 -0.0792015988065 0.0836947341537 0.198427956177 0.151444314029 -0.0724943850118 0.0580803900145 -0.126333453333 0.0253403515794 0.041083856185 -0.028230457769 0.114394978304 0.114740541643 0.0672473484615 0.0822333470013 0.0661499693459 -0.0462829230468 -0.0218947606763 -0.0723022513944 -0.0743591583618 -0.0163675475197 0.145636580914 -0.190321720007 0.172213317616 0.116338431442 -0.177525407723 -0.134452175463 0.0435759346604 -0.088231997834 -0.0980882017191 0.219874700945 0.150318999413 -0.10045107693 -0.00839541188274 -0.108221569452 0.11431625767 -0.0379609299151 -0.0815831684962 0.00796065422033 0.119358275972 0.22860379735 0.107756400665 0.0535907475188 -0.148358056663 0.0313761949572 -0.0732891482412 -0.080456431367 0.148082897725 -0.173585648382 0.173879270989 -0.0374479957208 0.117200973119 0.0204694856993 -0.181819008979 -0.0879406444813 0.12244271737 -0.0345439957265 -0.056324814631 -0.0785360523759 0.193786180128 0.199960677488 -0.183296721926 0.101979671913 -0.121869772975 0.0505554219066 0.183278010274 0.0532895908058 -0.0836760597354 -0.193178497937 -0.199063149429 0.10007065291 0.267450335781 0.0753476276429 0.145142695347 0.0682604323042 -0.173952043901 -0.0511489454003 -0.119189791685 0.158798163693 0.143162726588 0.135067421401 -0.0767910859988 -0.081333511085 0.0670314127286 0.137608138713 0.111133200034 0.101931644695 -0.0277819599346 0.200252567248 -0.135376296035 0.266309631244 -0.0707420271841 -0.0978140770143 -0.103803631087 -0.151998006676 -0.196396553085 0.0138708193011 -0.106944473131 0.134344511132 -0.158800887539 0.0494842709086 0.0498855844443 0.225680790686 -0.126047135586 0.0806345026673 0.173647227031 0.127592480616 0.0310074845903 0.209766054891 -0.0459411101312 -0.0909750703578 -0.122389498324 -0.0267367130062 -0.021374302136 -0.051589625511 0.0527350521052 -0.0308925043446 -0.0736229378375 0.0442379061702 0.12490440818 -0.04255968122 -0.255747390564 0.126284286415 0.165616380131 -0.0278381047976 -0.0807779060417 0.0964296302848 -0.0977231035244 0.142458888384 0.00426639276991 -0.137546901375 0.040688652337 0.287128087018 0.112736620243 0.221191333474 0.0944265102607 0.0290858233214 0.115215295679 0.0453549899258 0.203000030498 -0.146210221491 -0.0942017241138 0.0210577612312 -0.178068287921 -0.0946509034419 -0.194365201401 0.169334292712 0.149063482181 -0.279656530719 -0.00341540327809 0.187186955595 -0.151415893953 -0.0988165176748 -0.194449138405 -0.277894019893 0.0494652129873 -0.0569546740477 -0.0568272748499 -0.0445712123551 -0.087077449519 0.114224065938 0.00639882702677 0.124576179995 0.11897828156 0.0403133866221 -0.229640812242 0.127258904976 -0.141693872212 -0.0367229354172 0.0832699037836 0.212363426651 0.0144165176139 0.216294210996 0.340363183648 -0.15980762373 0.0855187055053 -0.171073064013 0.054699324135 0.0474871880535 -0.0553383788616 0.13664119742 -0.0760711254582 -0.0229383871889 -0.0769332815061 -0.0680321959642 0.100427098553 0.252327206737 0.0751627014755 -0.160219819641 0.160747409608 -0.0399646151765 -0.00759594868837 0.222468113546 0.208593443401 -0.12268255541 0.037913503204 0.142026064014 -0.0590713118154 -0.0746289686161 -0.163213696099 -0.171745431246 0.188378439981 -0.0505302324549 -0.164560497439 -0.110779370249 0.0288751261943 0.0804009918293 -0.0518462825844 0.0927846121098 -0.125052314241 -0.089179441841 -0.00784042283 0.0502942078711 0.291878685524 -0.0981400043587 -0.0909787109655 -0.232823038942 -0.121235504597 0.116224400817 -0.0069771778114 -0.0899626999755 0.178735076413 -0.0421064995661 0.0431140214535 -0.154682678747 0.24265820501 0.152524749859 0.16822488963 -0.18808331643 0.00654138997713 -0.249592188281 -0.159802462162 0.164127246116 -0.0665700105473 0.112045918067 0.146279630954 0.161671502886 0.175550939052 -0.120507902847 0.0650064098859 0.180874630718 -0.126867143648
by 0.0302330089302 -0.0727595091456 0.126478662044 -0.0347083706537 -0.123785281789 0.0471857922123 0.104061371145 0.112142274845 0.137633063548 0.0432218353004 0.194857125002 -0.130789248502 0.234543706927 -0.121487384497 -0.100217667803 -0.20975466021 0.188173892512 0.131455996456 0.14474313449 -0.00174334694201 -0.049157384653 0.107976679917 0.00602379447869 -0.249666092393 -0.283824442936 -0.283339919223 0.354780240085 -0.0699028488387 -0.0717288475038 0.102065278311 0.102235857749 -0.131131266724 -0.103913846581 -0.196536686498 -0.13938113948 0.00439396125894 0.0422160461901 0.0979114466387 -0.131289447743 0.0718091732925 0.16060177901 0.0179713905148 0.206109735693 0.128148786692 0.0206985643872 -0.128651347663 0.270839682404 -0.0565629702297 -0.160819526129 0.17818093958 -0.0909330635088 0.0605000008273 0.213632060032 0.0357281104688 -0.108664045766 0.0338188845853 0.0905844848954 0.201655872619 0.134467556049 -0.079104272516 0.0730498281339 0.21779602004 0.162569936747 -0.0765596080735 0.055184367982 -0.125563796906 0.0481051037966 0.0402561728417 -0.0383412254699 0.104934547712 0.128753075083 0.0976653214909 0.106782256674 0.0695706084639 -0.0330751677218 0.00597586018491 -0.0952708282314 -0.0708719359609 -0.012299509002 0.176259884569 -0.211142207938 0.180027665066 0.136602531652 -0.210834195311 -0.1455573933 0.0530762165808 -0.114873365698 -0.129888580673 0.212235406558 0.162346725738 -0.114893866738 -0.0333393719507 -0.127784693047 0.11950449385 -0.00813652177603 -0.10083830006 0.042807789148 0.133860841243 0.229098053686 0.115895277642 0.0618374992789 -0.163992673105 0.0451457228588 -0.0786023880057 -0.0789866128742 0.139867665364 -0.201339770724 0.208302392347 -0.0235508105446 0.144190413396 0.0172140485466 -0.169733002685 -0.12370524126 0.126791477755 -0.0270211050257 -0.0315082122294 -0.107344174797 0.201942377916 0.255198471796 -0.165245132278 0.128909140536 -0.14706099891 0.0711627161089 0.212960196107 0.0488014912721 -0.106850542987 -0.22241244833 -0.1761205399 0.113489167922 0.28222854044 0.0772007715105 0.133505312087 0.0447854122793 -0.172246281653 -0.0863497782754 -0.104855862645 0.146418088314 0.155262366146 0.135675716297 -0.0749002801625 -0.0962767042117 0.0427969790922 0.122712807917 0.151353268024 0.0948126609612 -0.045005541034 0.219132723739 -0.120241870533 0.257225727027 -0.108888924386 -0.127597400397 -0.147502055223 -0.155639371894 -0.217039642185 0.0126669752748 -0.136575406953 0.143859288137 -0.17888765153 0.0216533870524 0.0511995751949 0.252592293337 -0.132966149064 0.106956923711 0.178756622892 0.14123738251 0.0434732215807 0.223224698748 -0.0666874643971 -0.0567433837936 -0.121697050557 -0.046331025779 -0.0370852139177 -0.0299369104163 0.0912552502686 -0.0474456738351 -0.0956813580953 0.0351679316587 0.168949926349 -0.0388370800707 -0.295251358722 0.1328808188 0.194137911575 -0.0402341781792 -0.101820624708 0.141455507774 -0.150534841078 0.177849612367 0.0197317316269 -0.137767899038 0.0785091313236 0.280146582653 0.141403680989 0.243894714691 0.0898239474998 0.036741195606 0.10875455895 0.0331654188465 0.198755423626 -0.192540078858 -0.0890850115344 0.0640058338352 -0.203518596275 -0.0964746501605 -0.22143189621 0.190162585403 0.149536210067 -0.28836377764 0.00966549776855 0.190317271277 -0.169054187597 -0.135753151086 -0.201778043682 -0.290086030147 0.0345377978809 -0.0490053838005 -0.0786760346348 -0.0217441577824 -0.0769379998718 0.1209599541 0.00425112043812 0.0980896536247 0.123967526326 0.0577683138629 -0.266427678686 0.155463174367 -0.167461781189 -0.0312388108624 0.0830678756315 0.235085834617 -0.00421552237056 0.251449946045 0.344110387643 -0.160529563822 0.0683844302842 -0.205857061507 0.0722269124098 0.0751279420918 -0.0862227604924 0.124159106294 -0.112051577469 -0.0391264300824 -0.083225344083 -0.0669483349713 0.114323779422 0.279397789405 0.0821158665113 -0.161024343534 0.177126088704 -0.0460636415014 -0.00155494551696 0.241021150401 0.228546314285 -0.142841642814 0.0328584672437 0.149276410472 -0.101549312705 -0.0747652671472 -0.172224941174 -0.155581176761 0.217120079512 -0.0595900193548 -0.182535282409 -0.115300623554 0.0422552832759 0.0724635846787 -0.0399067559258 0.0874335431242 -0.137958474177 -0.109170287148 0.0020129918622 0.0527275085367 0.279883676692 -0.11040985252 -0.0912188933159 -0.256831783701 -0.137529495492 0.11313966478 0.00730375436369 -0.109375043127 0.174154763847 -0.0752195064353 0.0497839039323 -0.146259018769 0.238120985653 0.160907107794 0.207323658267 -0.203220564201 -0.00507453175073 -0.259376180994 -0.143989620638 0.183680802411 -0.0986919440086 0.130119022742 0.167464709372 0.166196796154 0.185607725522 -0.108328505187 0.0539920481994 0.211780235977 -0.141166900155
with 0.026387636206 -0.0666947960573 0.120728771979 -0.0293597895264 -0.116001333105 0.0490515438013 0.0925518349344 0.108154152246 0.131011609136 0.0398748706951 0.196454646898 -0.129463362241 0.22541366682 -0.116731606933 -0.0959858993959 -0.199858072509 0.18420911932 0.133498924426 0.145685120936 -0.000179419063717 -0.0477645117963 0.0997443877427 0.000775258736858 -0.238553757034 -0.275869731051 -0.271792819285 0.33887848341 -0.0675489844999 -0.0686223056578 0.0918647005285 0.098650334915 -0.124855021377 -0.0915047797508 -0.190034172358 -0.134754765656 0.0112714713354 0.0410768560423 0.0932242090313 -0.123793067537 0.062295636707 0.150916670433 0.0160513931591 0.200835191208 0.118791828719 0.0237838354216 -0.12530692932 0.262434401392 -0.0488124379188 -0.157222398461 0.16840761071 -0.0892192559563 0.060607846824 0.213074060419 0.0331983397322 -0.100378451074 0.0307752708111 0.083510014358 0.19226958653 0.124116155291 -0.0775698579524 0.0734356461065 0.211271637093 0.158121586148 -0.0720980795263 0.0527207234395 -0.12375945488 0.0407906923523 0.038534336669 -0.0377904999921 0.105260407151 0.12374199112 0.0903600799073 0.0977270628567 0.064981992373 -0.0347491290552 0.00216102108143 -0.0884890560348 -0.0705854680774 -0.0124306310954 0.168717631103 -0.203204417169 0.174217976665 0.128538580786 -0.201107027916 -0.140077466972 0.0481965970695 -0.105917511752 -0.121573001124 0.206837507065 0.156329516088 -0.109979968162 -0.030271190101 -0.121000759827 0.114579520199 -0.0137350577432 -0.0952077954088 0.0360517758594 0.129357978702 0.222431196091 0.109425573653 0.0580294592341 -0.156721756758 0.0429739401635 -0.0778709093015 -0.0779508502425 0.135937334659 -0.190005216016 0.197055082373 -0.0241118559338 0.13778223813 0.016087685547 -0.1690930933 -0.113861731432 0.122847420949 -0.0279170959237 -0.0352926829537 -0.0988476269978 0.195819917598 0.237704826055 -0.163769168609 0.119262507548 -0.137876865092 0.0643583337428 0.201951532824 0.0491736329181 -0.100246647059 -0.212676978325 -0.177624855251 0.109739949914 0.271104103681 0.0761831909686 0.132788608388 0.049584498256 -0.168837983798 -0.0771730407708 -0.107096764728 0.146574554859 0.147327870905 0.13150332963 -0.0723648639194 -0.0914857145153 0.045356830165 0.121009298911 0.142005031179 0.0938800165639 -0.0392498829504 0.211170474761 -0.122933204312 0.252706836695 -0.0986360843664 -0.119041757033 -0.134696325203 -0.150027448305 -0.206233973035 0.0130671921846 -0.126392123581 0.139868757658 -0.168511087008 0.0262106102771 0.0503256534116 0.242441831654 -0.126851438925 0.0989994426262 0.173748477017 0.135966732144 0.0389981341331 0.215641084878 -0.0614576186986 -0.0647765467212 -0.120506034952 -0.0402783404301 -0.0340171836023 -0.031670763772 0.0811226681528 -0.0441703808772 -0.0906249384171 0.0374098042822 0.154062963441 -0.0390654555433 -0.28078711888 0.128106032901 0.181215718797 -0.0353612954917 -0.0979613325754 0.132015673236 -0.135090843429 0.165994003593 0.017464440552 -0.133407608975 0.0691536761264 0.27296988756 0.134068105749 0.233430093224 0.0903188933011 0.032212257183 0.106298810297 0.033064938359 0.194864875558 -0.181149511498 -0.0875256061598 0.0531148637131 -0.193108464646 -0.0942467957776 -0.211477197008 0.181756758841 0.148404507635 -0.280295693721 0.00924205852748 0.186451522819 -0.162188599046 -0.124161646157 -0.194432081737 -0.280148722714 0.0369389714997 -0.047780509437 -0.0713318615988 -0.0263336430723 -0.0752808853443 0.113933225651 0.00237869549252 0.101847835295 0.11912485488 0.055126222469 -0.251873043913 0.147477299729 -0.158757987179 -0.0316862856193 0.0805867768306 0.227646646418 -0.000870216619066 0.238330537038 0.335727878735 -0.157822228571 0.0696284552191 -0.194663451009 0.0689926780421 0.0660030370083 -0.0765604760897 0.124169961376 -0.100232746991 -0.0370884353106 -0.0810499188147 -0.06329474654 0.106445232102 0.269090352764 0.078778308326 -0.158915661504 0.168921002781 -0.0429019304912 -0.00134193971747 0.233401868112 0.219769800477 -0.13644772917 0.0308276815618 0.145482375401 -0.0899331268768 -0.0745954560156 -0.168141051712 -0.157618974463 0.208156684513 -0.0543793246677 -0.175405677156 -0.111051927482 0.0369127284925 0.0714630593223 -0.0428601734841 0.0866122752692 -0.132325062749 -0.104777405561 -0.000367066406635 0.0517650507303 0.275318440628 -0.105687989105 -0.0895451540633 -0.246793990749 -0.129856876425 0.110493154236 0.00298854771266 -0.10312947275 0.172232304613 -0.066837934834 0.0469084132919 -0.143742690919 0.234073560646 0.15683747661 0.194628696229 -0.196415762147 -0.00184931006542 -0.25126805281 -0.142962440202 0.176953180076 -0.090558639827 0.121310233511 0.15907619679 0.161135248523 0.177727345408 -0.106582377364 0.0537912591745 0.201072815739 -0.133794702024
an 0.0269135221216 -0.0680639543063 0.123773725487 -0.0307011634866 -0.119547553467 0.0526955761696 0.0947051499008 0.111958562697 0.136107790024 0.0395022727621 0.199600263716 -0.133405293801 0.231144754936 -0.121346359669 -0.0962738883077 -0.208394395001 0.191245457273 0.138570653558 0.151613919042 -0.00115307864466 -0.0513324706552 0.104336454749 -0.00122080843565 -0.246127747258 -0.286142333702 -0.282871290563 0.349483984523 -0.0677414009659 -0.0692011136299 0.094917557036 0.100034151919 -0.1278367614 -0.0931897425557 -0.195354880006 -0.137543953181 0.0101573271512 0.0396815539792 0.0974294844022 -0.129587078332 0.061810972854 0.155523200733 0.0176264344585 0.206789082437 0.121508205562 0.0239359952845 -0.129487254419 0.267952875711 -0.0507534862952 -0.162902770021 0.170549372159 -0.0915366254838 0.0633439201767 0.21931342754 0.0330368997591 -0.101798353579 0.0328883043494 0.0871609313956 0.196247404993 0.126870986313 -0.0780936932805 0.0748480919748 0.216131634894 0.163011271749 -0.0760907422962 0.0555052218835 -0.127710520381 0.0416531000963 0.0400540772411 -0.0370130361333 0.107805876759 0.12634620805 0.0904797619376 0.100244396283 0.0679929368281 -0.0348403526929 0.000148635360563 -0.0879601550975 -0.0732075413294 -0.0138484019884 0.17255000316 -0.206046118796 0.179513854846 0.133969278835 -0.205808797979 -0.143297056709 0.0519798797614 -0.11021284807 -0.122003831151 0.213598669871 0.16049264267 -0.112362503039 -0.0307255563573 -0.121158621573 0.116732666234 -0.0138339778771 -0.0959480861863 0.0359444317696 0.132020954639 0.230518420115 0.112262992092 0.0593195485975 -0.163503770633 0.0443082962022 -0.0783629485894 -0.0796197982102 0.142553247891 -0.197620957453 0.202470580901 -0.0277285064638 0.137994994102 0.0169962034827 -0.172202491155 -0.1164064475 0.125823612267 -0.0272111257223 -0.0397144116643 -0.100397477139 0.199071982311 0.244417571689 -0.167821903018 0.122500499587 -0.140680482148 0.0651628228841 0.20995548875 0.0512932559551 -0.102614449242 -0.216410043321 -0.180934949073 0.11098915439 0.279247379769 0.0778444453581 0.13825764224 0.0491841086993 -0.173119025863 -0.0798961620756 -0.108601097595 0.151717278518 0.152492651786 0.136409449536 -0.0751380432623 -0.0960063796954 0.0479572381704 0.126226298148 0.14349292743 0.097394761617 -0.0392550142436 0.217158378058 -0.126114513668 0.261325613596 -0.101573181092 -0.123101068628 -0.138649177175 -0.155308638594 -0.211864874241 0.0129318818236 -0.131134283608 0.14331624654 -0.174568974058 0.0294313544691 0.0521059925021 0.249674547151 -0.132433556784 0.102688464217 0.178133919278 0.13866559879 0.0420556517185 0.221917710256 -0.0621505323728 -0.0642688985855 -0.123786382899 -0.0402548786281 -0.0361070889035 -0.0356686301527 0.084081163074 -0.0433887822026 -0.0920540194315 0.0361864165057 0.160127648945 -0.0401576853047 -0.287248327383 0.131363541761 0.188174453616 -0.0382533101639 -0.100137471998 0.132082981526 -0.137475172984 0.170255519956 0.0188286962204 -0.137846520047 0.073258791898 0.282333657373 0.137949238906 0.238977881069 0.0919044077711 0.0355197727186 0.110169197986 0.0352398314894 0.198582556721 -0.184589333494 -0.0913215325988 0.0544427302175 -0.197499709754 -0.0954354743555 -0.216486220985 0.187435039016 0.151495240537 -0.288298402888 0.00819312949955 0.191708832358 -0.164297598933 -0.128435050006 -0.200993628358 -0.288340904919 0.036516015828 -0.0500271319794 -0.0753183232278 -0.0272081402499 -0.0782896869018 0.119140723115 0.00339157070598 0.106554849368 0.123315857718 0.053871536016 -0.25942731699 0.148583982344 -0.164031448816 -0.0333078842049 0.0824131004286 0.23301978742 -0.00078982356328 0.244042667884 0.346154410928 -0.16290459649 0.0713887910673 -0.197835965625 0.0706291075912 0.066953023881 -0.0786076392296 0.128833577812 -0.10477711821 -0.0380615342805 -0.0831536443728 -0.0660808472451 0.110679663531 0.276999931693 0.0821722317474 -0.163531045417 0.172805705103 -0.0430651382984 -0.003130106844 0.237919495896 0.225250394744 -0.139415883233 0.0317160346682 0.148241771394 -0.090593177585 -0.0751283558925 -0.170326976666 -0.161377882026 0.212932928738 -0.057998466467 -0.177650156905 -0.116240610522 0.0400445188901 0.0767205028864 -0.0436974267944 0.0887768565407 -0.134375397303 -0.105831064643 0.000553559945218 0.0531370132861 0.283466255922 -0.109626493693 -0.093392723484 -0.251105863698 -0.133632479063 0.114990627505 0.00399716549263 -0.105792508765 0.177028614373 -0.0672626167407 0.0506573129945 -0.149802224035 0.242308232465 0.160396161329 0.198717288504 -0.200904224415 -0.00301910639475 -0.259622712661 -0.147250549366 0.181917919408 -0.0925051130614 0.124455856469 0.163788937035 0.16570798647 0.18529796078 -0.110049654394 0.0572119396792 0.204360045353 -0.138549566778
can 0.026940692913 -0.0686683209274 0.122870561498 -0.0320277927466 -0.122626613128 0.0519533540985 0.0981975054192 0.113238628699 0.136087703881 0.0383663959326 0.203203557886 -0.13437247868 0.234334545772 -0.122710505609 -0.0968631877065 -0.210293684983 0.192047099067 0.142419778224 0.155825605945 -0.000723917266161 -0.0525905485396 0.106485264207 0.000393836878575 -0.249027981077 -0.288787254107 -0.283111288313 0.353759375978 -0.0704210091641 -0.0687133621518 0.0949902561624 0.101999872727 -0.131527924786 -0.0922884173557 -0.196499635109 -0.139261945572 0.0120356763918 0.0403045611829 0.10023026789 -0.129713618574 0.0638346404111 0.158529866925 0.0174261759697 0.208367872399 0.121460545404 0.0256937333098 -0.12959371025 0.272674579998 -0.0526845886948 -0.163400189252 0.17325486273 -0.0915817699273 0.0621809925422 0.220580770373 0.0329893338553 -0.104968919493 0.031897234508 0.0885552923004 0.198720516469 0.130819955196 -0.0801129447962 0.0767546106679 0.2171578481 0.164893772856 -0.0759056700519 0.0568740373728 -0.127093666854 0.0441391923128 0.0405156864524 -0.037529487827 0.109867731342 0.129132657362 0.0922068171468 0.102443633132 0.0688228312631 -0.0385961501736 0.000179626225828 -0.0917780848522 -0.0736490782869 -0.0129477493987 0.173081411112 -0.210844803487 0.180967411894 0.135301512138 -0.206340974147 -0.145385199828 0.0504405823832 -0.110982368219 -0.123456157715 0.218440754849 0.16288042542 -0.113637351837 -0.0291626654385 -0.125154348127 0.119381211206 -0.0127383351048 -0.0963064119581 0.0354560533605 0.133899782918 0.233819925698 0.114277412308 0.0610620993046 -0.162179717415 0.0432959481826 -0.0793270231731 -0.0798976332889 0.143776001974 -0.197706399115 0.206598149115 -0.0253198481176 0.139745973073 0.0178405818573 -0.176462124976 -0.116678185374 0.126124619156 -0.0278593530307 -0.0402452133619 -0.103136273801 0.20449784963 0.245912908879 -0.170324172418 0.12457009689 -0.141469180457 0.067362464924 0.21072324991 0.0512372792956 -0.104716678409 -0.219464317517 -0.183795096643 0.111008088905 0.283807295579 0.0775376050975 0.139146199939 0.0507362100407 -0.175719245098 -0.0796812385943 -0.109202016447 0.151297189062 0.153410750643 0.137571855387 -0.0752502391431 -0.0947661533971 0.0486647101893 0.129101291101 0.146793526439 0.09772649793 -0.0406835482698 0.219509242182 -0.127816392855 0.263916363903 -0.0998453654715 -0.122437647243 -0.139586950952 -0.157705528387 -0.215662252563 0.0149898994606 -0.13151374296 0.145062957192 -0.175698807331 0.0281789053632 0.052514623745 0.250234003763 -0.133156330088 0.10332534715 0.182993662836 0.141131816139 0.040979787035 0.223778590407 -0.0635095638187 -0.0684105151123 -0.12523946727 -0.0428921237283 -0.0338217933353 -0.0352515519301 0.0858061253115 -0.0449896233902 -0.0936680136696 0.0371514450207 0.160352900071 -0.0402082968449 -0.291872669771 0.133136401524 0.189004260765 -0.0373996087465 -0.100337674046 0.136334449901 -0.141634695715 0.174468176733 0.0166436323215 -0.138675755982 0.0727470218147 0.287400759893 0.140425027183 0.241837482418 0.0930458223846 0.0352923450218 0.111304144293 0.0377156112325 0.201873303476 -0.185947542377 -0.0907204973018 0.0557786141265 -0.201675140776 -0.0971991148691 -0.218631155227 0.18861395147 0.153214920057 -0.291018810604 0.00853596348111 0.191962648933 -0.167640830181 -0.130168891801 -0.202668616134 -0.292016683501 0.0393294200187 -0.0501128241233 -0.0754948087852 -0.0292153388802 -0.0793466586176 0.120484101742 0.00318284439993 0.105609317817 0.126317110819 0.0561642762461 -0.262796764255 0.151398611605 -0.164841719371 -0.0344179356463 0.0834650381675 0.235965724381 -0.000915594194403 0.246322955871 0.34871318547 -0.164270143092 0.0743705164788 -0.202938368022 0.0705701478699 0.0685989683311 -0.0794460106625 0.128325162522 -0.104790629672 -0.0389404760928 -0.0840616874538 -0.0658148911124 0.111864782952 0.27969292663 0.0838633134986 -0.166229060113 0.178032597596 -0.0431623392117 -0.00255930561574 0.241957313252 0.230071651978 -0.139321022106 0.0347619807996 0.151875510811 -0.0939253373219 -0.0757494913806 -0.174605483531 -0.163643519046 0.216673084927 -0.058300632235 -0.1794022163 -0.11748680631 0.0381866273712 0.07468028621 -0.0463940613186 0.0898809907386 -0.135629753791 -0.107480704425 -0.0016609572858 0.0541916163108 0.288712866526 -0.110569655211 -0.0931593511205 -0.254854977598 -0.13488673263 0.117906423167 0.00418403987365 -0.1053458398 0.178771978575 -0.0667850431844 0.049647934905 -0.151766746108 0.246388100218 0.161324985782 0.20281381821 -0.203503272198 -0.00106182856753 -0.260415342431 -0.149665832317 0.183516586252 -0.0925445244555 0.127816146551 0.16462483456 0.166562063268 0.187363625414 -0.111965211624 0.058894910832 0.208463306773 -0.140188973326
